{
  "input_shape": [
    28,
    28
  ],
  "preprocess": {
    "scale": 255.0
  },
  "layers": [
    {
      "type": "dense",
      "units": 128,
      "activation": "relu",
      "regularizer": {
        "type": "L2",
        "lambda": 0.001
      },
      "W": [
        [
          0.3189486861228943,
          -0.3777993321418762,
          -0.5692333579063416,
          0.5393902659416199,
          -0.24650336802005768,
          0.8728650808334351,
          0.6529251337051392,
          -0.0070687648840248585,
          -0.44923296570777893,
          0.7634038925170898,
          0.7665014863014221,
          0.16439929604530334,
          -0.06706702709197998,
          -0.8853921890258789,
          -0.8233556151390076,
          0.06560661643743515,
          0.49195539951324463,
          0.698859453201294,
          0.6653497219085693,
          -0.7925772666931152,
          -0.468715637922287,
          0.9784889817237854,
          1.0694352388381958,
          0.34645208716392517,
          0.040147822350263596,
          -0.1312202364206314,
          -0.20792455971240997,
          -0.5029414296150208,
          0.017685115337371826,
          -0.2677120864391327,
          -0.514138400554657,
          0.30340373516082764,
          0.9318906664848328,
          0.9236618280410767,
          1.0495703220367432,
          0.4447934925556183,
          0.8535417318344116,
          0.8460931181907654,
          -0.38178202509880066,
          -0.3925101161003113,
          0.12499640882015228,
          -0.2905988395214081,
          -0.45815783739089966,
          -0.09429403394460678,
          -0.5837956666946411,
          -1.0357393026351929,
          0.23820650577545166,
          0.517983078956604,
          -0.23666509985923767,
          0.4117152690887451,
          1.102766752243042,
          1.065421223640442,
          0.6435229182243347,
          0.30134865641593933,
          0.475134015083313,
          0.04233279451727867,
          0.633025586605072,
          0.14941556751728058,
          -0.027779877185821533,
          0.0804542675614357,
          0.3093205690383911,
          0.5267263650894165,
          0.21063382923603058,
          0.5816581845283508,
          1.0992846488952637,
          0.4190150499343872,
          0.01435423456132412,
          0.12723273038864136,
          -0.4543130397796631,
          -0.7175629138946533,
          -0.5344286561012268,
          -0.6218358874320984,
          -0.3087737560272217,
          0.3720463812351227,
          0.21201550960540771,
          0.6675954461097717,
          0.3004494905471802,
          -0.22179962694644928,
          -0.1550818383693695,
          0.19341042637825012,
          0.9412204623222351,
          0.8537828326225281,
          0.28497353196144104,
          0.5959555506706238,
          0.2612285614013672,
          0.15624694526195526,
          -0.0068781194277107716,
          -0.0025232487823814154,
          -0.46793133020401,
          0.0540601946413517,
          0.05487651750445366,
          1.2290685176849365,
          1.1153753995895386,
          0.16429641842842102,
          -0.11203942447900772,
          0.0736064612865448,
          -0.04821978881955147,
          -0.2513726055622101,
          -0.43618297576904297,
          -0.07366671413183212,
          0.13912467658519745,
          0.015025769360363483,
          -0.08915497362613678,
          0.48101240396499634,
          0.38749822974205017,
          -0.04214559867978096,
          -0.4807785749435425,
          -0.25239843130111694,
          0.4855112135410309,
          1.0493923425674438,
          0.4905082583427429,
          0.013449082151055336,
          0.902151346206665,
          0.348652184009552,
          0.3463228642940521,
          0.03243187069892883,
          -0.736229658126831,
          -0.48746728897094727,
          0.28605714440345764,
          0.8971136212348938,
          0.7565372586250305,
          -0.24075749516487122,
          0.011352133937180042,
          0.2429487407207489,
          -0.17448268830776215,
          -0.3591923415660858,
          -0.5822780132293701,
          0.12015936523675919,
          0.3184884786605835,
          0.16128970682621002,
          -0.011299756355583668,
          0.0580245777964592,
          0.4878425598144531,
          0.3041934669017792,
          -0.4074394106864929,
          -0.3222462236881256,
          0.20057283341884613,
          0.5938654541969299,
          0.16753380000591278,
          1.1793831586837769,
          0.7429681420326233,
          1.061449408531189,
          0.009928913787007332,
          -0.029358329251408577,
          -0.9056845307350159,
          -0.6975492835044861,
          0.19491155445575714,
          0.45521673560142517,
          0.621060311794281,
          -0.10099413245916367,
          -0.012003381736576557,
          -0.055919092148542404,
          -0.3273313641548157,
          -0.3866877555847168,
          -0.5507349967956543,
          0.23522308468818665,
          0.08445966243743896,
          0.13638663291931152,
          0.3016837239265442,
          -0.019242601469159126,
          0.24842076003551483,
          0.11639100313186646,
          -0.30076807737350464,
          -0.38176238536834717,
          -0.07394055277109146,
          0.3469070792198181,
          0.7525839805603027,
          2.153313159942627,
          0.47417163848876953,
          0.9321521520614624,
          -0.2571353614330292,
          -0.29075583815574646,
          -0.9738253951072693,
          -1.0636887550354004,
          -0.004517950117588043,
          0.1470465064048767,
          0.0649937242269516,
          0.08395082503557205,
          0.1936485767364502,
          -0.013705160468816757,
          0.1094871237874031,
          0.01984058879315853,
          -0.18878968060016632,
          0.22388723492622375,
          0.34304338693618774,
          0.5091304779052734,
          0.6648815274238586,
          0.215310201048851,
          0.058510370552539825,
          0.016909491270780563,
          -0.49004021286964417,
          -0.6834127902984619,
          -0.17126251757144928,
          0.4889114499092102,
          0.9230622053146362,
          1.5553240776062012,
          0.8691167235374451,
          0.20154328644275665,
          -0.2496825009584427,
          -0.5374684929847717,
          -1.215552568435669,
          -1.0056229829788208,
          -0.022998107597231865,
          0.2612854242324829,
          -0.2523368000984192,
          -0.19900169968605042,
          -0.11929832398891449,
          0.21448788046836853,
          0.29659855365753174,
          0.15675950050354004,
          -0.493938148021698,
          0.18818819522857666,
          0.49301308393478394,
          0.45887085795402527,
          0.42476460337638855,
          0.620854914188385,
          0.35882803797721863,
          0.09843611717224121,
          -0.3093665838241577,
          -0.6267305612564087,
          -0.2010469287633896,
          0.6980356574058533,
          0.36253198981285095,
          0.45153266191482544,
          0.682981014251709,
          0.23826517164707184,
          -0.15626947581768036,
          -0.7483440637588501,
          -1.292736530303955,
          -0.784283459186554,
          0.11308091133832932,
          0.21368949115276337,
          -0.325687974691391,
          -0.6571219563484192,
          -0.5416209101676941,
          0.241505965590477,
          0.06135047972202301,
          -0.1515859216451645,
          -0.3605492115020752,
          -0.12031473219394684,
          0.4706169664859772,
          0.555614709854126,
          -0.13159768283367157,
          0.2660748064517975,
          0.3303426206111908,
          0.2575277090072632,
          0.028002332895994186,
          -0.4798186123371124,
          0.016955511644482613,
          0.4482452869415283,
          -0.07564785331487656,
          -0.07907922565937042,
          1.2642937898635864,
          0.15631140768527985,
          -0.5036047697067261,
          -0.5366916060447693,
          -1.1201109886169434,
          -0.6016333699226379,
          0.09057135879993439,
          0.19668957591056824,
          -0.2738054394721985,
          -1.2518019676208496,
          -0.7197597622871399,
          0.1462252140045166,
          0.029654182493686676,
          -0.1528908610343933,
          -0.32261621952056885,
          0.17942333221435547,
          0.5615461468696594,
          0.6934877038002014,
          -0.34585025906562805,
          -0.11686334758996964,
          0.2716595232486725,
          0.10246465355157852,
          0.022815879434347153,
          0.10352367162704468,
          0.1110544204711914,
          0.4831155240535736,
          0.01829088106751442,
          -0.4431532323360443,
          1.4237335920333862,
          0.10768644511699677,
          -0.557815670967102,
          -0.6755059957504272,
          -1.0907131433486938,
          -0.48616087436676025,
          0.1948535293340683,
          0.24217671155929565,
          -0.6280226111412048,
          -1.4435985088348389,
          -0.35139235854148865,
          0.5912961959838867,
          0.32169464230537415,
          0.0622231625020504,
          0.119040347635746,
          0.42652493715286255,
          0.2678019404411316,
          0.404227077960968,
          -0.4250459671020508,
          -0.23266367614269257,
          0.28187745809555054,
          0.2496984601020813,
          0.3659166395664215,
          0.10428249090909958,
          -0.25643378496170044,
          0.3399271070957184,
          -0.04527359455823898,
          -1.1601837873458862,
          0.8816754221916199,
          0.02999427355825901,
          -0.6377570629119873,
          -1.1696561574935913,
          -1.1414802074432373,
          -0.40453076362609863,
          -0.2673673927783966,
          -0.0667315423488617,
          -0.6452552080154419,
          -1.290595293045044,
          -0.06195174530148506,
          0.7828297019004822,
          0.4355694055557251,
          0.4138551950454712,
          0.16400159895420074,
          0.3741062581539154,
          0.0889950767159462,
          0.13683781027793884,
          -0.44515666365623474,
          -0.620252788066864,
          0.15431421995162964,
          0.21410304307937622,
          0.26764050126075745,
          -0.26587146520614624,
          -0.4452935457229614,
          0.10631183534860611,
          0.05259150639176369,
          -1.0477313995361328,
          0.8156040906906128,
          0.21966877579689026,
          -0.5760001540184021,
          -1.0101869106292725,
          -0.9050126075744629,
          -0.24738474190235138,
          -0.4121439754962921,
          -0.2827748954296112,
          -0.47659817337989807,
          -0.9021726846694946,
          0.15532039105892181,
          0.20251138508319855,
          0.30645081400871277,
          0.28405776619911194,
          0.4476408362388611,
          0.48362645506858826,
          0.23312561213970184,
          0.37895721197128296,
          -0.07391469925642014,
          -0.3971273601055145,
          0.5228201746940613,
          0.39043211936950684,
          0.21993409097194672,
          -0.06835539638996124,
          -0.30064406991004944,
          -0.19268089532852173,
          -0.03859354183077812,
          -0.40083909034729004,
          -0.3350811302661896,
          0.0078092473559081554,
          -0.2814607620239258,
          -0.3890630900859833,
          -0.5858643651008606,
          -0.6099280118942261,
          -0.5352163910865784,
          -0.09859400987625122,
          -0.45394814014434814,
          -0.5393482446670532,
          0.087538942694664,
          0.26414021849632263,
          0.3005981743335724,
          0.5616588592529297,
          0.4293234646320343,
          0.4003078043460846,
          0.20930320024490356,
          0.10085459053516388,
          0.14867393672466278,
          -0.2094687968492508,
          0.3684675693511963,
          0.5728480815887451,
          0.21185088157653809,
          0.03391105309128761,
          -0.19530753791332245,
          0.057982541620731354,
          0.20145690441131592,
          0.21908235549926758,
          -0.41040274500846863,
          0.06308843195438385,
          -0.18355830013751984,
          -0.3712081015110016,
          -0.8209490180015564,
          -1.240261435508728,
          -0.7716463208198547,
          -0.5492485761642456,
          -0.4549197256565094,
          -0.4711308479309082,
          -0.016747718676924706,
          0.25031211972236633,
          -0.039704520255327225,
          0.4059775769710541,
          0.28034505248069763,
          0.21368762850761414,
          0.16219757497310638,
          0.10511405766010284,
          -0.07464978843927383,
          -0.18061894178390503,
          -0.007930637337267399,
          0.39084872603416443,
          -0.09896189719438553,
          -0.20952726900577545,
          -0.19746935367584229,
          0.23133809864521027,
          0.3505275845527649,
          0.38658803701400757,
          -0.09659834206104279,
          0.09201035648584366,
          0.27302053570747375,
          -0.03409413993358612,
          -0.5619175434112549,
          -1.2228577136993408,
          -0.8864656090736389,
          -0.7154852747917175,
          -0.7742089629173279,
          -0.35905835032463074,
          0.08566834032535553,
          0.14082181453704834,
          0.28607627749443054,
          0.42920464277267456,
          0.2836166322231293,
          0.39116156101226807,
          0.24884572625160217,
          0.14228257536888123,
          -0.03497399017214775,
          -0.2822546362876892,
          -0.1414240151643753,
          -0.022848093882203102,
          -0.3029964566230774,
          -0.20584607124328613,
          -0.041317168623209,
          0.3829021453857422,
          0.09297378361225128,
          0.007486499380320311,
          0.6651736497879028,
          0.28132617473602295,
          0.49337315559387207,
          0.36428993940353394,
          -0.4009047746658325,
          -1.1236209869384766,
          -1.0346779823303223,
          -0.8127902746200562,
          -0.603539764881134,
          -0.13180698454380035,
          0.26658910512924194,
          0.13305668532848358,
          0.1810314655303955,
          0.7133194208145142,
          0.3563311994075775,
          0.31598833203315735,
          0.28254592418670654,
          0.3211633563041687,
          0.03662688657641411,
          0.12120639532804489,
          -0.12483594566583633,
          0.11820540577173233,
          -0.32328495383262634,
          -0.013442633673548698,
          0.12324120104312897,
          0.06654801219701767,
          -0.2822680175304413,
          0.209227055311203,
          0.15611672401428223,
          0.3117690682411194,
          0.9882845878601074,
          0.5386500954627991,
          -0.20799359679222107,
          -0.961595356464386,
          -0.7574363946914673,
          -0.46386194229125977,
          -0.3145450949668884,
          -0.035401780158281326,
          0.4147323668003082,
          0.29487597942352295,
          0.25598031282424927,
          0.7020318508148193,
          0.4481046199798584,
          0.3688875734806061,
          0.37845316529273987,
          0.24202746152877808,
          -0.0025762112345546484,
          0.020972369238734245,
          -0.06020302325487137,
          0.26446470618247986,
          -0.2546232342720032,
          -0.16714352369308472,
          -0.1394755244255066,
          -0.2842136025428772,
          -0.31552398204803467,
          -0.10180512815713882,
          0.3796551525592804,
          0.3631322979927063,
          0.8445616960525513,
          0.5482597947120667,
          0.14189600944519043,
          -0.6313002705574036,
          -0.4519001543521881,
          -0.26614511013031006,
          -0.30467116832733154,
          0.026120295748114586,
          0.19477525353431702,
          0.20879411697387695,
          0.24250924587249756,
          0.8014634251594543,
          0.4229758083820343,
          0.22623465955257416,
          0.32568687200546265,
          0.019360944628715515,
          0.05590488761663437,
          -0.0035494815092533827,
          0.338518351316452,
          0.3349320590496063,
          -0.2554614543914795,
          0.043853141367435455,
          0.04702550545334816,
          -0.3330194056034088,
          -0.11956816166639328,
          -3.593485234887339e-05,
          -0.0965866670012474,
          0.2022097259759903,
          0.6749171018600464,
          0.3752482235431671,
          0.21437370777130127,
          -0.8588151335716248,
          -0.2921244502067566,
          -0.2202640175819397,
          -0.481228768825531,
          -0.0727216973900795,
          -0.029877008870244026,
          0.2542749345302582,
          0.3205137252807617,
          0.5648571252822876,
          0.465894877910614,
          0.42192885279655457,
          0.3086496889591217,
          0.2884213924407959,
          -0.013152034021914005,
          0.093532495200634,
          0.33551323413848877,
          0.3210877478122711,
          0.01502007246017456,
          -0.1256767064332962,
          0.13864903151988983,
          -0.4442005157470703,
          -0.04373127594590187,
          1.1235926151275635,
          0.46949926018714905,
          0.39499399065971375,
          0.8406143188476562,
          0.5793708562850952,
          0.1852274090051651,
          -0.48354944586753845,
          -0.30162811279296875,
          -0.5451540946960449,
          -0.74966961145401,
          -0.14910967648029327,
          0.22123141586780548,
          0.23205061256885529,
          0.19684797525405884,
          0.5270895957946777,
          0.45690178871154785,
          0.4321129024028778,
          0.3384864032268524,
          0.5211025476455688,
          0.40380388498306274,
          0.17411568760871887,
          -0.05951115861535072,
          -0.07834170758724213,
          -0.07581134140491486,
          0.030680976808071136,
          0.356236070394516,
          -0.2952445447444916,
          0.13509617745876312,
          1.0141559839248657,
          0.1138341948390007,
          0.05541318282485008,
          0.6383490562438965,
          0.5138453841209412,
          0.246965229511261,
          -0.4929051697254181,
          -0.5579374432563782,
          -0.7797146439552307,
          -0.6606333255767822,
          -0.19982537627220154,
          0.011371965520083904,
          0.007414246443659067,
          0.1323382556438446,
          0.5793156027793884,
          0.3564927577972412,
          0.04371216148138046,
          0.20793047547340393,
          0.34005290269851685,
          0.25470608472824097,
          0.11496450752019882,
          -0.2884567379951477,
          -0.3473793566226959,
          -0.31421923637390137,
          -0.0905257984995842,
          0.36915743350982666,
          0.10401598364114761,
          0.20501479506492615,
          0.7431207895278931,
          0.13635268807411194,
          0.445510596036911,
          0.678490161895752,
          0.6066424250602722,
          0.1280512660741806,
          -0.5160362720489502,
          -0.7313054800033569,
          -0.7968273162841797,
          -0.47173699736595154,
          0.03698837384581566,
          0.18956533074378967,
          0.3782382607460022,
          0.27582448720932007,
          0.5263057947158813,
          0.7134004235267639,
          0.4504658877849579,
          0.32436680793762207,
          0.3903072774410248,
          0.09830430150032043,
          -0.3290577232837677,
          -0.16059528291225433,
          -0.5696187019348145,
          -0.43686240911483765,
          -0.5302014350891113,
          0.10984472185373306,
          -0.37849223613739014,
          0.049565963447093964,
          0.4304546117782593,
          -0.29157689213752747,
          -0.21275779604911804,
          0.3541436195373535,
          0.18024085462093353,
          0.019509397447109222,
          -0.15621520578861237,
          -0.6814178824424744,
          -0.6604499816894531,
          -0.11869828402996063,
          -0.0008330402779392898,
          0.1094685047864914,
          0.3278352618217468,
          0.34066301584243774,
          0.7158207893371582,
          0.5619888305664062,
          0.15506568551063538,
          0.35320034623146057,
          0.32961001992225647,
          -0.20238132774829865,
          -0.2841922640800476,
          0.03478609770536423,
          -0.5480542778968811,
          -0.34694722294807434,
          -0.2482726275920868,
          0.12120325863361359,
          -0.13410016894340515,
          -0.14457303285598755,
          0.5352734327316284,
          0.25141552090644836,
          -0.23961186408996582,
          0.03681031987071037,
          -0.1212410032749176,
          -0.38333040475845337,
          -0.13218072056770325,
          -0.5949039459228516,
          -0.485233873128891,
          0.17691189050674438,
          0.033606790006160736,
          0.47452449798583984,
          0.5989418029785156,
          0.5781168937683105,
          0.8404886722564697,
          0.7284733653068542,
          0.3861575126647949,
          0.2722128629684448,
          0.14702752232551575,
          -0.17746023833751678,
          0.07541626691818237,
          0.15648622810840607,
          -0.92489093542099,
          -0.20616461336612701,
          -0.4283427894115448,
          -0.4004549980163574,
          -0.07612638920545578,
          -0.23793581128120422,
          0.1779613345861435,
          -0.54500412940979,
          -0.26669636368751526,
          -0.0653110221028328,
          -0.1608075499534607,
          -0.33958137035369873,
          -0.18819396197795868,
          -0.38300850987434387,
          -0.4905702471733093,
          -0.28661635518074036,
          -0.12715668976306915,
          0.5254948139190674,
          0.8078898787498474,
          0.6640380024909973,
          1.1863837242126465,
          1.0197138786315918,
          0.6979271769523621,
          0.7358534932136536,
          0.5626384019851685,
          0.16658388078212738,
          0.19299453496932983,
          -0.17811425030231476,
          -0.7730140089988708,
          0.12236950546503067,
          -0.46471285820007324,
          -0.07983504235744476,
          0.34192150831222534,
          0.03622901439666748,
          0.5610958933830261,
          -0.8873084783554077,
          -0.7638777494430542,
          -0.04198938608169556,
          0.34235939383506775,
          -0.04816918075084686,
          -0.5673267841339111,
          -0.5032005906105042,
          -0.5092148184776306,
          -0.27110427618026733,
          -0.19498349726200104,
          0.7629954218864441,
          1.2921456098556519,
          0.9331980347633362,
          1.4850441217422485,
          1.6619348526000977,
          0.9680648446083069,
          1.037121295928955,
          0.6575249433517456,
          0.2507103383541107,
          -0.1652034968137741,
          -0.39955219626426697,
          -0.7176012992858887,
          -0.1845276653766632,
          -0.43434733152389526,
          0.06264704465866089,
          -0.1549377590417862,
          -0.09611918777227402,
          0.4540199935436249,
          -1.00924813747406,
          -1.0709561109542847,
          -1.1167038679122925,
          -0.8614789843559265,
          -0.5055076479911804,
          -0.9381312727928162,
          -1.4574183225631714,
          -0.7405934929847717,
          -0.235744446516037,
          -0.07002503424882889,
          0.7951136231422424,
          0.6355646252632141,
          0.4714292287826538,
          1.4785100221633911,
          1.4374802112579346,
          0.4835189878940582,
          0.49608051776885986,
          0.2952914535999298,
          -0.2853066921234131,
          -1.092445969581604,
          -1.0973849296569824,
          -1.888256549835205,
          -1.200791597366333,
          -1.1614279747009277,
          -0.6056767702102661,
          -0.7342134714126587,
          -0.7136895060539246,
          -0.36177465319633484
        ],
        [
          0.0949055403470993,
          -0.11788272112607956,
          0.05773455277085304,
          0.05762658268213272,
          0.02993391640484333,
          0.0435970164835453,
          -0.03580209240317345,
          -0.01659458689391613,
          -0.06355895102024078,
          0.023887526243925095,
          -0.08473725616931915,
          -0.10442867130041122,
          -0.04658439755439758,
          -0.06865696609020233,
          -0.08478245139122009,
          0.0414716899394989,
          -0.00277377525344491,
          -0.005744826514273882,
          -0.09345625340938568,
          0.006825984455645084,
          -0.049706149846315384,
          -0.0722552090883255,
          0.04967781528830528,
          -0.05031070113182068,
          0.009636349976062775,
          0.004859477747231722,
          0.09283191710710526,
          -0.008984611369669437,
          0.07962515205144882,
          0.013699658215045929,
          -0.06189454719424248,
          0.02449025586247444,
          -0.09920176863670349,
          0.027234483510255814,
          -0.0499548576772213,
          0.023571856319904327,
          0.056322913616895676,
          -0.0031190996523946524,
          0.027458107098937035,
          -0.04343222826719284,
          -0.01214902475476265,
          -0.056103821843862534,
          -0.016269981861114502,
          -0.03133373335003853,
          0.051203176379203796,
          -0.022991646081209183,
          0.09365081042051315,
          -0.10342959314584732,
          -0.05215461179614067,
          -0.025543678551912308,
          -0.03046003356575966,
          0.02798379957675934,
          -0.01788179948925972,
          0.11497101932764053,
          -0.02375616878271103,
          0.07151693850755692,
          -0.003245198167860508,
          0.005327330902218819,
          0.021352563053369522,
          -0.04201455041766167,
          0.033539146184921265,
          0.01721559464931488,
          -0.12022233009338379,
          0.013934322632849216,
          -0.040548838675022125,
          -0.005470144562423229,
          0.05424026772379875,
          -0.009808223694562912,
          0.04275904595851898,
          -0.021077755838632584,
          -0.034397192299366,
          0.003989739343523979,
          0.11320337653160095,
          0.013762962073087692,
          0.05686000734567642,
          -0.04937870055437088,
          0.009879862889647484,
          -0.060926198959350586,
          0.07989916205406189,
          0.05388118326663971,
          0.017772788181900978,
          0.012869001366198063,
          -0.018135765567421913,
          -0.016261523589491844,
          -0.09352125972509384,
          -0.03430100157856941,
          0.030150823295116425,
          0.012509654276072979,
          -0.07074442505836487,
          -0.040795862674713135,
          0.03313988447189331,
          0.02325497567653656,
          0.049636390060186386,
          -0.11393005400896072,
          0.01129205897450447,
          0.0004162072145845741,
          -0.00565125048160553,
          0.08831731975078583,
          0.09039822220802307,
          -0.04095383360981941,
          0.08812955021858215,
          -0.061398327350616455,
          -0.047463830560445786,
          -0.035955604165792465,
          -0.008619842119514942,
          0.05955112725496292,
          0.06321056187152863,
          -0.02614443562924862,
          -0.0008261465118266642,
          0.056101858615875244,
          0.053864188492298126,
          -0.013172205537557602,
          0.028383266180753708,
          0.055697448551654816,
          0.034198321402072906,
          -0.019044190645217896,
          0.033909872174263,
          0.046384625136852264,
          0.05601586773991585,
          -0.098903588950634,
          -0.02146255038678646,
          -0.017489135265350342,
          -0.06788522750139236,
          -0.06941984593868256,
          0.054271697998046875,
          0.048618897795677185,
          0.01984715834259987,
          -0.01072314940392971,
          -0.032329101115465164,
          0.022459903731942177,
          -0.01816394180059433,
          0.04702560976147652,
          -0.008811741136014462,
          0.00625647371634841,
          0.13371895253658295,
          0.02338523417711258,
          -0.05455058440566063,
          0.022022586315870285,
          0.02848987467586994,
          -0.056362614035606384,
          0.08132826536893845,
          -0.06478650122880936,
          -0.027232438325881958,
          0.07315588742494583,
          0.010389445349574089,
          -0.10678940266370773,
          0.0681736171245575,
          0.0014776221942156553,
          0.004231513012200594,
          -0.028120463714003563,
          -0.012654193677008152,
          -0.013449331745505333,
          -0.027828650549054146,
          -0.038630690425634384,
          -0.03281838074326515,
          0.09041620790958405,
          -0.1662401407957077,
          -0.026191962882876396,
          0.02117619290947914,
          -0.05931996554136276,
          -0.0745890736579895,
          -0.008669262751936913,
          -0.02359631285071373,
          -0.026618503034114838,
          -0.030401013791561127,
          0.05165595933794975,
          -0.05615653842687607,
          0.01743035949766636,
          0.036434244364500046,
          0.02023211307823658,
          -0.08430107682943344,
          0.018371110782027245,
          -0.022862831130623817,
          0.007079153787344694,
          -0.020100289955735207,
          0.04482237249612808,
          0.05854842811822891,
          0.018630649894475937,
          -0.008918813429772854,
          0.004376599565148354,
          -0.025454411283135414,
          -0.006062239874154329,
          -0.09956733882427216,
          -0.01550842635333538,
          -0.038161054253578186,
          -0.03266109526157379,
          -0.05369468033313751,
          -0.00775914266705513,
          -0.022056730464100838,
          0.017665991559624672,
          -0.07544607669115067,
          0.008899541571736336,
          0.0155124980956316,
          0.03960084915161133,
          0.046660203486680984,
          0.027118096128106117,
          0.07897088676691055,
          0.07640348374843597,
          -0.00867918599396944,
          -0.09004294127225876,
          0.0406792089343071,
          0.07979597896337509,
          -0.0010532645974308252,
          -0.04876348376274109,
          -0.06612658500671387,
          0.015774792060256004,
          0.02822449803352356,
          0.0071013858541846275,
          -0.02260417491197586,
          0.019173236563801765,
          0.018857598304748535,
          0.06417687982320786,
          0.06559272855520248,
          0.09837447106838226,
          0.029879935085773468,
          -0.0009122907067649066,
          -0.010070519521832466,
          -0.01904270425438881,
          0.005328223574906588,
          0.04553272947669029,
          -0.13678832352161407,
          -0.019633824005723,
          0.016322126612067223,
          -0.07115683704614639,
          -0.04114444553852081,
          -0.0036732316948473454,
          0.043793078511953354,
          0.011392371729016304,
          -0.010409106500446796,
          -0.03251153230667114,
          -0.023647448047995567,
          0.11330202221870422,
          -0.03749862313270569,
          -0.017190655693411827,
          0.10450399667024612,
          -0.01549171470105648,
          0.026424024254083633,
          -0.04888221621513367,
          -0.01992148533463478,
          -0.06293509155511856,
          0.02152824029326439,
          -0.05725840851664543,
          -0.003725091926753521,
          -0.018707439303398132,
          -0.07206524908542633,
          0.024249713867902756,
          -0.12727776169776917,
          0.06330326199531555,
          0.04417417570948601,
          0.04502149298787117,
          -0.11072847992181778,
          -0.008451292291283607,
          -0.11592715233564377,
          0.020512480288743973,
          0.004306061193346977,
          -0.009331188164651394,
          0.010931911878287792,
          -0.039351947605609894,
          0.0555959977209568,
          -0.009599857032299042,
          -0.023091020062565804,
          0.04626826196908951,
          -0.046548694372177124,
          -0.034754678606987,
          -0.10561511665582657,
          0.035166528075933456,
          -0.07198692858219147,
          0.07138099521398544,
          -0.09804896265268326,
          -0.08293507248163223,
          0.02525949850678444,
          -0.053596217185258865,
          0.012801830656826496,
          -0.05274352803826332,
          -0.0268570426851511,
          -0.0281724464148283,
          -0.08529242128133774,
          0.06835364550352097,
          -0.06897544115781784,
          0.019388562068343163,
          -0.03481119126081467,
          0.0682186558842659,
          -0.04070142284035683,
          0.0671411007642746,
          -0.015977032482624054,
          0.04852742329239845,
          -0.013015677221119404,
          0.04956332594156265,
          0.027347907423973083,
          0.03234284371137619,
          0.08146567642688751,
          -0.0019774185493588448,
          0.021204698830842972,
          -0.045704081654548645,
          0.07759632170200348,
          -0.06064927577972412,
          -0.02329668030142784,
          -0.02821172960102558,
          -0.04030846431851387,
          -0.09518406540155411,
          0.03788268193602562,
          -0.03874131664633751,
          -0.07074951380491257,
          -0.0661325454711914,
          0.05131620541214943,
          -0.0002722233475651592,
          -0.04637308418750763,
          0.08250946551561356,
          -0.04499451071023941,
          -0.003195761004462838,
          0.013515565544366837,
          0.035298701375722885,
          -0.04124530404806137,
          -0.01980236917734146,
          -0.10561823099851608,
          -0.03903975337743759,
          -0.015217876061797142,
          -0.03387986496090889,
          0.017508959397673607,
          -0.0333455428481102,
          -0.05687002092599869,
          0.019873321056365967,
          -0.03959925100207329,
          -0.02006068453192711,
          -0.024658987298607826,
          -0.03946470469236374,
          -0.03188611939549446,
          0.15037313103675842,
          0.01926475763320923,
          0.004936493933200836,
          -0.026147110387682915,
          -0.018346672877669334,
          -0.08877542614936829,
          -0.05637077987194061,
          0.06811737269163132,
          -0.004905678331851959,
          -0.03776127099990845,
          0.05702608823776245,
          -0.024144506081938744,
          0.005393924191594124,
          -0.017345266416668892,
          -0.05307323858141899,
          0.00292574823834002,
          -0.018026938661932945,
          -0.004897295031696558,
          -0.04159671813249588,
          -0.1290358603000641,
          0.019427234306931496,
          -0.06969257444143295,
          -0.06781040132045746,
          0.01602349802851677,
          -0.02483098767697811,
          -0.0659625232219696,
          0.055598895996809006,
          -0.1328182816505432,
          -0.06583210080862045,
          -0.02074194699525833,
          0.021231111139059067,
          -0.023216990754008293,
          -0.028555909171700478,
          -0.0236823633313179,
          0.026050539687275887,
          -0.013244180008769035,
          0.015391596592962742,
          0.0221551563590765,
          -0.0036638975143432617,
          -0.03798316419124603,
          -0.05128984525799751,
          0.06598805636167526,
          0.08447438478469849,
          -0.058239564299583435,
          -0.07625715434551239,
          -0.027497613802552223,
          -0.047557465732097626,
          0.02656327188014984,
          -0.04089915007352829,
          -0.01996404305100441,
          0.03486514464020729,
          -0.013645170256495476,
          -0.03459930792450905,
          0.03803511708974838,
          -0.012724901549518108,
          0.008373774588108063,
          0.021405011415481567,
          0.018301744014024734,
          -0.06840862333774567,
          0.002492834348231554,
          -0.04589233547449112,
          0.029563551768660545,
          -0.004673902411013842,
          0.05896681547164917,
          0.002276044338941574,
          0.03884226828813553,
          -0.09489832818508148,
          -0.02273530326783657,
          -0.016309019178152084,
          0.0007388649974018335,
          -0.035796668380498886,
          -0.06095398589968681,
          -0.061186227947473526,
          -0.009754102677106857,
          -0.0379798449575901,
          0.02716575376689434,
          -0.005717384163290262,
          0.009645648300647736,
          0.07288984209299088,
          -0.0034501729533076286,
          0.11088383942842484,
          0.0054275416769087315,
          -0.028380965813994408,
          0.10373704880475998,
          0.019257528707385063,
          -0.024377819150686264,
          -0.047833699733018875,
          0.016087202355265617,
          0.0435745008289814,
          0.06805730611085892,
          -0.05827483534812927,
          -0.04537005349993706,
          -0.03844130411744118,
          0.03612474352121353,
          0.06688094884157181,
          -0.008644497022032738,
          -0.02050495520234108,
          -0.06988616287708282,
          0.053633179515600204,
          0.07116860151290894,
          0.0305807963013649,
          0.09965948015451431,
          0.010763936676084995,
          -0.05198360234498978,
          0.03420371189713478,
          0.01746378466486931,
          0.0057923272252082825,
          0.018161876127123833,
          0.061116501688957214,
          -0.0481739342212677,
          -0.08180752396583557,
          0.044394541531801224,
          0.02742037922143936,
          -0.021175265312194824,
          0.13859346508979797,
          0.036478228867053986,
          -0.021871965378522873,
          -0.003338438458740711,
          -0.02663799747824669,
          -0.029780693352222443,
          0.05409671366214752,
          -0.06166746839880943,
          -0.03712349385023117,
          -0.03894728794693947,
          0.07273270189762115,
          -0.014584552496671677,
          -0.016469039022922516,
          0.008822189643979073,
          -0.03159070760011673,
          0.10203147679567337,
          0.042636286467313766,
          0.07047910988330841,
          -0.01070217415690422,
          -0.0068052830174565315,
          0.043361593037843704,
          -0.031356330960989,
          0.05613650009036064,
          0.030851153656840324,
          0.020173698663711548,
          -0.011860224418342113,
          -0.016232678666710854,
          -0.0076408605091273785,
          -0.05399985983967781,
          -0.02710862085223198,
          0.00531160831451416,
          0.06295458972454071,
          0.052532490342855453,
          -0.010330002754926682,
          -0.015262197703123093,
          0.051475267857313156,
          0.05151045694947243,
          -0.007155098486691713,
          -0.056577183306217194,
          0.009557188488543034,
          -0.04750823974609375,
          0.027716971933841705,
          0.00460116658359766,
          0.03912841156125069,
          -0.03187313303351402,
          -0.06552731990814209,
          0.024041015654802322,
          0.04260515421628952,
          0.003386532189324498,
          0.03745520859956741,
          0.04408989101648331,
          -0.03379097208380699,
          0.07387557625770569,
          0.005730003118515015,
          -0.03880009427666664,
          -0.047500502318143845,
          -0.02207455225288868,
          0.06350424140691757,
          -0.05621263384819031,
          -0.0499086007475853,
          0.03956666961312294,
          0.0762416273355484,
          0.03200311213731766,
          -0.06437584012746811,
          -0.08798813819885254,
          -0.0268932543694973,
          -0.03095032274723053,
          -0.002253549639135599,
          0.06966838985681534,
          -0.06443478167057037,
          -0.02606130763888359,
          0.03347781300544739,
          -0.0031908012460917234,
          -0.045284394174814224,
          -0.05979165434837341,
          0.04500414803624153,
          0.08495910465717316,
          0.05427372455596924,
          -0.010607164353132248,
          -0.025253208354115486,
          -0.061008520424366,
          -0.05398665741086006,
          -0.03954174742102623,
          -0.0367904007434845,
          -0.07850466668605804,
          -0.07951819151639938,
          -0.001659028697758913,
          0.06853673607110977,
          -0.018085427582263947,
          -0.010151990689337254,
          -0.02499566413462162,
          -0.03152810037136078,
          0.048843223601579666,
          0.04496534541249275,
          -0.07452311366796494,
          0.027466541156172752,
          -0.00027133134426549077,
          -0.09479375928640366,
          -0.03561488911509514,
          -0.035031192004680634,
          0.004257673397660255,
          -0.046549905091524124,
          0.0505029521882534,
          -0.03896331042051315,
          -0.012497860006988049,
          0.04961388185620308,
          0.07259071618318558,
          -0.0021086419001221657,
          -0.05697742477059364,
          -0.017540182918310165,
          0.019497450441122055,
          -0.0028479851316660643,
          -0.07719455659389496,
          0.011551076546311378,
          0.008256685920059681,
          0.042446400970220566,
          0.0018717263592407107,
          -0.019990945234894753,
          0.01696319691836834,
          0.08276431262493134,
          -0.06815779209136963,
          0.03902149572968483,
          -0.026373278349637985,
          0.047968845814466476,
          0.059337496757507324,
          0.06946276128292084,
          -0.03084574267268181,
          0.07066979259252548,
          -0.023623907938599586,
          0.07228594273328781,
          0.0451795868575573,
          -0.0050938185304403305,
          -0.04381144046783447,
          0.04917439818382263,
          -0.053814955055713654,
          0.028064319863915443,
          0.027068642899394035,
          -0.013723938725888729,
          0.08928098529577255,
          0.003355333348736167,
          -0.05840572342276573,
          -0.10459321737289429,
          -0.06680772453546524,
          -0.04063808172941208,
          0.013683799654245377,
          0.04699419066309929,
          0.028185751289129257,
          -0.08968675136566162,
          0.1373579055070877,
          -0.0037762706633657217,
          -0.050192661583423615,
          -0.07963082194328308,
          0.03373530134558678,
          -0.006195617374032736,
          -0.06281866878271103,
          -0.026279266923666,
          -0.056560516357421875,
          0.006056487560272217,
          -0.06174538657069206,
          -0.01582586206495762,
          -0.07879457622766495,
          -0.04269285127520561,
          -0.02415541186928749,
          -0.06465079635381699,
          -0.07265980541706085,
          -0.047519538551568985,
          -0.04131481796503067,
          -0.0070044780150055885,
          0.040883224457502365,
          -0.01952540874481201,
          0.08593153208494186,
          -0.03588327765464783,
          0.007473665755242109,
          0.023491282016038895,
          -0.024146368727087975,
          0.030452420935034752,
          0.028673889115452766,
          0.07121279090642929,
          0.01697087660431862,
          0.020133310928940773,
          -0.019803835079073906,
          0.009444276802241802,
          -0.06723379343748093,
          0.04813039302825928,
          0.012792656198143959,
          -0.006899343337863684,
          0.006548801437020302,
          -0.04417037218809128,
          -0.03427359461784363,
          -0.02061311900615692,
          -0.010651549324393272,
          0.036810897290706635,
          0.016127049922943115,
          0.05943271890282631,
          -0.03068597801029682,
          0.06781826913356781,
          -0.0406673438847065,
          0.057090673595666885,
          0.0833156555891037,
          0.0033573750406503677,
          -0.05262254923582077,
          0.04152549430727959,
          -0.01804572343826294,
          0.013817692175507545,
          -0.048017729073762894,
          -0.012016123160719872,
          0.016929637640714645,
          0.00824679620563984,
          0.04048124700784683,
          0.057842761278152466,
          -0.05105406790971756,
          -0.06576023995876312,
          0.04257813096046448,
          -0.05978040397167206,
          -0.06683353334665298,
          0.1184815987944603,
          0.044258128851652145,
          0.014502161182463169,
          0.045031290501356125,
          -0.03828053176403046,
          -0.001282772165723145,
          0.040965862572193146,
          -0.04162444546818733,
          0.09681504219770432,
          -0.04480670019984245,
          -0.0981622189283371,
          -0.04700494930148125,
          0.003898359602317214,
          0.0031534372828900814,
          0.020555753260850906,
          0.1389588564634323,
          0.01095995120704174,
          0.0004577415529638529,
          0.0939357578754425,
          -0.08510693162679672,
          -0.08708074688911438,
          -0.11338303238153458,
          -0.06208011507987976,
          -0.046711765229701996,
          0.046409256756305695,
          0.07764177769422531,
          -0.003154336242005229,
          0.020899521186947823,
          -0.12344691902399063,
          -0.06286194175481796,
          -0.005051761399954557,
          0.07334697991609573,
          -0.04095485433936119,
          0.01892632432281971,
          0.0027386618312448263,
          0.07751737534999847,
          0.0037868409417569637,
          0.07553958892822266,
          0.008557775989174843,
          -0.041035667061805725,
          -0.020928578451275826,
          0.10778676718473434,
          -0.0934818908572197,
          -0.029027046635746956,
          -0.03202236443758011,
          -0.07030550390481949,
          0.019794972613453865,
          0.03127453848719597,
          -0.033021509647369385,
          -0.05731698125600815,
          0.01621062308549881,
          -0.05824130028486252,
          -0.03277802839875221,
          0.0016305154422298074,
          -0.056410059332847595,
          -0.005275926552712917,
          -0.03699250891804695,
          0.007438942790031433,
          -0.024282172322273254,
          -0.06194927543401718,
          -0.0009071185486391187,
          0.010167747735977173,
          -0.024579498916864395,
          0.15123575925827026,
          -0.029097668826580048,
          0.0902140662074089,
          -0.026297181844711304,
          0.05706697329878807,
          -0.0310838520526886,
          0.01898176409304142,
          0.00040384187013842165,
          -0.05714498087763786,
          -0.05051053687930107,
          -0.0045379712246358395,
          -0.0652434304356575,
          -0.07866526395082474,
          -0.09744222462177277,
          0.013105982914566994,
          -0.0905441865324974,
          -0.056375302374362946,
          -0.08536072075366974,
          -0.03549598529934883,
          0.0020807695109397173,
          -0.07316097617149353,
          -0.01572410762310028,
          -0.011927795596420765,
          0.0310074295848608,
          0.00779044209048152,
          -0.002401145873591304,
          0.0010145421838387847,
          0.01026611216366291,
          -0.0640871599316597,
          -0.08344724774360657,
          0.015474935993552208,
          0.03836645931005478,
          -0.013185849413275719,
          -0.026338107883930206,
          -0.09060002863407135,
          0.012444894760847092,
          0.07935726642608643,
          -0.03365274891257286,
          -0.061338428407907486,
          0.011811800301074982,
          0.07007508724927902,
          -0.06589946895837784,
          0.059770386666059494,
          0.04118398204445839,
          0.03174585849046707,
          0.060708705335855484,
          0.06586790829896927,
          0.038891568779945374,
          -0.01644253171980381,
          0.04516400396823883,
          -0.021538134664297104,
          -0.03333675116300583,
          0.04590017348527908,
          0.04981422796845436,
          -0.07096543163061142,
          0.021710481494665146,
          0.04234737157821655,
          -0.029956242069602013,
          0.061266303062438965,
          -0.01615971326828003,
          -0.006163133308291435,
          -0.07215403020381927,
          0.07461293786764145,
          -0.06978312879800797,
          -0.013037326745688915
        ],
        [
          0.008336488157510757,
          -0.02864588238298893,
          0.04633811488747597,
          0.011482378467917442,
          0.04577748104929924,
          -0.030542533844709396,
          -0.04565860703587532,
          -0.05371588468551636,
          0.05661522224545479,
          0.05950726568698883,
          -0.07916780561208725,
          0.08521824330091476,
          -0.011585204862058163,
          -0.06383759528398514,
          0.029378211125731468,
          -0.013857248239219189,
          0.007321771699935198,
          -0.07191359251737595,
          -0.03152397274971008,
          0.07704328000545502,
          -0.08221381902694702,
          -0.06035185977816582,
          -0.09282123297452927,
          0.020208138972520828,
          -0.012715904042124748,
          0.011073501780629158,
          0.027464019134640694,
          -0.01669103279709816,
          -0.03607901930809021,
          -0.05303295701742172,
          0.01964752934873104,
          -0.12360617518424988,
          0.069733165204525,
          0.030729269608855247,
          -0.03654981777071953,
          -0.05623268336057663,
          -0.05536792054772377,
          0.05172338709235191,
          -0.060080498456954956,
          -0.09670987725257874,
          -0.069742850959301,
          0.034873202443122864,
          -0.02175120823085308,
          -0.12898440659046173,
          -0.07271259278059006,
          0.02216063067317009,
          0.03250934183597565,
          0.026775741949677467,
          -0.019302189350128174,
          0.05883712321519852,
          -0.06844503432512283,
          -0.03314192220568657,
          -0.048861097544431686,
          0.007958350703120232,
          0.06273406744003296,
          0.11441755294799805,
          0.11938183754682541,
          0.10412658751010895,
          0.03595408424735069,
          -0.06950467824935913,
          -0.018232207745313644,
          -0.01691635511815548,
          0.0956219732761383,
          -0.04268311336636543,
          -0.035215653479099274,
          -0.028787098824977875,
          -0.02882436104118824,
          0.05683577060699463,
          -0.011282128281891346,
          -0.02952728606760502,
          0.1013006940484047,
          0.019245998933911324,
          0.00282569439150393,
          -0.04600220173597336,
          0.020241590216755867,
          0.020461225882172585,
          -0.01002675760537386,
          0.003673046827316284,
          0.00036171224201098084,
          -0.02766551449894905,
          -0.026568062603473663,
          -0.0006938568549230695,
          0.028010530397295952,
          0.0484030582010746,
          0.06560022383928299,
          0.01459368597716093,
          -0.01851002871990204,
          0.01258845068514347,
          -0.028015868738293648,
          -0.06692611426115036,
          -0.015156647190451622,
          -0.055418018251657486,
          0.03386108577251434,
          -0.02314886450767517,
          0.018901295959949493,
          -0.1361939162015915,
          -0.013544166460633278,
          0.022578908130526543,
          -0.05328020453453064,
          0.07671595364809036,
          0.007230360992252827,
          0.06977339833974838,
          -0.07125850766897202,
          -0.05606432259082794,
          -0.0667170062661171,
          0.06629859656095505,
          0.03703857585787773,
          -0.037860557436943054,
          0.04759718105196953,
          0.07283148169517517,
          -0.09617641568183899,
          0.01442152913659811,
          -0.0664764791727066,
          -0.015760494396090508,
          -0.05786898359656334,
          0.10580303519964218,
          0.0348358228802681,
          0.03993061184883118,
          0.04631395265460014,
          0.00477224076166749,
          0.08802776038646698,
          0.01949387602508068,
          0.07632771134376526,
          0.08424143493175507,
          0.06509625166654587,
          -0.00398260448127985,
          0.036737799644470215,
          0.06207789108157158,
          0.02854062058031559,
          -0.0201439056545496,
          -0.009309743531048298,
          0.01611553318798542,
          0.04990576207637787,
          -0.08906906098127365,
          0.08208740502595901,
          -0.027241036295890808,
          -0.0844515860080719,
          -0.09456510841846466,
          0.014555639587342739,
          -0.06937741488218307,
          -0.010118470527231693,
          -0.014363882131874561,
          0.041226014494895935,
          -0.014038625173270702,
          -0.036191463470458984,
          0.008771770633757114,
          -0.05077116936445236,
          0.07304896414279938,
          -0.01751088909804821,
          0.052700746804475784,
          0.01185605302453041,
          0.0059128706343472,
          -0.041408758610486984,
          -0.016690248623490334,
          -0.045576322823762894,
          0.013060066848993301,
          -0.0026728527154773474,
          0.0808815211057663,
          0.01507363561540842,
          -0.02631291188299656,
          0.03307072073221207,
          -0.039747454226017,
          0.03844248130917549,
          0.015440944582223892,
          0.039377372711896896,
          -0.004577477462589741,
          0.06410293281078339,
          0.030234521254897118,
          0.043646737933158875,
          -0.05317855253815651,
          -0.01903892308473587,
          0.03951697051525116,
          0.024957997724413872,
          0.01908240281045437,
          0.0013106092810630798,
          0.014651918783783913,
          0.008539875037968159,
          -0.03589494153857231,
          0.021169163286685944,
          -0.03669843450188637,
          0.008207036182284355,
          -0.04216586798429489,
          0.07638606429100037,
          -0.011456421576440334,
          -0.035783544182777405,
          -0.036186691373586655,
          0.00031096473685465753,
          0.03878764808177948,
          0.005757785402238369,
          -0.04580250754952431,
          -0.005247598048299551,
          -0.015507129020988941,
          0.0953424796462059,
          0.04293470084667206,
          0.04173285886645317,
          0.036936502903699875,
          0.05756828561425209,
          -0.02633150853216648,
          0.03554455563426018,
          -0.04644106328487396,
          -0.01136182714253664,
          -0.008832739666104317,
          -0.06505926698446274,
          -0.0062470450066030025,
          -0.0083102872595191,
          -0.0054739248007535934,
          -0.05314471945166588,
          0.010064342990517616,
          0.03808138892054558,
          -0.019329169765114784,
          0.0907578319311142,
          -0.007139501161873341,
          0.05646827444434166,
          -0.021590393036603928,
          -0.0163771603256464,
          0.06061748415231705,
          0.07979938387870789,
          -0.013764583505690098,
          -0.00053645164007321,
          0.0386042483150959,
          -0.017003443092107773,
          -0.05700678005814552,
          0.035223353654146194,
          -0.11246620118618011,
          0.014293446205556393,
          0.04306616261601448,
          0.018910834565758705,
          0.02600950375199318,
          0.028667833656072617,
          0.07315825670957565,
          0.05986356735229492,
          0.022501155734062195,
          0.0587645024061203,
          -0.06447166949510574,
          -0.02504188008606434,
          -0.03332147002220154,
          -0.05016668140888214,
          0.05499286949634552,
          -0.06204254925251007,
          0.01792779192328453,
          0.009241761639714241,
          0.051094625145196915,
          0.06121300905942917,
          -0.03368326649069786,
          -0.046672623604536057,
          0.05441751331090927,
          -0.03408491611480713,
          0.03436131775379181,
          0.024796955287456512,
          -0.01622414030134678,
          -0.0591290108859539,
          0.14496639370918274,
          0.005881031509488821,
          0.020103029906749725,
          -0.07899343967437744,
          0.011578850448131561,
          -0.05502866953611374,
          -0.030487896874547005,
          0.06834424287080765,
          0.038763709366321564,
          -0.06496907770633698,
          -0.033209528774023056,
          -0.03510953485965729,
          0.014359439723193645,
          -0.05192255601286888,
          -0.01758463867008686,
          -0.10536403954029083,
          -0.011671422980725765,
          -0.06309249997138977,
          0.04459720104932785,
          -0.05102158337831497,
          -0.028291484341025352,
          0.017604371532797813,
          0.026853401213884354,
          -0.04545936733484268,
          0.01923145167529583,
          -0.001226066960953176,
          0.017793450504541397,
          0.018889987841248512,
          -0.10211732238531113,
          -0.03840240463614464,
          0.017874712124466896,
          0.05771502107381821,
          -0.06073084846138954,
          0.01777542009949684,
          -0.026250047609210014,
          -0.02647104673087597,
          0.08289947360754013,
          0.03610611334443092,
          0.006893886253237724,
          0.03568250685930252,
          0.11564444750547409,
          -0.07160628587007523,
          0.05137675255537033,
          0.03178158402442932,
          -0.10757442563772202,
          -0.08923041820526123,
          -0.023812798783183098,
          -0.04053284227848053,
          -0.0757673904299736,
          -0.03586219623684883,
          0.007358494680374861,
          -0.05688192695379257,
          -0.051256366074085236,
          -0.03682354465126991,
          0.07719143480062485,
          -0.0030358408112078905,
          -0.04890788346529007,
          0.027918728068470955,
          0.046202316880226135,
          -0.006570152472704649,
          -0.04729180410504341,
          -0.08723749965429306,
          0.028862282633781433,
          0.04458766430616379,
          -0.02791837602853775,
          -0.022173624485731125,
          0.00479341484606266,
          -0.18214283883571625,
          0.022366825491189957,
          0.06850338727235794,
          -0.010077858343720436,
          0.050791118294000626,
          -0.03704538941383362,
          -0.03025750443339348,
          -0.010377215221524239,
          -0.013704368844628334,
          -0.02371053583920002,
          0.013164343312382698,
          -0.0701349601149559,
          0.07754430919885635,
          0.03160345181822777,
          0.0567036010324955,
          0.06071711331605911,
          -0.05287882313132286,
          -0.02128458023071289,
          -0.07008599489927292,
          0.03646840527653694,
          0.026290392503142357,
          0.01816253364086151,
          0.0099039850756526,
          -0.02376389130949974,
          -0.06517022848129272,
          0.06724502891302109,
          -0.04552843049168587,
          -0.061564065515995026,
          -0.009916138835251331,
          -0.13576996326446533,
          0.011533553712069988,
          -0.03759055212140083,
          0.039165716618299484,
          -0.05769779905676842,
          -0.03638365492224693,
          -0.026859572157263756,
          0.04568547382950783,
          -0.038122229278087616,
          -0.03051234968006611,
          -0.05323921889066696,
          -0.05800759792327881,
          -0.09670307487249374,
          -0.02021912671625614,
          -0.040829192847013474,
          0.01933456026017666,
          0.05283088982105255,
          -0.008562425151467323,
          -0.02074257843196392,
          0.09379826486110687,
          -0.04185234010219574,
          0.01277967356145382,
          -0.020833151414990425,
          0.06740123778581619,
          -0.051408134400844574,
          0.03920545428991318,
          0.03966182470321655,
          0.021195976063609123,
          0.053359195590019226,
          0.10057090222835541,
          0.028171241283416748,
          -0.04055743291974068,
          0.007932840846478939,
          -0.003867965191602707,
          -0.04073187708854675,
          -0.024104276672005653,
          -0.10318180918693542,
          0.03647579997777939,
          0.02651064656674862,
          0.011679423041641712,
          0.08183355629444122,
          -0.06940960884094238,
          0.019713258370757103,
          0.009646407328546047,
          0.015459150075912476,
          0.034249939024448395,
          0.04034909978508949,
          -0.027976129204034805,
          -0.06962764263153076,
          0.053914912045001984,
          0.013527806848287582,
          -0.03337059170007706,
          0.02298920787870884,
          -0.029322829097509384,
          0.0194508358836174,
          -0.06001034379005432,
          -0.016076451167464256,
          -0.04563688486814499,
          -0.010547176003456116,
          -0.051368288695812225,
          -0.0015038048150017858,
          0.024714242666959763,
          -0.08492957800626755,
          -0.061070770025253296,
          -0.007170610595494509,
          0.039938975125551224,
          0.01746930368244648,
          0.04795002564787865,
          -0.03270639106631279,
          -0.003864619880914688,
          -0.053793393075466156,
          0.10157150775194168,
          -0.022818835452198982,
          -0.04473929479718208,
          -0.015402412042021751,
          0.03998497501015663,
          0.04594644159078598,
          -0.0269209835678339,
          0.047779686748981476,
          0.02665857970714569,
          0.10007811337709427,
          0.015046495012938976,
          -0.041152045130729675,
          0.09592881798744202,
          0.06652089953422546,
          -0.04731912165880203,
          -0.029839983209967613,
          -0.010903894901275635,
          0.0281341802328825,
          -0.009982718154788017,
          0.008048503659665585,
          -0.04642518609762192,
          -0.08639160543680191,
          -0.019517794251441956,
          0.06505575776100159,
          0.0071913921274244785,
          0.03696559742093086,
          0.06670434772968292,
          0.1084802895784378,
          0.01592535525560379,
          0.014453199692070484,
          0.001303069293498993,
          0.025167454034090042,
          0.07863835245370865,
          0.020885659381747246,
          0.05693935230374336,
          0.06224052608013153,
          -0.08795265108346939,
          0.05029930919408798,
          -0.11381872743368149,
          -0.057970281690359116,
          -0.07555633038282394,
          0.04769403859972954,
          -0.06377216428518295,
          -0.0040032025426626205,
          -0.0585055872797966,
          -0.10852529853582382,
          -0.07976984232664108,
          -0.04996706172823906,
          0.012052030302584171,
          -0.0038625544402748346,
          0.007300017401576042,
          0.017589081078767776,
          -0.044643860310316086,
          0.02373775653541088,
          -0.019530275836586952,
          -0.05942293629050255,
          0.03256325051188469,
          0.006426180712878704,
          0.008365490473806858,
          -0.03051437996327877,
          -0.040373675525188446,
          -0.1074870228767395,
          -0.02979103848338127,
          0.027062172070145607,
          0.012876980006694794,
          0.028080705553293228,
          0.011879648081958294,
          0.01017596572637558,
          -0.06792496144771576,
          -0.009827597998082638,
          0.02813350409269333,
          0.05722152069211006,
          0.07637724280357361,
          -0.04065082594752312,
          0.043772514909505844,
          -0.0239822119474411,
          0.007534782402217388,
          -0.009034806862473488,
          -0.04463476687669754,
          -0.03237646445631981,
          -0.035515837371349335,
          0.05478866770863533,
          0.02214091457426548,
          0.0510481595993042,
          -0.023021088913083076,
          -0.0011658691801130772,
          -0.04109088331460953,
          0.022551976144313812,
          -0.0002566469192970544,
          -7.175143400672823e-05,
          0.02337753213942051,
          0.031344931572675705,
          -0.041836149990558624,
          -0.014579595997929573,
          -0.022334592416882515,
          -0.018791278824210167,
          -0.007089033257216215,
          0.07398954778909683,
          0.029554059728980064,
          -0.029635868966579437,
          -0.06774141639471054,
          0.05357832834124565,
          0.009472040459513664,
          0.09664325416088104,
          -0.015465134754776955,
          -0.05990210920572281,
          -0.09246920794248581,
          -0.03624887391924858,
          -0.02761446312069893,
          -0.019134430214762688,
          -0.04155474901199341,
          0.0629642903804779,
          0.037222202867269516,
          -0.026260411366820335,
          -0.007470780983567238,
          0.05419186130166054,
          -0.06274452805519104,
          -0.07802532613277435,
          0.08087290823459625,
          0.004564130678772926,
          -0.05395408347249031,
          0.06329600512981415,
          0.015075437724590302,
          0.045040667057037354,
          0.04207204282283783,
          0.007804623804986477,
          0.030551375821232796,
          -0.0005361185758374631,
          -0.050963953137397766,
          -0.09555984288454056,
          0.030977552756667137,
          -0.011247195303440094,
          -0.03265126794576645,
          0.08003120869398117,
          -3.597096656449139e-05,
          0.005786422174423933,
          -0.046482160687446594,
          0.0637814924120903,
          -0.054056502878665924,
          0.0640486478805542,
          -0.045049719512462616,
          -0.006393673829734325,
          0.0859977975487709,
          -0.015649329870939255,
          -0.008797571063041687,
          0.07035990804433823,
          0.038909103721380234,
          -0.00514140073210001,
          0.03994809463620186,
          -0.02226356789469719,
          -0.043360721319913864,
          -0.11890403926372528,
          -0.1088588535785675,
          0.021667277440428734,
          -0.10725869238376617,
          0.0734483152627945,
          -0.07539921998977661,
          -0.03255113959312439,
          -0.049390632659196854,
          -0.017434652894735336,
          -0.0907444879412651,
          -0.0025024597998708487,
          -0.039638012647628784,
          0.09647241234779358,
          -0.004862729460000992,
          0.026655595749616623,
          -0.02965153381228447,
          0.08455801755189896,
          -0.060438934713602066,
          -0.10143282264471054,
          -0.006318939849734306,
          0.023079345002770424,
          -0.017621878534555435,
          -0.003285567043349147,
          0.013334745541214943,
          -0.09284243732690811,
          -0.029732733964920044,
          -0.005995589308440685,
          -0.013378245756030083,
          -0.013068187981843948,
          0.04304034635424614,
          0.011844330467283726,
          -0.02849092148244381,
          0.021842706948518753,
          0.06244892627000809,
          0.009352307766675949,
          -0.1087895929813385,
          0.028716707602143288,
          0.09235356748104095,
          0.0006921999156475067,
          0.0375404991209507,
          -0.09461020678281784,
          -0.09472721070051193,
          -0.0831887349486351,
          0.03202301263809204,
          0.00448394613340497,
          0.015226781368255615,
          0.05341683700680733,
          0.010476312600076199,
          0.0059137772768735886,
          0.08978687226772308,
          -0.013910171575844288,
          -0.020786523818969727,
          0.04707837104797363,
          0.027287209406495094,
          -0.015290044248104095,
          0.05396927148103714,
          0.015106220729649067,
          -0.005620106589049101,
          0.06044305860996246,
          -0.017854133620858192,
          0.0403011254966259,
          -0.05196694657206535,
          -0.057527169585227966,
          -0.021724993363022804,
          0.01776961050927639,
          0.06168567016720772,
          0.015733441337943077,
          -0.04342716932296753,
          -0.005410729441791773,
          0.07291322201490402,
          0.038312118500471115,
          0.029464542865753174,
          0.0613369420170784,
          0.058665331453084946,
          0.008547171950340271,
          -0.026207050308585167,
          -0.05135894939303398,
          0.09316332638263702,
          -0.011992253363132477,
          -0.07536118477582932,
          -0.10311359167098999,
          0.062406472861766815,
          0.07493188977241516,
          -0.04374590143561363,
          0.07858141511678696,
          -0.07456682622432709,
          -0.057423319667577744,
          0.10456136614084244,
          0.005411600694060326,
          0.08327652513980865,
          0.018902892246842384,
          0.016463810577988625,
          -0.03983849287033081,
          -0.09784132242202759,
          0.09272992610931396,
          0.029180608689785004,
          0.011465908959507942,
          -0.05082736909389496,
          -0.014400914311408997,
          0.008823472075164318,
          0.011824209243059158,
          -0.044930487871170044,
          0.05856292322278023,
          -0.010227386839687824,
          -0.11685360968112946,
          0.11500424146652222,
          -0.06207853928208351,
          -0.07962660491466522,
          -0.05095986649394035,
          0.006819181609898806,
          0.07678785175085068,
          0.06500939279794693,
          -0.027527296915650368,
          -0.0644136443734169,
          0.04367199167609215,
          -0.005631933454424143,
          -0.002494774293154478,
          0.0067488462664186954,
          0.06486274302005768,
          0.04390381649136543,
          0.03671383485198021,
          -0.020276116207242012,
          -0.02512887679040432,
          0.037815533578395844,
          -0.02130403369665146,
          -0.09576251357793808,
          0.062483176589012146,
          -0.09964052587747574,
          -0.023884670808911324,
          0.007753550540655851,
          -0.01569978892803192,
          0.007038647308945656,
          0.0716414600610733,
          -0.05157412961125374,
          0.0802656039595604,
          -0.17179661989212036,
          -0.007496783509850502,
          -0.03593173250555992,
          -0.07539360225200653,
          0.020835978910326958,
          -0.003970941063016653,
          -0.023785868659615517,
          -0.02913474477827549,
          0.026222649961709976,
          0.006640978157520294,
          -0.011897536925971508,
          -0.007142350077629089,
          0.0002904208085965365,
          -0.02959783561527729,
          -0.028496764600276947,
          -0.011146550998091698,
          0.009665949270129204,
          0.048077378422021866,
          -0.050156284123659134,
          0.003931217826902866,
          -0.1180017814040184,
          0.023308908566832542,
          -0.014573694206774235,
          0.015348607674241066,
          0.01103223580867052,
          -0.03632986173033714,
          0.014308280311524868,
          0.04775380343198776,
          -0.017936620861291885,
          -0.03422856703400612,
          -0.09337476640939713,
          -0.0035018320195376873,
          -0.10677052289247513,
          0.026905881240963936,
          -0.010200624354183674,
          0.006235181353986263,
          -0.0950394868850708,
          -0.006383893080055714,
          0.03800041973590851,
          -0.048777081072330475,
          -0.09012852609157562,
          -0.005828567314893007,
          -0.09894977509975433,
          0.04206979647278786,
          0.030704190954566002,
          0.03566586598753929,
          -0.017845936119556427,
          -0.028482314199209213,
          0.03141414374113083,
          0.014907333068549633,
          0.06969019025564194,
          0.004724766127765179,
          -0.027036549523472786,
          -0.04811098426580429,
          -0.060848262161016464,
          0.11107731610536575,
          0.07837361842393875,
          -0.028413288295269012,
          0.056363701820373535,
          0.03833509236574173,
          -0.09672725945711136,
          -0.02793959155678749,
          -0.12446241080760956,
          0.02284323424100876,
          0.07596094161272049,
          0.10793501883745193,
          -0.0659673660993576,
          0.05563043802976608,
          0.04485082998871803,
          -0.029990598559379578,
          -0.010586711578071117,
          -0.09062271565198898,
          0.04926387965679169,
          0.008862437680363655,
          0.06424230337142944,
          -0.1132090836763382,
          -0.022656377404928207,
          -0.048203013837337494,
          0.06688200682401657,
          -0.014136269688606262
        ],
        [
          -0.1653367578983307,
          0.007344956509768963,
          -0.34794461727142334,
          -0.7587037086486816,
          0.42766261100769043,
          0.37379950284957886,
          0.1024385616183281,
          -0.7109020352363586,
          -0.7685601115226746,
          -0.36554765701293945,
          0.08269266039133072,
          -0.26084911823272705,
          -0.653711199760437,
          0.6927434206008911,
          0.536382257938385,
          -0.39934593439102173,
          -0.845434844493866,
          -0.8864655494689941,
          -0.668540894985199,
          0.2192598432302475,
          -0.5664010643959045,
          -0.36154788732528687,
          0.23257744312286377,
          -0.1732596606016159,
          0.2353123277425766,
          0.38541752099990845,
          0.4296441376209259,
          0.3657398223876953,
          0.4187261462211609,
          0.42387932538986206,
          -0.20868003368377686,
          -0.7012186646461487,
          0.12162163108587265,
          -0.47055184841156006,
          -1.4526571035385132,
          -2.19565749168396,
          -2.16409969329834,
          -1.81648588180542,
          -0.8685383796691895,
          -0.6987037062644958,
          -1.2728012800216675,
          -1.7184792757034302,
          -1.3386160135269165,
          -1.5294550657272339,
          -0.9064695835113525,
          -1.048095703125,
          -1.5997525453567505,
          -1.4030121564865112,
          -0.8810391426086426,
          -0.3728601634502411,
          0.4403373599052429,
          -0.09153464436531067,
          0.16701458394527435,
          0.4862998127937317,
          0.4920012056827545,
          0.30034467577934265,
          0.20252643525600433,
          0.11997527629137039,
          -0.44497525691986084,
          -0.7848476767539978,
          -0.5194416046142578,
          -1.5629894733428955,
          -0.9371414184570312,
          -1.3263771533966064,
          -2.3080532550811768,
          -1.6447335481643677,
          -0.8565317392349243,
          -0.47309163212776184,
          -0.5908193588256836,
          -1.0859183073043823,
          -1.2961958646774292,
          -0.6367909908294678,
          -0.3760693371295929,
          -0.48318684101104736,
          -0.7412334084510803,
          -1.0569161176681519,
          -0.40131279826164246,
          -0.04940134659409523,
          0.7971792221069336,
          0.6242635846138,
          0.40619349479675293,
          0.029072856530547142,
          0.24277549982070923,
          -0.6391605138778687,
          -0.38208338618278503,
          -0.5204188227653503,
          -0.558882474899292,
          -0.7308318018913269,
          -1.525412678718567,
          -1.7749391794204712,
          -0.9719575047492981,
          -1.7434502840042114,
          -2.262500762939453,
          -1.1144899129867554,
          -0.4051779508590698,
          -0.36510393023490906,
          -0.49467775225639343,
          -0.13444335758686066,
          0.00969352200627327,
          -0.11898398399353027,
          -0.12784689664840698,
          -0.1165376529097557,
          -0.11111966520547867,
          -0.24374505877494812,
          -0.08438678830862045,
          0.04346610978245735,
          0.5522335171699524,
          0.46145519614219666,
          0.5587148666381836,
          0.22296558320522308,
          0.23114566504955292,
          0.5763732194900513,
          -0.6102131605148315,
          -0.5306361317634583,
          -0.6162868142127991,
          -0.8267744183540344,
          -1.8896511793136597,
          -2.3116538524627686,
          -2.0112144947052,
          -1.4494872093200684,
          -1.4086328744888306,
          -0.6313353776931763,
          -0.6325680017471313,
          -0.44334569573402405,
          -0.1590171456336975,
          0.19977842271327972,
          0.37652355432510376,
          -0.3664267957210541,
          0.1554642915725708,
          -0.19157041609287262,
          0.003352976171299815,
          0.2694139778614044,
          -0.10462542623281479,
          -0.06673049181699753,
          0.25168144702911377,
          0.40207821130752563,
          0.3823574185371399,
          0.7048067450523376,
          0.5973859429359436,
          0.08688984811306,
          -0.528515636920929,
          -0.2881138026714325,
          -0.4694238007068634,
          -1.4600707292556763,
          -2.0211963653564453,
          -3.1709189414978027,
          -1.7351995706558228,
          -1.060007929801941,
          -0.9975569844245911,
          -0.49999910593032837,
          -0.9257495403289795,
          -0.2651897966861725,
          -0.10127870738506317,
          0.15183132886886597,
          0.2267482876777649,
          -0.21309548616409302,
          0.273912250995636,
          -0.10812214761972427,
          0.09198764711618423,
          0.2433251589536667,
          -0.07152070850133896,
          0.032086081802845,
          0.022774120792746544,
          -0.0504976361989975,
          0.2621718943119049,
          0.564967691898346,
          0.41232579946517944,
          -0.6270474791526794,
          -0.6443265676498413,
          -1.1624418497085571,
          -0.9156637787818909,
          -2.1029322147369385,
          -2.8517115116119385,
          -3.209944725036621,
          -1.4170745611190796,
          -1.5364396572113037,
          -1.3055939674377441,
          -0.8056866526603699,
          -0.7815353274345398,
          -0.639806866645813,
          -0.5151004791259766,
          -0.16821859776973724,
          0.21044671535491943,
          -0.13611753284931183,
          0.05794401466846466,
          0.1554137021303177,
          0.5442951321601868,
          0.7370710372924805,
          0.290611207485199,
          0.1519743800163269,
          0.00987785030156374,
          0.10183772444725037,
          0.5204281210899353,
          0.28492680191993713,
          -0.28423163294792175,
          -1.0488778352737427,
          -1.46246337890625,
          -1.4156461954116821,
          -0.8947389721870422,
          -1.6823925971984863,
          -2.4505536556243896,
          -3.0341012477874756,
          -2.0386412143707275,
          -1.68495512008667,
          -1.4778045415878296,
          -0.8655743598937988,
          -0.5243328213691711,
          -0.5538831353187561,
          -0.5468173027038574,
          -0.0346025712788105,
          0.26685860753059387,
          -0.19573338329792023,
          -0.30518239736557007,
          0.19907493889331818,
          0.6376737952232361,
          0.5393915772438049,
          0.015756404027342796,
          -0.4517182409763336,
          -0.25660815834999084,
          -0.1114230528473854,
          0.025483662262558937,
          -0.34737783670425415,
          -0.1454607993364334,
          -0.9356865286827087,
          -1.3382314443588257,
          -1.8647470474243164,
          -1.2544056177139282,
          -2.4248387813568115,
          -2.6729838848114014,
          -3.0006303787231445,
          -2.0136289596557617,
          -1.4163148403167725,
          -1.381508469581604,
          -0.8316624164581299,
          -0.280225932598114,
          -0.6071158051490784,
          -0.3450867831707001,
          0.04298776388168335,
          0.12473627179861069,
          -0.030154014006257057,
          -0.16531676054000854,
          0.428592324256897,
          0.7302530407905579,
          0.10493171215057373,
          -0.04002124443650246,
          -0.21046780049800873,
          -0.2567025125026703,
          -0.37977930903434753,
          -0.12515288591384888,
          -0.1712348908185959,
          0.21291276812553406,
          0.495769202709198,
          -1.4552453756332397,
          -1.6579813957214355,
          -1.3677912950515747,
          -2.0090689659118652,
          -2.431279182434082,
          -2.512885093688965,
          -1.7626627683639526,
          -1.6041563749313354,
          -1.1995739936828613,
          -0.7788758277893066,
          -0.4235934615135193,
          -0.5030291676521301,
          -0.03881635516881943,
          0.1540123075246811,
          -0.2765417695045471,
          0.07375743240118027,
          0.10197030752897263,
          0.5690228939056396,
          0.5170767903327942,
          0.03361126035451889,
          -0.3834434151649475,
          -0.5119650363922119,
          -0.2635958790779114,
          -0.2523830235004425,
          -0.4728025197982788,
          -0.3792245388031006,
          0.07328050583600998,
          0.5464757680892944,
          -1.6569560766220093,
          -1.3927608728408813,
          -1.2237552404403687,
          -1.733705997467041,
          -1.7888538837432861,
          -1.4173504114151,
          -1.2730146646499634,
          -1.2124618291854858,
          -0.7316547632217407,
          -0.5141587257385254,
          -0.5394091010093689,
          -0.16109222173690796,
          0.03485686331987381,
          -0.07766153663396835,
          -0.3817111849784851,
          0.09315434098243713,
          0.09086815267801285,
          0.3228815197944641,
          0.34287989139556885,
          -0.009134470485150814,
          -0.3872080147266388,
          -0.8472960591316223,
          -0.6438727974891663,
          -0.474809855222702,
          -0.32646292448043823,
          -0.06768163293600082,
          -0.21210163831710815,
          0.45322203636169434,
          -2.0180130004882812,
          -1.2397083044052124,
          -1.3630014657974243,
          -0.995951771736145,
          -1.5659242868423462,
          -1.4893732070922852,
          -0.9477285146713257,
          -0.3349510431289673,
          0.1712464541196823,
          0.0506756529211998,
          0.10986604541540146,
          0.20054824650287628,
          0.01516969595104456,
          -0.21790871024131775,
          -0.3224802613258362,
          -0.09752826392650604,
          0.17314523458480835,
          0.08933303505182266,
          0.1634724885225296,
          0.23090112209320068,
          -0.18466483056545258,
          -0.520721435546875,
          -0.5115643739700317,
          -0.2616828978061676,
          -0.0733436569571495,
          0.07397593557834625,
          0.5875980854034424,
          0.6916041374206543,
          -1.976455569267273,
          -0.9443167448043823,
          -0.7796609401702881,
          -1.0207107067108154,
          -1.2245161533355713,
          -0.8341843485832214,
          -0.3258213400840759,
          0.35416004061698914,
          0.6469478011131287,
          0.736343264579773,
          0.20822674036026,
          -0.1855209469795227,
          -0.1852526068687439,
          -0.1489882469177246,
          -0.5294251441955566,
          0.10251622647047043,
          0.16508422791957855,
          -0.10646393895149231,
          -0.1952720433473587,
          0.2175556719303131,
          -0.17889010906219482,
          -0.6465189456939697,
          -0.45443928241729736,
          -0.15341830253601074,
          -0.0906677097082138,
          0.07617419958114624,
          0.828216016292572,
          0.5517582893371582,
          -0.9129746556282043,
          -0.030909663066267967,
          -0.07999624311923981,
          -0.6654108762741089,
          -0.33235979080200195,
          0.1612154096364975,
          0.3771718144416809,
          1.148711919784546,
          0.9522473216056824,
          0.6753261089324951,
          -0.016528261825442314,
          -0.3059339225292206,
          -0.15735775232315063,
          -0.14271844923496246,
          -0.32565903663635254,
          0.12074366211891174,
          0.12233365327119827,
          -0.3639981746673584,
          -0.21910381317138672,
          0.17023764550685883,
          0.12129470705986023,
          -0.40195897221565247,
          -0.5213451385498047,
          -0.08588971197605133,
          0.009435235522687435,
          0.09782419353723526,
          0.3820814788341522,
          0.022785397246479988,
          0.42840421199798584,
          0.5810021162033081,
          -0.1582738608121872,
          -0.8749806880950928,
          -0.05497326701879501,
          0.6984894275665283,
          0.5104405879974365,
          1.151820421218872,
          0.7193790078163147,
          0.21698299050331116,
          -0.1731947511434555,
          -0.02065630629658699,
          0.23524081707000732,
          -0.03634781017899513,
          -0.36146003007888794,
          0.41262635588645935,
          0.5757552981376648,
          0.023190196603536606,
          -0.06354618817567825,
          0.1973845660686493,
          0.06058253347873688,
          -0.047092270106077194,
          -0.10395608842372894,
          0.17811858654022217,
          0.3757320046424866,
          0.43898603320121765,
          0.2625669538974762,
          -0.18832577764987946,
          0.9392709732055664,
          0.3400532305240631,
          -0.5276248455047607,
          -0.9996607303619385,
          0.013076761737465858,
          0.6081165075302124,
          0.4793843626976013,
          0.7237504124641418,
          1.0044506788253784,
          0.519830584526062,
          -0.10992921143770218,
          -0.31496354937553406,
          0.17883756756782532,
          -0.11318842321634293,
          -0.26929953694343567,
          0.24577750265598297,
          0.2848149538040161,
          0.1389135718345642,
          0.12928111851215363,
          0.3079538643360138,
          0.5023170709609985,
          0.34369367361068726,
          0.40759071707725525,
          0.29509663581848145,
          0.14868086576461792,
          0.29848626255989075,
          0.13574960827827454,
          -0.7456842064857483,
          1.2276592254638672,
          0.21291498839855194,
          -1.044369101524353,
          -1.0752100944519043,
          -0.3455076217651367,
          0.30596914887428284,
          0.6987553834915161,
          0.7585113644599915,
          0.5248441100120544,
          0.19551222026348114,
          -0.26386627554893494,
          -0.14052218198776245,
          0.3498651087284088,
          0.04407739266753197,
          -0.044013842940330505,
          0.392131507396698,
          0.16113197803497314,
          0.08471248298883438,
          -0.1131238117814064,
          0.27975720167160034,
          0.4059637486934662,
          0.21169932186603546,
          0.059252988547086716,
          0.002704340498894453,
          0.0903092473745346,
          0.17018625140190125,
          0.21767935156822205,
          -0.6229526400566101,
          0.7198470234870911,
          0.0556170828640461,
          -0.7532358765602112,
          -0.8432690501213074,
          -0.4758882522583008,
          0.46950602531433105,
          0.7980998754501343,
          0.6521437168121338,
          0.43556106090545654,
          0.00933339074254036,
          -0.17025618255138397,
          0.27718016505241394,
          0.4789098799228668,
          -0.02883453480899334,
          -0.2209872603416443,
          0.35339683294296265,
          0.34507206082344055,
          0.024643724784255028,
          -0.3176400661468506,
          0.06663961708545685,
          0.4350910782814026,
          -0.007462704554200172,
          0.06755381077528,
          0.19666075706481934,
          -0.003184511326253414,
          -0.01422694232314825,
          0.1291414499282837,
          -0.16681289672851562,
          0.6281397938728333,
          -0.17653878033161163,
          -0.9815152883529663,
          -0.8333405256271362,
          -0.270556777715683,
          0.713445782661438,
          0.7200598120689392,
          0.7644623517990112,
          0.2289274036884308,
          -0.4150497019290924,
          -0.19055591523647308,
          0.11654272675514221,
          0.23772837221622467,
          -0.03066498413681984,
          -0.23630040884017944,
          0.3587932586669922,
          0.23776297271251678,
          -0.16509580612182617,
          -0.27258265018463135,
          -0.09973406791687012,
          -0.07901650667190552,
          0.023557735607028008,
          -0.01198775414377451,
          0.049150459468364716,
          0.19849416613578796,
          0.22785505652427673,
          0.41287434101104736,
          0.4594070017337799,
          0.5431241393089294,
          -0.2618177533149719,
          -0.7955685257911682,
          -0.660188615322113,
          -0.3608315587043762,
          0.0427202433347702,
          0.25863125920295715,
          0.3198813796043396,
          -0.20619036257266998,
          -0.43084126710891724,
          -0.5031099319458008,
          -0.19740919768810272,
          0.14440453052520752,
          -0.03984752297401428,
          -0.34710198640823364,
          0.26111191511154175,
          0.1871299296617508,
          0.03470176085829735,
          -0.15695182979106903,
          -0.45812568068504333,
          -0.18384471535682678,
          -0.06406587362289429,
          -0.280611515045166,
          -0.25902315974235535,
          -0.1339503824710846,
          -0.11687082797288895,
          -0.08949194103479385,
          0.7234079241752625,
          0.179015651345253,
          -0.29357779026031494,
          -0.5884242057800293,
          -0.3381725251674652,
          0.004095358774065971,
          0.5796540379524231,
          0.6130557060241699,
          0.5276862978935242,
          -0.040475159883499146,
          -0.4878939688205719,
          -0.6656918525695801,
          -0.26979729533195496,
          0.06440811604261398,
          0.005839618854224682,
          -0.11143283545970917,
          0.7312862277030945,
          0.7604793310165405,
          0.24052558839321136,
          -0.16671356558799744,
          -0.48299863934516907,
          -0.5745153427124023,
          -0.21189863979816437,
          -0.31785911321640015,
          -0.42844974994659424,
          -0.44580259919166565,
          -0.23969973623752594,
          -0.41417935490608215,
          0.19905994832515717,
          -0.23719796538352966,
          -0.5559924244880676,
          -0.4609920084476471,
          -0.2930004596710205,
          -0.22498153150081635,
          0.2227039933204651,
          0.5320234298706055,
          0.168687641620636,
          -0.37647661566734314,
          -0.38796719908714294,
          -0.36389246582984924,
          -0.08360953629016876,
          0.20698733627796173,
          0.14795954525470734,
          -0.2034531533718109,
          0.8461154699325562,
          0.8524837493896484,
          0.23999285697937012,
          -0.15951821208000183,
          -0.5291500687599182,
          -0.8790222406387329,
          -0.2804592251777649,
          -0.4796474874019623,
          -0.6991348266601562,
          -0.5430678129196167,
          -0.2089872509241104,
          -0.2708394229412079,
          -0.36187317967414856,
          -0.9656249284744263,
          -0.4410191476345062,
          -0.5985604524612427,
          -0.675870954990387,
          -0.3443264067173004,
          0.20356258749961853,
          0.547605037689209,
          0.278766930103302,
          -0.20591560006141663,
          -0.4633983373641968,
          -0.5826560854911804,
          -0.276836633682251,
          0.35227563977241516,
          0.42220282554626465,
          -0.18261423707008362,
          0.7281854152679443,
          0.9728665351867676,
          0.1239825040102005,
          -0.05911201983690262,
          -0.445931077003479,
          -0.9471163749694824,
          -0.1230074092745781,
          -0.4022826850414276,
          -0.3770868480205536,
          -0.24885216355323792,
          0.14616452157497406,
          -0.30757299065589905,
          -1.0678417682647705,
          -0.15610931813716888,
          0.11117160320281982,
          -0.4902327060699463,
          -0.6463265419006348,
          -0.6549394130706787,
          -0.40767771005630493,
          -0.03312423452734947,
          -0.05660514533519745,
          -0.266287624835968,
          -0.42963162064552307,
          -0.2810535132884979,
          0.03488128259778023,
          0.6450788378715515,
          0.47222328186035156,
          -0.2912658452987671,
          0.6678277254104614,
          0.22885732352733612,
          -0.598655104637146,
          -0.48871761560440063,
          -0.9704583883285522,
          -1.193963646888733,
          -0.06615626066923141,
          -0.6204310059547424,
          -0.5846543908119202,
          -0.31995540857315063,
          0.2690759599208832,
          -0.2964557707309723,
          -1.437849998474121,
          -0.7012794613838196,
          -0.05644965171813965,
          -0.48778629302978516,
          -0.32986631989479065,
          -0.6656845808029175,
          -0.6780507564544678,
          -0.17274075746536255,
          -0.08260742574930191,
          -0.4505065679550171,
          -0.22416630387306213,
          -0.1215767040848732,
          0.36875104904174805,
          0.9034340381622314,
          0.7490474581718445,
          0.14379873871803284,
          0.5227128863334656,
          0.0671132430434227,
          -0.45568978786468506,
          -0.6975468397140503,
          -1.0468307733535767,
          -1.4568393230438232,
          0.10262341797351837,
          -0.2515241205692291,
          -0.3913102447986603,
          -0.007710940204560757,
          0.4355071783065796,
          -0.21628057956695557,
          -1.3772411346435547,
          0.004033010918647051,
          0.6653941869735718,
          0.32493355870246887,
          0.08543804287910461,
          -0.04749017581343651,
          -0.2086617350578308,
          -0.10902609676122665,
          -0.5688639283180237,
          -0.3970581591129303,
          -0.22978267073631287,
          -0.1122385635972023,
          0.3619888722896576,
          0.8231619000434875,
          0.798180103302002,
          -0.29520514607429504,
          0.21984750032424927,
          -0.04198465123772621,
          -0.17125265300273895,
          -0.7346163392066956,
          -1.0716487169265747,
          -1.5033745765686035,
          -0.026552747935056686,
          -0.450562983751297,
          -0.1194053366780281,
          0.02261369675397873,
          0.20366951823234558,
          -0.12357670813798904,
          -1.009425163269043,
          -0.04039492458105087,
          0.3761751651763916,
          0.39962896704673767,
          0.41746512055397034,
          0.044178325682878494,
          -0.02452271804213524,
          -0.21995462477207184,
          -0.6513294577598572,
          -0.6384783387184143,
          -0.19801804423332214,
          -0.037833523005247116,
          0.33813679218292236,
          0.9505691528320312,
          0.8930853605270386,
          -0.6549456715583801,
          0.6263771653175354,
          0.21860924363136292,
          -0.3955473005771637,
          -0.9568390250205994,
          -1.421063780784607,
          -1.2784970998764038,
          -0.1479579210281372,
          -0.2730630934238434,
          0.046610817313194275,
          -0.09752421826124191,
          0.19361987709999084,
          -0.34623345732688904,
          -0.7702282667160034,
          0.9159212708473206,
          0.05713609233498573,
          -0.05001284182071686,
          -0.44863376021385193,
          -0.45019593834877014,
          -0.033879224210977554,
          -0.15841083228588104,
          -0.6524152755737305,
          -1.1682655811309814,
          -0.546413779258728,
          0.1809014528989792,
          0.8109394907951355,
          0.7675750851631165,
          -1.7147897481918335,
          -2.6402740478515625,
          0.25010180473327637,
          0.5741411447525024,
          0.3906225860118866,
          -0.3587164282798767,
          -1.4532432556152344,
          -1.3742377758026123,
          0.31588584184646606,
          0.16446983814239502,
          -0.14323164522647858,
          -0.6601168513298035,
          -0.08396501839160919,
          -0.08918588608503342,
          0.038524776697158813
        ],
        [
          0.1951807141304016,
          0.4272899925708771,
          0.7684447765350342,
          0.001759009319357574,
          -1.0068018436431885,
          -1.758556604385376,
          -2.758577346801758,
          -1.6391657590866089,
          -0.20243550837039948,
          -0.32470178604125977,
          -0.6534504294395447,
          -0.42789512872695923,
          0.020702634006738663,
          -0.596027135848999,
          -0.4020453989505768,
          -0.4558224678039551,
          -0.7643316388130188,
          -0.8278246521949768,
          -0.44829490780830383,
          -0.48711642622947693,
          -1.6563429832458496,
          -2.775174379348755,
          -2.1106624603271484,
          -0.5024465918540955,
          0.5751627683639526,
          0.4758317768573761,
          0.49863454699516296,
          0.5240886807441711,
          -0.16247616708278656,
          -0.35778579115867615,
          0.7076589465141296,
          -0.04110902547836304,
          -0.8905118107795715,
          -1.4259910583496094,
