{
  "input_shape": [
    28,
    28
  ],
  "preprocess": {
    "scale": 255.0
  },
  "layers": [
    {
      "type": "dense",
      "units": 128,
      "activation": "relu",
      "regularizer": {
        "type": "L2",
        "lambda": 0.001
      },
      "W": [
        [
          0.16314008831977844,
          0.2490846961736679,
          0.007049534469842911,
          0.192116379737854,
          -0.2928645610809326,
          -0.019087886437773705,
          0.599854052066803,
          0.3360719084739685,
          -0.5238739252090454,
          0.48277485370635986,
          0.48827043175697327,
          0.56304931640625,
          -0.47520124912261963,
          -1.1536897420883179,
          -1.3371407985687256,
          -0.8455939888954163,
          0.22154298424720764,
          0.6428387761116028,
          0.1654745489358902,
          -0.6342610120773315,
          -0.1107071042060852,
          0.8183775544166565,
          0.5395686626434326,
          -0.06506700068712234,
          -0.3887081444263458,
          0.22520126402378082,
          0.4107972979545593,
          -0.023658515885472298,
          0.16518178582191467,
          0.225516214966774,
          0.032189905643463135,
          0.27041855454444885,
          -0.20741480588912964,
          -0.3751390874385834,
          -0.2118419110774994,
          -0.8252526521682739,
          0.3043222427368164,
          1.3216133117675781,
          0.4245642423629761,
          -0.017268281430006027,
          -0.13934455811977386,
          -0.02294585108757019,
          0.07391664385795593,
          -0.12286462634801865,
          -0.22856935858726501,
          0.05203821882605553,
          0.8684617877006531,
          0.5899853110313416,
          -0.6977283954620361,
          -0.49272483587265015,
          0.28126493096351624,
          0.2867409586906433,
          0.13826538622379303,
          0.2566241919994354,
          0.28389063477516174,
          0.23155489563941956,
          0.21354520320892334,
          0.2716390788555145,
          -0.10111363232135773,
          -0.24179300665855408,
          -0.5413238406181335,
          -0.889808177947998,
          -1.3984174728393555,
          -0.2387700229883194,
          1.0204330682754517,
          0.73042231798172,
          -0.24014467000961304,
          -0.44418254494667053,
          -0.7139734625816345,
          -0.6257649064064026,
          -0.16687113046646118,
          -0.5264819264411926,
          -0.4017278254032135,
          -0.051862381398677826,
          0.12345203757286072,
          0.5630732774734497,
          0.33325374126434326,
          -0.7322245240211487,
          -0.45899972319602966,
          -0.07301684468984604,
          0.27470850944519043,
          0.5259659290313721,
          0.2727015018463135,
          0.3987933099269867,
          0.1225886270403862,
          0.0903901755809784,
          -0.13623949885368347,
          -0.302939772605896,
          -0.7518582940101624,
          -1.057307481765747,
          -0.9876112937927246,
          0.538590669631958,
          0.9577357172966003,
          0.13293828070163727,
          -0.22523896396160126,
          -0.05127157270908356,
          -0.3134712278842926,
          -0.4276963770389557,
          -0.2730136513710022,
          -0.11376713216304779,
          -0.14813369512557983,
          -0.011838720180094242,
          -0.1824781447649002,
          0.016393478959798813,
          0.20564775168895721,
          -0.27376362681388855,
          -0.4176497161388397,
          -0.19519318640232086,
          0.23413842916488647,
          0.5226477980613708,
          0.7978423833847046,
          0.18450632691383362,
          0.1995629519224167,
          0.14331462979316711,
          -0.0398089624941349,
          -0.33240604400634766,
          -1.1804718971252441,
          -1.3862265348434448,
          -0.42944544553756714,
          0.7456066608428955,
          0.777863621711731,
          -0.08250932395458221,
          -0.10132982581853867,
          0.13535651564598083,
          -0.33692997694015503,
          -0.49715885519981384,
          -0.37990039587020874,
          -0.08091872930526733,
          0.07567141205072403,
          0.12809191644191742,
          0.037492893636226654,
          0.03147982805967331,
          0.4545678496360779,
          0.06857199221849442,
          -0.4546299874782562,
          -0.39199918508529663,
          0.07267735153436661,
          0.34089764952659607,
          0.46398577094078064,
          0.8650684952735901,
          0.06833713501691818,
          0.22428832948207855,
          0.03384961932897568,
          -0.15789693593978882,
          -1.2604081630706787,
          -1.2783193588256836,
          -0.12259520590305328,
          0.7568443417549133,
          0.6295373439788818,
          0.002205133903771639,
          -0.1160973533987999,
          0.0863908901810646,
          -0.22175106406211853,
          -0.3098742961883545,
          -0.39679384231567383,
          0.09371158480644226,
          0.09324956685304642,
          0.029207756742835045,
          0.21204383671283722,
          0.02588731236755848,
          0.2454097867012024,
          0.12497112154960632,
          -0.39980483055114746,
          -0.35675784945487976,
          -0.19167207181453705,
          0.24622012674808502,
          0.662830114364624,
          1.2938518524169922,
          0.07025979459285736,
          0.21163466572761536,
          -0.2761910557746887,
          -0.6173452734947205,
          -0.8178505301475525,
          -1.2161753177642822,
          0.12566207349300385,
          0.6151646375656128,
          0.00736681604757905,
          -0.2715357542037964,
          -0.2697492241859436,
          -0.20702685415744781,
          -0.10205378383398056,
          -0.2525853216648102,
          -0.17309533059597015,
          0.05824503302574158,
          0.2584736943244934,
          0.22905726730823517,
          0.2865715026855469,
          -0.025620168074965477,
          0.14373967051506042,
          -0.11270033568143845,
          -0.6300219297409058,
          -0.5012759566307068,
          -0.35768309235572815,
          0.20515142381191254,
          0.7400671243667603,
          1.0354783535003662,
          0.08227613568305969,
          -0.04433979466557503,
          -0.49950331449508667,
          -0.5901819467544556,
          -0.8635136485099792,
          -1.0807563066482544,
          0.2747679650783539,
          0.6786214113235474,
          -0.16499437391757965,
          -0.8511248230934143,
          -0.6622698307037354,
          -0.08845769613981247,
          -0.062266554683446884,
          -0.29126375913619995,
          -0.47803327441215515,
          -0.11747633665800095,
          0.42625340819358826,
          0.19858239591121674,
          0.05110129714012146,
          0.28953102231025696,
          0.38764339685440063,
          0.26047012209892273,
          -0.3243515193462372,
          -0.4683530628681183,
          -0.2678276300430298,
          0.3819558918476105,
          0.05645834654569626,
          -0.02367137372493744,
          -0.09483429789543152,
          -0.25165289640426636,
          -0.40155306458473206,
          -0.7415202260017395,
          -1.2021794319152832,
          -0.9884723424911499,
          0.3549421727657318,
          0.6836845874786377,
          -0.2782081663608551,
          -1.4337639808654785,
          -1.1901911497116089,
          -0.15205442905426025,
          -0.40914231538772583,
          -0.680230438709259,
          -0.5013718008995056,
          -0.37746939063072205,
          0.5298957228660583,
          0.4294413626194,
          -0.4729122519493103,
          -0.04087670519948006,
          0.42654263973236084,
          0.5247184038162231,
          0.08200355619192123,
          -0.08687902241945267,
          0.11722511053085327,
          0.33920812606811523,
          -0.22565293312072754,
          -0.4944174587726593,
          -0.11778730154037476,
          -0.3982102572917938,
          -0.42293569445610046,
          -0.6668614745140076,
          -1.3479875326156616,
          -0.9382400512695312,
          0.2908373475074768,
          0.7269805073738098,
          -0.2813444435596466,
          -1.9430075883865356,
          -1.4063142538070679,
          -0.4349503219127655,
          -0.5902270674705505,
          -0.7961416244506836,
          -0.5207191705703735,
          -0.1897309124469757,
          0.5973466038703918,
          0.6822178959846497,
          -0.6847847104072571,
          -0.2846730351448059,
          0.3578432500362396,
          0.2691199481487274,
          -0.13761720061302185,
          0.14472059905529022,
          0.18520484864711761,
          0.34251341223716736,
          -0.20195220410823822,
          -0.7013895511627197,
          -0.1261749267578125,
          -0.34297895431518555,
          -0.45262134075164795,
          -0.587526261806488,
          -1.150874376296997,
          -0.8093894720077515,
          0.1357978880405426,
          0.7051347494125366,
          -0.5241163372993469,
          -2.312778949737549,
          -1.291024088859558,
          -0.27111488580703735,
          -0.528624951839447,
          -0.4768707752227783,
          0.12317425012588501,
          0.13319654762744904,
          0.3278440535068512,
          0.4109819531440735,
          -0.666388988494873,
          -0.2968125641345978,
          0.29770582914352417,
          0.3370826244354248,
          0.14556129276752472,
          0.15071037411689758,
          -0.033032409846782684,
          0.4535645842552185,
          0.00609267083927989,
          -1.423232913017273,
          -0.33902665972709656,
          -0.6664267778396606,
          -0.5861656665802002,
          -0.6346685290336609,
          -1.0948736667633057,
          -0.84909987449646,
          -0.11965698003768921,
          0.49212178587913513,
          -0.5945998430252075,
          -2.0669946670532227,
          -0.6452195048332214,
          0.08301489800214767,
          -0.01424759067595005,
          0.01037832535803318,
          0.17679397761821747,
          0.1207747682929039,
          0.2302950769662857,
          0.3240293562412262,
          -0.5845585465431213,
          -0.4857325553894043,
          0.38236674666404724,
          0.45458707213401794,
          0.20147976279258728,
          -0.0558607280254364,
          -0.0859137549996376,
          0.5419769883155823,
          0.15823641419410706,
          -1.4549837112426758,
          -0.5533539652824402,
          -0.7775093913078308,
          -1.011651635169983,
          -0.9721006751060486,
          -1.1299399137496948,
          -1.0336990356445312,
          -0.3351910412311554,
          0.20116102695465088,
          -0.5168502926826477,
          -1.2592412233352661,
          0.0034522907808423042,
          -0.035008177161216736,
          0.06760886311531067,
          0.01989768259227276,
          0.5188140273094177,
          0.20698639750480652,
          0.21596580743789673,
          0.46375560760498047,
          -0.09586545079946518,
          -0.4011384844779968,
          0.693048357963562,
          0.7240033745765686,
          0.4347675144672394,
          0.031105931848287582,
          0.093179851770401,
          0.31647369265556335,
          0.32788705825805664,
          -0.6323310732841492,
          -1.0537477731704712,
          -0.7970506548881531,
          -0.40200021862983704,
          0.14179596304893494,
          -0.339087575674057,
          -1.0566436052322388,
          -0.46967417001724243,
          0.3502858281135559,
          -0.6073623895645142,
          -0.8523998856544495,
          -0.08138453960418701,
          0.08637253940105438,
          0.07112016528844833,
          0.392792671918869,
          0.6626880168914795,
          0.304290771484375,
          0.22687307000160217,
          0.24292725324630737,
          0.06249017268419266,
          -0.4016803205013275,
          0.44547754526138306,
          0.8406859636306763,
          0.39472490549087524,
          0.052531640976667404,
          0.1839737743139267,
          0.45118945837020874,
          0.4955722391605377,
          0.17432120442390442,
          -0.6235486268997192,
          0.09253904968500137,
          0.19758950173854828,
          0.11697153002023697,
          -0.46405747532844543,
          -1.4401013851165771,
          -0.85690838098526,
          -0.3041456639766693,
          -0.7746772170066833,
          -0.5983223915100098,
          -0.003575062146410346,
          0.14504224061965942,
          0.09339193254709244,
          0.42097008228302,
          0.6234669089317322,
          0.19421029090881348,
          0.18126453459262848,
          0.2241227775812149,
          0.06266682595014572,
          -0.36700311303138733,
          0.07012014836072922,
          0.6170530319213867,
          0.13367041945457458,
          -0.13280236721038818,
          0.23354864120483398,
          0.6938101053237915,
          0.8013107776641846,
          0.7039459347724915,
          0.05655420944094658,
          0.495607852935791,
          0.7143131494522095,
          0.5317885279655457,
          -0.171806201338768,
          -1.449479103088379,
          -0.9421279430389404,
          -0.6044615507125854,
          -0.8440847396850586,
          -0.30694982409477234,
          0.1216420978307724,
          0.12855370342731476,
          0.2850000858306885,
          0.3965913653373718,
          0.5553009510040283,
          0.3683199882507324,
          0.19190098345279694,
          0.19730839133262634,
          0.083777517080307,
          -0.3860582113265991,
          -0.11797915399074554,
          0.27756768465042114,
          0.07146698236465454,
          0.037252988666296005,
          0.4741241931915283,
          0.816305935382843,
          0.6707460880279541,
          0.33986419439315796,
          0.7580112218856812,
          0.4994019567966461,
          0.837328314781189,
          0.7157696485519409,
          -0.38531795144081116,
          -1.446563959121704,
          -1.1231169700622559,
          -0.8779054880142212,
          -0.6959782242774963,
          -0.10966554284095764,
          0.3175496757030487,
          0.255337119102478,
          0.21812701225280762,
          0.5830363035202026,
          0.636518120765686,
          0.3214825987815857,
          0.2626087963581085,
          0.2932794988155365,
          0.19814720749855042,
          -0.11849364638328552,
          -0.10861370712518692,
          0.3514956831932068,
          0.0058263433165848255,
          -0.06799495965242386,
          0.24291571974754333,
          0.2316197007894516,
          0.18507526814937592,
          0.3196044862270355,
          0.27631843090057373,
          0.6750633120536804,
          1.2515745162963867,
          0.7467843890190125,
          -0.4877720773220062,
          -1.3611036539077759,
          -1.120281457901001,
          -0.7861653566360474,
          -0.5414576530456543,
          -0.03482690453529358,
          0.39628472924232483,
          0.21669985353946686,
          0.19205711781978607,
          0.41095513105392456,
          0.4853029251098633,
          0.05527743697166443,
          0.05699745565652847,
          0.05618057772517204,
          -0.04802416265010834,
          -0.4643625020980835,
          -0.19376856088638306,
          0.16950151324272156,
          -0.21404172480106354,
          -0.47829484939575195,
          -0.33707231283187866,
          -0.3678141236305237,
          -0.23318910598754883,
          -0.05923154950141907,
          0.487124502658844,
          0.6013339757919312,
          1.080417275428772,
          0.7194309830665588,
          -0.10465999692678452,
          -0.89224773645401,
          -0.7328436374664307,
          -0.5720275640487671,
          -0.4194890558719635,
          -0.017549118027091026,
          0.24945490062236786,
          0.1361396163702011,
          0.15345409512519836,
          0.4791091978549957,
          0.4095219075679779,
          -0.028278568759560585,
          0.061651021242141724,
          -0.10256107151508331,
          0.11616425216197968,
          -0.26491743326187134,
          0.19020067155361176,
          0.41327792406082153,
          -0.05992824584245682,
          -0.051279377192258835,
          -0.21696050465106964,
          -0.3295571804046631,
          0.1099705845117569,
          0.19676434993743896,
          -0.310140460729599,
          0.3352944254875183,
          0.7978086471557617,
          0.3454219698905945,
          -0.4758419990539551,
          -1.313124656677246,
          -0.8890262842178345,
          -0.6079129576683044,
          -0.5526490211486816,
          0.02163347788155079,
          0.05547001212835312,
          0.10065627098083496,
          0.1766842156648636,
          0.21984994411468506,
          0.39619383215904236,
          0.08841979503631592,
          0.10110042989253998,
          0.17579324543476105,
          0.20374621450901031,
          -0.16219189763069153,
          0.21831361949443817,
          0.40558961033821106,
          0.03340825065970421,
          -0.2324986457824707,
          -0.2048995941877365,
          -0.39891287684440613,
          0.2251051515340805,
          0.9478273987770081,
          0.4612009823322296,
          0.6933930516242981,
          0.8197266459465027,
          0.4609178304672241,
          -0.3694465756416321,
          -0.960367739200592,
          -0.8925216197967529,
          -1.2077223062515259,
          -1.0041528940200806,
          -0.12229879945516586,
          0.16197235882282257,
          -0.0059767235070466995,
          -0.09554769843816757,
          0.07620532065629959,
          0.2821028232574463,
          0.06969932466745377,
          0.09033352136611938,
          0.33873239159584045,
          0.6563917994499207,
          0.23674900829792023,
          0.07024241983890533,
          -0.14739780128002167,
          -0.17232577502727509,
          -0.11364510655403137,
          -0.08577284961938858,
          -0.3300439119338989,
          0.287882536649704,
          0.8636142015457153,
          0.31633514165878296,
          0.580194354057312,
          0.723469078540802,
          0.607893705368042,
          0.03399025648832321,
          -0.7935154438018799,
          -0.9163144826889038,
          -1.224839687347412,
          -0.7539591193199158,
          -0.0450538769364357,
          0.17920099198818207,
          -0.06033456325531006,
          -0.08394408971071243,
          0.28231048583984375,
          0.3941711485385895,
          -0.08393087238073349,
          0.062370579689741135,
          0.5135881304740906,
          0.794575035572052,
          0.36632928252220154,
          -0.13131029903888702,
          -0.21878500282764435,
          -0.09079336374998093,
          0.04410871863365173,
          0.0801033228635788,
          0.07935074716806412,
          0.4874197244644165,
          1.0676907300949097,
          0.24394714832305908,
          0.5197972655296326,
          0.6881587505340576,
          0.5156924724578857,
          -0.0062970672734081745,
          -0.6081622838973999,
          -0.8989063501358032,
          -1.0503500699996948,
          -0.5536178350448608,
          0.06280927360057831,
          0.22088168561458588,
          0.29219087958335876,
          0.09712760895490646,
          0.24645096063613892,
          0.7618913054466248,
          0.25760263204574585,
          0.24327149987220764,
          0.5956479907035828,
          0.47583964467048645,
          -0.141060933470726,
          -0.2991783618927002,
          -0.2668435275554657,
          -0.05704140663146973,
          -0.12395525723695755,
          0.06620124727487564,
          -0.19920922815799713,
          0.43859124183654785,
          0.9261263012886047,
          -0.04178168624639511,
          0.033841632306575775,
          0.40406233072280884,
          0.1064194068312645,
          -0.16400016844272614,
          -0.4232492744922638,
          -0.7052813768386841,
          -0.8684260845184326,
          -0.41374656558036804,
          0.12418205291032791,
          0.24498173594474792,
          0.20642580091953278,
          0.1140424907207489,
          0.3414955735206604,
          0.5416017174720764,
          -0.123198002576828,
          0.22198370099067688,
          0.4138161242008209,
          0.17925941944122314,
          -0.21154209971427917,
          -0.18484477698802948,
          -0.15244553983211517,
          -0.07173173129558563,
          -0.054553672671318054,
          0.04981755465269089,
          -0.30435338616371155,
          0.20093394815921783,
          0.7503604888916016,
          0.348625510931015,
          0.061229221522808075,
          0.10844608396291733,
          -0.048752885311841965,
          -0.2967692017555237,
          -0.39954832196235657,
          -0.5142276287078857,
          -0.6052494645118713,
          -0.3167796730995178,
          0.02849791944026947,
          0.3930635154247284,
          0.22197358310222626,
          0.08440659940242767,
          0.2589702010154724,
          0.3480185270309448,
          -0.04466122016310692,
          0.08636723458766937,
          0.06468064337968826,
          0.04307546094059944,
          -0.04234393313527107,
          -0.2600800096988678,
          -0.3174496293067932,
          -0.07357273995876312,
          -0.22190973162651062,
          -0.11268522590398788,
          -0.2638870179653168,
          0.16881057620048523,
          0.4541141092777252,
          -0.5270479321479797,
          -0.141765758395195,
          -0.3636185824871063,
          -0.4738927483558655,
          -0.6132153868675232,
          -0.4630390405654907,
          -0.3468592166900635,
          -0.21029271185398102,
          -0.16414441168308258,
          0.11305639892816544,
          0.39179760217666626,
          0.360728919506073,
          0.12365695834159851,
          0.3214309513568878,
          0.4700314700603485,
          0.09534139931201935,
          0.24323754012584686,
          0.43484655022621155,
          0.21065892279148102,
          0.1382475197315216,
          0.04680531471967697,
          0.10239746421575546,
          0.229471817612648,
          -0.0903925746679306,
          0.06264389306306839,
          -0.19584526121616364,
          0.13086357712745667,
          0.284810334444046,
          -0.6496819853782654,
          -0.5949240922927856,
          -0.7270380258560181,
          -0.934650182723999,
          -1.0623210668563843,
          -0.995456874370575,
          -0.7184343338012695,
          -0.1275259405374527,
          0.16119320690631866,
          0.16967253386974335,
          0.3956633508205414,
          0.41587457060813904,
          0.057773295789957047,
          0.3439409136772156,
          0.759570837020874,
          0.16521820425987244,
          0.356882780790329,
          0.38797956705093384,
          0.192680224776268,
          0.14854879677295685,
          0.3273106813430786,
          -0.039253391325473785,
          -0.08582982420921326,
          -0.43081626296043396,
          -0.29389259219169617,
          -0.514333963394165,
          0.29066646099090576,
          0.45380690693855286,
          -0.20647422969341278,
          -0.4424159526824951,
          -0.638545036315918,
          -1.0512925386428833,
          -1.1401987075805664,
          -1.1996196508407593,
          -1.1176668405532837,
          -0.6630877256393433,
          -0.4357444643974304,
          0.16370554268360138,
          0.5953590869903564,
          0.08271829783916473,
          -0.32446685433387756,
          0.3400464355945587,
          0.6016755700111389,
          -0.10822658985853195,
          0.06990192830562592,
          0.1581171154975891,
          0.21387562155723572,
          -0.30258908867836,
          -0.3866063356399536,
          -0.729224681854248,
          -0.9783301949501038,
          -0.6724842190742493,
          -0.2720731496810913,
          -0.29811611771583557,
          0.15865986049175262,
          0.31775087118148804
        ],
        [
          0.13290251791477203,
          -0.2672504186630249,
          -0.3915672302246094,
          -0.38251450657844543,
          -0.5977085828781128,
          -0.2694413959980011,
          -0.40127164125442505,
          -0.9831628203392029,
          -1.5800474882125854,
          -1.7200078964233398,
          -2.3341879844665527,
          -0.9964667558670044,
          0.9734442830085754,
          0.8253985643386841,
          0.7966814637184143,
          1.2826675176620483,
          -0.030230926349759102,
          -1.97626793384552,
          -1.870348572731018,
          -1.9264591932296753,
          -1.280949354171753,
          -0.10518073290586472,
          0.29695627093315125,
          -0.35168763995170593,
          -0.00860563199967146,
          0.3194935917854309,
          0.4093126654624939,
          -0.21194882690906525,
          0.006864575669169426,
          -0.15336443483829498,
          -0.45092448592185974,
          -0.2818562388420105,
          -0.40362000465393066,
          -0.08844407647848129,
          -0.326411634683609,
          -1.3572531938552856,
          -0.8414589762687683,
          -0.9452378749847412,
          -1.0911887884140015,
          -0.17685002088546753,
          0.4491455852985382,
          0.4638364315032959,
          0.38200363516807556,
          0.550426185131073,
          -0.037930943071842194,
          -1.3034476041793823,
          -1.4555069208145142,
          -1.299796223640442,
          -1.3257322311401367,
          -0.5196976661682129,
          0.05807004123926163,
          0.11812562495470047,
          0.2790735065937042,
          0.5666830539703369,
          0.31564024090766907,
          -0.17082102596759796,
          -0.052269887179136276,
          0.08551519364118576,
          0.03852718323469162,
          -0.20825323462486267,
          -0.3454439640045166,
          -0.7373055815696716,
          -1.7412493228912354,
          -1.154010534286499,
          0.28021904826164246,
          0.6469838619232178,
          0.4755989611148834,
          0.2405853271484375,
          0.08494210988283157,
          0.5649222135543823,
          0.6533550024032593,
          0.350279301404953,
          0.154106006026268,
          0.3287324905395508,
          0.3369792699813843,
          0.16474425792694092,
          -0.8413345813751221,
          -1.729838252067566,
          -0.9566165208816528,
          -0.3360779583454132,
          0.029583502560853958,
          0.5463473200798035,
          0.2759878635406494,
          0.06367694586515427,
          0.10542938858270645,
          0.14038704335689545,
          0.08924127370119095,
          0.04179920628666878,
          -0.7362375855445862,
          -1.0477845668792725,
          -0.6248293519020081,
          0.7732946872711182,
          1.1307461261749268,
          0.34116503596305847,
          -0.15409241616725922,
          0.06198132783174515,
          0.11734747886657715,
          0.6087474226951599,
          0.5377587080001831,
          0.4053836166858673,
          0.37316572666168213,
          -0.22794462740421295,
          -0.10107459127902985,
          0.6668829321861267,
          0.6710543632507324,
          -0.2139255702495575,
          -1.1721272468566895,
          -0.8006812334060669,
          0.06103452667593956,
          0.5973431468009949,
          0.678270697593689,
          0.4313220977783203,
          0.4263199269771576,
          0.4024145007133484,
          0.28607699275016785,
          0.046457186341285706,
          -0.7483763694763184,
          -0.3909749388694763,
          0.0986863374710083,
          0.08966780453920364,
          0.33354702591896057,
          -0.1322106570005417,
          -0.1544954627752304,
          0.14958009123802185,
          0.2552548348903656,
          0.2997819185256958,
          0.26982930302619934,
          0.3839428126811981,
          0.34525689482688904,
          0.04744069650769234,
          -0.23671799898147583,
          0.14359404146671295,
          -0.0526433140039444,
          -0.04492499306797981,
          -0.2507016956806183,
          -1.0774725675582886,
          -0.08072271943092346,
          0.30333802103996277,
          0.7707980871200562,
          0.7190840840339661,
          0.5441820025444031,
          0.48653799295425415,
          0.14280733466148376,
          0.009792744182050228,
          -0.7607815861701965,
          -0.4936057925224304,
          -0.24760374426841736,
          -0.03263050317764282,
          0.12078222632408142,
          -0.10698603093624115,
          0.07763395458459854,
          0.11002707481384277,
          -0.04168020561337471,
          0.0896076038479805,
          0.1346871256828308,
          0.33076149225234985,
          0.03147702291607857,
          0.025192949920892715,
          -0.08229728788137436,
          -0.0769885927438736,
          -0.24153584241867065,
          -0.37625426054000854,
          -0.2825440466403961,
          -0.8850340843200684,
          -0.2932717800140381,
          0.24770216643810272,
          0.7772668600082397,
          1.073177695274353,
          0.3376692831516266,
          0.09310252964496613,
          -0.3429271876811981,
          -0.2722339332103729,
          -0.4773196280002594,
          -0.4864940345287323,
          -0.38474783301353455,
          -0.022098083049058914,
          0.05160147696733475,
          -0.04326794669032097,
          0.018616188317537308,
          0.12466805428266525,
          0.07827389240264893,
          0.04136690869927406,
          0.010779024101793766,
          -0.0021385885775089264,
          0.1485707312822342,
          0.11832014471292496,
          -0.012246664613485336,
          0.08358564972877502,
          -0.08734879642724991,
          -0.2777937054634094,
          -0.4437406063079834,
          -0.5518925189971924,
          -0.38417118787765503,
          0.20755372941493988,
          0.7579778432846069,
          1.1303303241729736,
          0.3181121051311493,
          -0.06534744054079056,
          -0.3648339509963989,
          -0.43782299757003784,
          -0.21875007450580597,
          -0.3132447898387909,
          -0.43770408630371094,
          -0.1093917265534401,
          -0.26386868953704834,
          -0.198136106133461,
          -0.10258480161428452,
          0.19085998833179474,
          -0.07665051519870758,
          -0.05764332786202431,
          0.004070411901921034,
          0.009920853190124035,
          0.278483510017395,
          0.23179300129413605,
          -0.004514323081821203,
          0.10068327933549881,
          0.08720165491104126,
          -0.23763149976730347,
          -0.3095208704471588,
          -0.14410169422626495,
          -0.38121142983436584,
          0.39398249983787537,
          0.29831641912460327,
          0.3375544548034668,
          0.3866204619407654,
          -0.058790020644664764,
          -0.2427002191543579,
          -0.3177948594093323,
          -0.1890396624803543,
          -0.3016398847103119,
          -0.41426149010658264,
          -0.0009726276621222496,
          -0.3635781705379486,
          -0.5004265308380127,
          -0.40393882989883423,
          -0.05430078133940697,
          -0.27966243028640747,
          -0.2861344814300537,
          -0.045070432126522064,
          -0.24861428141593933,
          0.13034309446811676,
          -0.1311507672071457,
          -0.2616588771343231,
          -0.08353790640830994,
          0.08261705189943314,
          -0.13194696605205536,
          -0.36398836970329285,
          0.08759386092424393,
          0.0855928286910057,
          0.43038660287857056,
          0.056271299719810486,
          0.014686359092593193,
          0.7252394556999207,
          0.27611029148101807,
          -0.18574677407741547,
          -0.2198101133108139,
          -0.21740326285362244,
          -0.3200004994869232,
          -0.38013723492622375,
          -0.08271151781082153,
          -0.2079428881406784,
          -0.5779419541358948,
          -0.7662415504455566,
          -0.3342466354370117,
          -0.6193631887435913,
          -0.2728639245033264,
          -0.016078593209385872,
          0.005854716058820486,
          0.035867538303136826,
          -0.26820266246795654,
          -0.39098599553108215,
          -0.08133289217948914,
          0.3381311893463135,
          -0.17707812786102295,
          -0.30507540702819824,
          0.11109888553619385,
          0.15484219789505005,
          0.7324728965759277,
          0.12448620796203613,
          0.03378212824463844,
          0.6107377409934998,
          0.20839734375476837,
          -0.28849464654922485,
          0.12588895857334137,
          -0.19984637200832367,
          -0.22942781448364258,
          -0.3932972550392151,
          0.05947202444076538,
          0.005610060412436724,
          -0.6142693758010864,
          -0.5803128480911255,
          -0.3296118378639221,
          -0.43701228499412537,
          -0.18652324378490448,
          0.5038743615150452,
          -0.014259777963161469,
          -0.016873948276042938,
          -0.191167414188385,
          -0.39571842551231384,
          -0.032677773386240005,
          0.42310431599617004,
          -0.1478191614151001,
          -0.3456781208515167,
          0.10920356959104538,
          0.3800307810306549,
          0.7082673907279968,
          0.027121668681502342,
          -0.2543945014476776,
          0.37014177441596985,
          0.05036736652255058,
          -0.6872162222862244,
          -0.45609337091445923,
          -0.33949756622314453,
          -0.07666794955730438,
          -0.3451591730117798,
          0.1586155742406845,
          0.04406312108039856,
          -0.5561652183532715,
          -0.49736928939819336,
          -0.23096963763237,
          -0.31558582186698914,
          -0.017092710360884666,
          0.4196171462535858,
          0.07508917152881622,
          -0.09677174687385559,
          -0.10927162319421768,
          -0.13966229557991028,
          0.35173603892326355,
          0.44296398758888245,
          0.05321550369262695,
          -0.17697854340076447,
          0.0978272408246994,
          -0.18861758708953857,
          0.3380947709083557,
          0.1935923546552658,
          -0.709429919719696,
          0.284657746553421,
          0.11725710332393646,
          -0.7925234436988831,
          -0.8309059143066406,
          -0.3945391774177551,
          -0.06779395043849945,
          -0.2047705203294754,
          0.15440769493579865,
          0.15399162471294403,
          -0.3572412431240082,
          -0.46055299043655396,
          -0.18662865459918976,
          -0.4170883893966675,
          -0.07131604105234146,
          0.4508100748062134,
          -0.04320397600531578,
          -0.2069680243730545,
          0.020591700449585915,
          -0.01870596967637539,
          0.29052701592445374,
          0.6643953323364258,
          0.3406795859336853,
          0.0670301541686058,
          0.1947452872991562,
          -0.35112956166267395,
          0.20299819111824036,
          0.13637566566467285,
          -0.3893546462059021,
          0.48916885256767273,
          -0.06862721592187881,
          -0.7136605978012085,
          -0.6821745038032532,
          0.021636515855789185,
          0.0009097456932067871,
          -0.35993003845214844,
          0.15941767394542694,
          0.07676935940980911,
          -0.26387113332748413,
          -0.17707549035549164,
          -0.24613691866397858,
          -0.21456728875637054,
          0.3102770447731018,
          0.5523499846458435,
          0.008591004647314548,
          -0.12466307729482651,
          -0.1215028464794159,
          0.13551804423332214,
          0.39998552203178406,
          0.7113139033317566,
          0.22973228991031647,
          0.12764723598957062,
          0.3255546987056732,
          -0.09438271075487137,
          0.13393546640872955,
          0.37001103162765503,
          0.11799335479736328,
          0.5082042217254639,
          0.19543124735355377,
          -0.3352842628955841,
          -0.3711385726928711,
          0.11330476403236389,
          -0.10832839459180832,
          -0.2865547239780426,
          0.19467300176620483,
          0.024544967338442802,
          -0.04927419498562813,
          -0.04361169412732124,
          -0.13756248354911804,
          -0.09535695612430573,
          0.4126608371734619,
          0.5631706714630127,
          0.06987565010786057,
          -0.15653318166732788,
          -0.16238245368003845,
          0.36995241045951843,
          0.416283518075943,
          0.5292823910713196,
          0.22618544101715088,
          0.014678356237709522,
          0.3700592815876007,
          0.08794604241847992,
          -0.0345473513007164,
          0.2080049365758896,
          0.4113990366458893,
          0.40798860788345337,
          0.4036981761455536,
          -0.023975061252713203,
          -0.029330503195524216,
          0.19478873908519745,
          -0.06539130955934525,
          -0.13633611798286438,
          0.18866169452667236,
          -0.024619821459054947,
          0.10132242739200592,
          -0.057349786162376404,
          -0.10364175587892532,
          -0.09712553024291992,
          0.3110673427581787,
          0.6021521687507629,
          -0.0936664417386055,
          -0.29056885838508606,
          -0.26232364773750305,
          0.29838767647743225,
          0.4177679717540741,
          0.35678765177726746,
          0.33446794748306274,
          0.0659698024392128,
          0.35767415165901184,
          0.09857556223869324,
          -0.0845121443271637,
          -0.05274495854973793,
          0.5823529958724976,
          0.7210202813148499,
          0.14845943450927734,
          -0.09817764908075333,
          0.09245122969150543,
          0.21290437877178192,
          -0.23058217763900757,
          -0.17324751615524292,
          0.086636021733284,
          -0.010366442613303661,
          0.17313820123672485,
          0.08705590665340424,
          -0.17608189582824707,
          -0.17140676081180573,
          0.3191731870174408,
          0.5435690879821777,
          -0.09911853075027466,
          -0.18704518675804138,
          -0.1265297532081604,
          0.0929832011461258,
          0.4457118511199951,
          0.27977293729782104,
          0.20348787307739258,
          -0.00010433862189529464,
          0.3436077833175659,
          0.11591769009828568,
          -0.36662763357162476,
          -0.39226484298706055,
          0.45711901783943176,
          0.05341004207730293,
          0.10510832816362381,
          0.25907257199287415,
          0.05425799638032913,
          0.16894161701202393,
          -0.3352035880088806,
          -0.16374175250530243,
          -0.018172703683376312,
          0.018076574429869652,
          0.06967674195766449,
          -0.06003706902265549,
          -0.11971433460712433,
          -0.220210462808609,
          0.24540065228939056,
          0.5116481184959412,
          -0.1618054211139679,
          -0.38483941555023193,
          -0.20636019110679626,
          -0.030534153804183006,
          0.3970741033554077,
          0.11275594681501389,
          0.13906744122505188,
          -0.1162257269024849,
          0.022540275007486343,
          -0.20811304450035095,
          -0.623272716999054,
          -0.5459824800491333,
          -0.06443247199058533,
          -0.09582515060901642,
          -0.1396893411874771,
          0.3050265908241272,
          0.18471947312355042,
          0.26789432764053345,
          -0.09979572892189026,
          -0.2459554523229599,
          -0.08368728309869766,
          0.06865406036376953,
          0.09482767432928085,
          -0.031192060559988022,
          -0.1848859041929245,
          -0.18572598695755005,
          0.3786425292491913,
          0.5583058595657349,
          -0.21090036630630493,
          -0.3145562708377838,
          -0.2801209092140198,
          -0.016390761360526085,
          0.4006896913051605,
          0.18675284087657928,
          0.13415253162384033,
          -0.16651202738285065,
          0.17694956064224243,
          -0.04019773751497269,
          -0.8265576958656311,
          -0.6109285950660706,
          -0.037522051483392715,
          -0.4155755937099457,
          -0.09589936584234238,
          0.17769268155097961,
          0.043512891978025436,
          0.3570880591869354,
          -0.11614219099283218,
          -0.19713763892650604,
          0.02081730216741562,
          0.07724950462579727,
          0.07206472754478455,
          -0.0090542146936059,
          -0.013115028850734234,
          -0.24026134610176086,
          0.27163147926330566,
          0.6238517165184021,
          -0.10986822843551636,
          -0.2292362004518509,
          -0.07369978725910187,
          0.046321433037519455,
          0.4638526737689972,
          0.36139702796936035,
          0.17068171501159668,
          0.06728620082139969,
          0.311525821685791,
          0.09518247842788696,
          -0.5553975105285645,
          -0.31870898604393005,
          0.21084700524806976,
          -0.11759240925312042,
          -0.18522010743618011,
          0.24513378739356995,
          0.21408075094223022,
          0.568241536617279,
          0.16309691965579987,
          0.0680859163403511,
          0.10980240255594254,
          0.14854967594146729,
          -0.057787951081991196,
          0.1561795473098755,
          -0.03921424597501755,
          -0.2897990643978119,
          0.20977690815925598,
          0.5621551871299744,
          -0.19120384752750397,
          -0.20943108201026917,
          0.06670849770307541,
          0.05243801698088646,
          0.37550368905067444,
          0.3221060335636139,
          0.23415276408195496,
          0.0755418986082077,
          0.3867579400539398,
          0.3670603930950165,
          -0.33662307262420654,
          -0.10932489484548569,
          0.15862512588500977,
          -0.21507082879543304,
          -0.14777186512947083,
          0.11327885091304779,
          0.20708869397640228,
          0.4424073100090027,
          0.16915355622768402,
          -0.09915749728679657,
          0.17465880513191223,
          -0.03911089897155762,
          -0.18453457951545715,
          0.03657558560371399,
          -0.28470733761787415,
          -0.35964831709861755,
          0.08757076412439346,
          0.44035637378692627,
          -0.22927339375019073,
          -0.35395461320877075,
          -0.2566272020339966,
          -0.2609919607639313,
          0.01062491349875927,
          0.2357257604598999,
          0.2669055461883545,
          0.14960305392742157,
          0.5219359993934631,
          0.41919898986816406,
          -0.28790414333343506,
          -0.04496443644165993,
          0.15874546766281128,
          0.09591665863990784,
          -0.18407213687896729,
          0.12661923468112946,
          0.14886769652366638,
          0.5389882922172546,
          0.06309375166893005,
          -0.24450518190860748,
          0.02194356359541416,
          0.0712745413184166,
          -0.07154405862092972,
          0.10916468501091003,
          -0.17722301185131073,
          -0.44832974672317505,
          0.007577626500278711,
          0.3986125588417053,
          -0.2928234934806824,
          -0.31213316321372986,
          -0.1807406097650528,
          -0.23853501677513123,
          -0.11421678960323334,
          0.188064843416214,
          -0.06622330099344254,
          0.15109655261039734,
          0.39034080505371094,
          0.3013629913330078,
          -0.4403010308742523,
          0.023749563843011856,
          0.16445215046405792,
          -0.05954081192612648,
          -0.46252843737602234,
          -0.23251457512378693,
          -0.07175206393003464,
          0.4805133044719696,
          0.03501720726490021,
          -0.2951070964336395,
          -0.04709945619106293,
          -0.07314199954271317,
          0.031164249405264854,
          0.05043913051486015,
          -0.32523399591445923,
          -0.36852696537971497,
          0.04466686397790909,
          0.3932507336139679,
          -0.281701922416687,
          -0.43263643980026245,
          -0.272516131401062,
          -0.3298410475254059,
          -0.14747387170791626,
          0.1435571014881134,
          -0.2893477976322174,
          -0.214023619890213,
          0.1841357946395874,
          0.2276282161474228,
          -0.5183932185173035,
          -0.3010829985141754,
          0.2803856134414673,
          -0.14863255620002747,
          -0.44302046298980713,
          -0.2984625995159149,
          -0.20257213711738586,
          0.24261842668056488,
          -0.19092491269111633,
          -0.4975309669971466,
          -0.04822053760290146,
          0.14184685051441193,
          0.1435968428850174,
          0.2775125801563263,
          -0.07032011449337006,
          -0.45668020844459534,
          0.09567557275295258,
          0.49282822012901306,
          -0.0771736279129982,
          -0.3315880298614502,
          -0.09645365178585052,
          -0.07641895115375519,
          0.06216507777571678,
          0.10227161645889282,
          -0.29010316729545593,
          -0.23348787426948547,
          0.0932169184088707,
          0.07949522882699966,
          -0.50319904088974,
          -0.5597863793373108,
          -0.24077735841274261,
          -0.5952603220939636,
          -0.5983004570007324,
          -0.4644774794578552,
          0.1776587814092636,
          0.49669626355171204,
          -0.22849373519420624,
          -0.34875816106796265,
          -0.1484449803829193,
          -0.38461077213287354,
          -0.1159161776304245,
          0.172007218003273,
          -0.10722655802965164,
          -0.39162588119506836,
          0.15674351155757904,
          0.41127729415893555,
          -0.3234770894050598,
          -0.2962316572666168,
          -0.11218354105949402,
          -0.10895188897848129,
          0.003185165347531438,
          -0.15888135135173798,
          -0.26635438203811646,
          -0.3814791440963745,
          0.06597039103507996,
          0.17173482477664948,
          -0.6683064699172974,
          -0.5451799631118774,
          -0.5422793030738831,
          -0.7340443730354309,
          -0.53519207239151,
          -0.4565628468990326,
          0.4035813510417938,
          0.5280018448829651,
          -0.3775235414505005,
          -0.43998992443084717,
          -0.47464340925216675,
          -0.839139461517334,
          -0.06866219639778137,
          0.6885136365890503,
          0.36734649538993835,
          0.06824321299791336,
          0.4270749092102051,
          0.6884843111038208,
          0.0161737073212862,
          0.1015843003988266,
          0.28358644247055054,
          0.22249984741210938,
          -0.5113819241523743,
          -0.8788613080978394,
          -0.7463058829307556,
          -0.7191784381866455,
          -0.20367372035980225,
          0.2626362442970276,
          -0.6596319675445557,
          -0.5747941732406616,
          -0.17134781181812286,
          -0.3100447654724121,
          -0.3966030776500702,
          -0.1283082813024521,
          0.2763652205467224,
          0.19253791868686676,
          -0.3547958731651306,
          -0.6353614926338196,
          -0.9714715480804443,
          -1.6258599758148193,
          -0.8427945971488953,
          0.09139245748519897,
          0.1943296492099762,
          0.19558337330818176,
          1.3514713048934937,
          1.4917911291122437,
          0.2834033668041229,
          0.12077639997005463,
          -0.2549563944339752,
          -0.8109673261642456,
          -1.7166181802749634,
          -2.0532960891723633,
          -1.1461231708526611,
          -0.6762144565582275,
          -0.2708827257156372,
          -0.06264515221118927,
          -0.4701348841190338,
          -0.15833576023578644,
          -0.08626915514469147
        ],
        [
          0.008336488157510757,
          -0.02864588238298893,
          0.05590733885765076,
          0.01966373436152935,
          0.053937770426273346,
          -0.03220042213797569,
          -0.042604148387908936,
          -0.051486480981111526,
          0.06196272000670433,
          0.06279715150594711,
          -0.07776334881782532,
          0.08369944244623184,
          -0.00989223551005125,
          -0.06331315636634827,
          0.029617145657539368,
          -0.010441236197948456,
          0.007165130693465471,
          -0.07272227108478546,
          -0.029199453070759773,
          0.08040156215429306,
          -0.07998096942901611,
          -0.0631876215338707,
          -0.09078757464885712,
          0.01855422742664814,
          -0.013884174637496471,
          0.007665417622774839,
          0.027464019134640694,
          -0.01669103279709816,
          -0.03607901930809021,
          -0.05303295701742172,
          0.02016572095453739,
          -0.11961059272289276,
          0.058421146124601364,
          0.038453757762908936,
          -0.03540433570742607,
          -0.054885126650333405,
          -0.0539092980325222,
          0.053176410496234894,
          -0.058418843895196915,
          -0.09611579030752182,
          -0.06853937357664108,
          0.035824909806251526,
          -0.020947586745023727,
          -0.12730799615383148,
          -0.07210016250610352,
          0.023499159142374992,
          0.0339847169816494,
          0.02703469805419445,
          -0.01770908758044243,
          0.060353249311447144,
          -0.07097496837377548,
          -0.0331929512321949,
          -0.05090539902448654,
          0.004383918829262257,
          0.06818599998950958,
          0.11441755294799805,
          0.11386565864086151,
          0.10495169460773468,
          0.043905243277549744,
          -0.06749365478754044,
          -0.016109999269247055,
          -0.014997395686805248,
          0.09627480804920197,
          -0.04230523109436035,
          -0.03464505821466446,
          -0.029068462550640106,
          -0.02875617705285549,
          0.05717627704143524,
          -0.010621278546750546,
          -0.029047111049294472,
          0.10131867229938507,
          0.02001282572746277,
          0.0029144182335585356,
          -0.04512559249997139,
          0.019517693668603897,
          0.020353322848677635,
          -0.009338710457086563,
          0.004336205776780844,
          0.0013085982063785195,
          -0.026274343952536583,
          -0.02496783807873726,
          0.0002366390108363703,
          0.04065308719873428,
          0.0484030582010746,
          0.07112889736890793,
          0.008897984400391579,
          -0.02815810590982437,
          0.00010636090155458078,
          -0.0292289387434721,
          -0.06686447560787201,
          -0.015377315692603588,
          -0.055581819266080856,
          0.033986613154411316,
          -0.023650985211133957,
          0.02083461917936802,
          -0.135812446475029,
          -0.01524996105581522,
          0.02190927043557167,
          -0.05382217466831207,
          0.07594624161720276,
          0.0060929604806005955,
          0.06935340911149979,
          -0.07218769937753677,
          -0.05655676871538162,
          -0.06707903742790222,
          0.06648415327072144,
          0.03737856447696686,
          -0.03919053450226784,
          0.04364316165447235,
          0.0691717118024826,
          -0.10247217118740082,
          0.01442152913659811,
          -0.07750210911035538,
          -0.029444530606269836,
          -0.07264748215675354,
          0.0935378149151802,
          0.034244928508996964,
          0.039538510143756866,
          0.04588877782225609,
          0.004499431233853102,
          0.08904710412025452,
          0.019792594015598297,
          0.07822278141975403,
          0.08514399826526642,
          0.06584489345550537,
          -0.004542148672044277,
          0.034651197493076324,
          0.06250382214784622,
          0.027666259557008743,
          -0.021101582795381546,
          -0.009930336847901344,
          0.015736619010567665,
          0.049663618206977844,
          -0.08934791386127472,
          0.08216528594493866,
          -0.027959004044532776,
          -0.09128657728433609,
          -0.10191527009010315,
          -0.0010013250866904855,
          -0.08231577277183533,
          -0.022587623447179794,
          -0.028689732775092125,
          0.02698284015059471,
          -0.021785110235214233,
          -0.035739921033382416,
          0.008374764584004879,
          -0.04922721907496452,
          0.07525515556335449,
          -0.014677473343908787,
          0.05473848059773445,
          0.016110900789499283,
          0.010139855556190014,
          -0.03903518617153168,
          -0.014564194716513157,
          -0.04315585643053055,
          0.01659512147307396,
          9.22326507861726e-05,
          0.0829668939113617,
          0.017246346920728683,
          -0.025577418506145477,
          0.03296033665537834,
          -0.039414577186107635,
          0.039226677268743515,
          0.015609821304678917,
          0.032646697014570236,
          -0.012697678059339523,
          0.04908515140414238,
          0.01548317912966013,
          0.03003903664648533,
          -0.06682927161455154,
          -0.03297440707683563,
          0.032040100544691086,
          0.026464492082595825,
          0.021015718579292297,
          0.0035401363857090473,
          0.017750991508364677,
          0.012071367353200912,
          -0.033043745905160904,
          0.024378715083003044,
          -0.032371699810028076,
          0.009794828481972218,
          -0.041334230452775955,
          0.07857177406549454,
          -0.009087576530873775,
          -0.0337054617702961,
          -0.03332701325416565,
          0.002825576812028885,
          0.04030786082148552,
          0.006587774492800236,
          -0.044077347964048386,
          -0.0035014634486287832,
          -0.013463134877383709,
          0.0955299660563469,
          0.03141240403056145,
          0.02631964348256588,
          0.023368749767541885,
          0.05881590023636818,
          -0.039402563124895096,
          0.02246134728193283,
          -0.04590626433491707,
          -0.008459198288619518,
          -0.008314094506204128,
          -0.06368441879749298,
          -0.006293711718171835,
          -0.00674307718873024,
          -0.0033703043591231108,
          -0.05085103213787079,
          0.013628917746245861,
          0.04236713796854019,
          -0.01827557384967804,
          0.0926966741681099,
          -0.004916281905025244,
          0.05857979878783226,
          -0.019007667899131775,
          -0.016161831095814705,
          0.05991589277982712,
          0.07937538623809814,
          -0.013539794832468033,
          0.0006381524726748466,
          0.039754465222358704,
          -0.014475000090897083,
          -0.06588847190141678,
          0.021723566576838493,
          -0.1259833574295044,
          0.011411295272409916,
          0.032042186707258224,
          0.011591454967856407,
          0.030350271612405777,
          0.02921340987086296,
          0.07334709167480469,
          0.062097616493701935,
          0.023286325857043266,
          0.05948946624994278,
          -0.062459226697683334,
          -0.022657722234725952,
          -0.03123261220753193,
          -0.04671294614672661,
          0.057154472917318344,
          -0.05989359691739082,
          0.02062799595296383,
          0.011299747042357922,
          0.05456717684864998,
          0.06179547682404518,
          -0.03387681394815445,
          -0.0460948720574379,
          0.055135566741228104,
          -0.0326809324324131,
          0.035358112305402756,
          0.02578318491578102,
          -0.015288726426661015,
          -0.06530340760946274,
          0.1294480413198471,
          0.0027057514525949955,
          0.011541097424924374,
          -0.08644375950098038,
          0.013377483002841473,
          -0.05391329526901245,
          -0.030261574313044548,
          0.07027947157621384,
          0.039853498339653015,
          -0.0641925185918808,
          -0.03304148092865944,
          -0.03401199355721474,
          0.015079460106790066,
          -0.05055064707994461,
          -0.016151469200849533,
          -0.10407484322786331,
          -0.0107194222509861,
          -0.06217349320650101,
          0.04577865079045296,
          -0.05064208805561066,
          -0.02856574021279812,
          0.019615890458226204,
          0.02740705944597721,
          -0.04410708695650101,
          0.02031310275197029,
          -0.0003804591251537204,
          0.019387533888220787,
          0.013086622580885887,
          -0.11819291859865189,
          -0.026842636987566948,
          0.021455707028508186,
          0.0496298149228096,
          -0.0603344552218914,
          0.01903413236141205,
          -0.02508162334561348,
          -0.025538194924592972,
          0.08407844603061676,
          0.036514539271593094,
          0.006732822395861149,
          0.03895941749215126,
          0.11780740320682526,
          -0.07012327760457993,
          0.05204160884022713,
          0.033063165843486786,
          -0.10541484504938126,
          -0.0878525897860527,
          -0.02162032574415207,
          -0.038815323263406754,
          -0.07648243755102158,
          -0.03572181612253189,
          0.007478813175112009,
          -0.055381059646606445,
          -0.05002607777714729,
          -0.035358160734176636,
          0.07891292124986649,
          -0.006536736153066158,
          -0.04963242635130882,
          0.031698185950517654,
          0.040289152413606644,
          -0.01565660908818245,
          -0.05596807971596718,
          -0.08892648667097092,
          0.030597181990742683,
          0.04592892527580261,
          -0.025902170687913895,
          -0.02162744291126728,
          0.0039038434624671936,
          -0.17917335033416748,
          0.024173477664589882,
          0.07039155066013336,
          -0.00907130166888237,
          0.05170651152729988,
          -0.0349496528506279,
          -0.028728369623422623,
          -0.008568949066102505,
          -0.011892334558069706,
          -0.025095177814364433,
          0.01268772967159748,
          -0.06908969581127167,
          0.07982324808835983,
          0.03304348886013031,
          0.053914960473775864,
          0.05738759785890579,
          -0.05679300054907799,
          -0.02016274258494377,
          -0.057465411722660065,
          0.03052704967558384,
          0.01898799277842045,
          0.008255834691226482,
          0.006198986433446407,
          -0.02676107920706272,
          -0.06691078841686249,
          0.06838799268007278,
          -0.04472335800528526,
          -0.059909284114837646,
          -0.005732505116611719,
          -0.13507644832134247,
          0.012138021178543568,
          -0.03631041944026947,
          0.04012864828109741,
          -0.05647201091051102,
          -0.034223124384880066,
          -0.024842141196131706,
          0.047762271016836166,
          -0.038924749940633774,
          -0.030866315588355064,
          -0.05234716460108757,
          -0.05709384009242058,
          -0.09563930332660675,
          -0.023141009733080864,
          -0.04463004320859909,
          0.017348816618323326,
          0.05267951637506485,
          -0.007966367527842522,
          -0.023883191868662834,
          0.08660873025655746,
          -0.055048007518053055,
          -0.0026416140608489513,
          -0.03606220707297325,
          0.059918113052845,
          -0.05198492482304573,
          0.03738345205783844,
          0.04137992858886719,
          0.02311292663216591,
          0.05414175987243652,
          0.10033123195171356,
          0.030253376811742783,
          -0.03948657959699631,
          0.008233045227825642,
          -0.0027038499247282743,
          -0.03939838334918022,
          -0.022415466606616974,
          -0.10309246182441711,
          0.03550764545798302,
          0.026538372039794922,
          0.012211603112518787,
          0.08254197239875793,
          -0.07275611907243729,
          0.012369899079203606,
          0.011941940523684025,
          0.024191517382860184,
          0.036089956760406494,
          0.03785823658108711,
          -0.03864835202693939,
          -0.08375407010316849,
          0.03949001058936119,
          0.0009824384469538927,
          -0.04230482503771782,
          0.016957690939307213,
          -0.03054661490023136,
          0.020427124574780464,
          -0.05851263925433159,
          -0.014900476671755314,
          -0.044871196150779724,
          -0.009189601056277752,
          -0.04974304512143135,
          -0.0005336003378033638,
          0.02520132064819336,
          -0.08383625000715256,
          -0.060444507747888565,
          -0.007173237856477499,
          0.03842991590499878,
          0.012951533310115337,
          0.040808700025081635,
          -0.032960038632154465,
          -0.008662604726850986,
          -0.06318580359220505,
          0.10365020483732224,
          -0.011845233850181103,
          -0.04635142534971237,
          -0.014757663011550903,
          0.031729698181152344,
          0.031399622559547424,
          -0.04026222974061966,
          0.036436598747968674,
          0.018785476684570312,
          0.09459872543811798,
          0.013108284212648869,
          -0.04002382233738899,
          0.09770573675632477,
          0.06743824481964111,
          -0.0454321913421154,
          -0.02936958521604538,
          -0.010128420777618885,
          0.0294925756752491,
          -0.009780107997357845,
          0.00900183618068695,
          -0.045214466750621796,
          -0.08575882017612457,
          -0.01973399892449379,
          0.06307129561901093,
          0.007868610322475433,
          0.03637772053480148,
          0.06026916578412056,
          0.09869484603404999,
          0.012932450510561466,
          0.017019372433423996,
          0.0011168729979544878,
          0.022254452109336853,
          0.06445446610450745,
          0.007348970044404268,
          0.04332428425550461,
          0.04948369041085243,
          -0.09732961654663086,
          0.03894316032528877,
          -0.11494399607181549,
          -0.056793030351400375,
          -0.07531507313251495,
          0.04854552820324898,
          -0.061925582587718964,
          -0.0034738166723400354,
          -0.05787631869316101,
          -0.10760359466075897,
          -0.07779103517532349,
          -0.04806369170546532,
          0.012637333944439888,
          -0.002855909988284111,
          0.006794862449169159,
          0.012548490427434444,
          -0.05135937035083771,
          0.017107658088207245,
          -0.027489909902215004,
          -0.06950923800468445,
          0.03242819756269455,
          0.012123234570026398,
          0.00708629097789526,
          -0.03549443930387497,
          -0.05737462639808655,
          -0.1196560263633728,
          -0.04282541200518608,
          0.013488384895026684,
          0.0035338595043867826,
          0.02629246562719345,
          0.012958922423422337,
          0.011313624680042267,
          -0.06693099439144135,
          -0.008555641397833824,
          0.028658395633101463,
          0.059071678668260574,
          0.07728371769189835,
          -0.040093328803777695,
          0.04546305537223816,
          -0.022381989285349846,
          0.007896248251199722,
          -0.00797878485172987,
          -0.04580087587237358,
          -0.03812437504529953,
          -0.037532415241003036,
          0.05118296295404434,
          0.011812441051006317,
          0.04174088314175606,
          -0.021547842770814896,
          0.0032100044190883636,
          -0.04771692678332329,
          0.016433872282505035,
          -0.01574924774467945,
          -0.010962395928800106,
          0.009990444406867027,
          0.017524801194667816,
          -0.05154050886631012,
          -0.013253044337034225,
          -0.021187907084822655,
          -0.017407488077878952,
          -0.005842022132128477,
          0.0758962482213974,
          0.030447082594037056,
          -0.028708528727293015,
          -0.06661023944616318,
          0.055292002856731415,
          0.011089717037975788,
          0.09801144152879715,
          -0.015001739375293255,
          -0.05888756364583969,
          -0.09247062355279922,
          -0.04988609626889229,
          -0.04154481738805771,
          -0.029262838885188103,
          -0.0512339286506176,
          0.054375216364860535,
          0.03513382002711296,
          -0.031342774629592896,
          -0.006785839330404997,
          0.04702417925000191,
          -0.07885564863681793,
          -0.08896520733833313,
          0.07617796957492828,
          -0.005397961009293795,
          -0.054579466581344604,
          0.06351416558027267,
          0.015128879807889462,
          0.04636624827980995,
          0.04346439987421036,
          0.0093617532402277,
          0.03049452230334282,
          0.00035360216861590743,
          -0.04997881129384041,
          -0.0938897430896759,
          0.03230936825275421,
          -0.010187873616814613,
          -0.03221883997321129,
          0.08102938532829285,
          -0.0008042591507546604,
          0.0010274957166984677,
          -0.0487457811832428,
          0.061872273683547974,
          -0.06266437470912933,
          0.057340603321790695,
          -0.049575820565223694,
          -0.01315471064299345,
          0.08979147672653198,
          -0.023397071287035942,
          -0.02599083073437214,
          0.05918576940894127,
          0.030131377279758453,
          -0.020836353302001953,
          0.03227318450808525,
          -0.023318497464060783,
          -0.043227508664131165,
          -0.11782418936491013,
          -0.1073308065533638,
          0.023104747757315636,
          -0.10659054666757584,
          0.07397904247045517,
          -0.07447601109743118,
          -0.03216322511434555,
          -0.04856421425938606,
          -0.01786823198199272,
          -0.09144776314496994,
          -0.001519570592790842,
          -0.04084976017475128,
          0.09296976029872894,
          -0.009345936588943005,
          0.024277497082948685,
          -0.033229000866413116,
          0.07980072498321533,
          -0.0689225122332573,
          -0.11140093207359314,
          -0.018267691135406494,
          0.01553473062813282,
          -0.02932276949286461,
          -0.015967098996043205,
          0.0033409297466278076,
          -0.10053622722625732,
          -0.030289772897958755,
          -0.006240192335098982,
          -0.011659644544124603,
          -0.011009542271494865,
          0.04395020380616188,
          0.011794166639447212,
          -0.026783142238855362,
          0.02342553436756134,
          0.06393639743328094,
          0.011951923370361328,
          -0.10585667192935944,
          0.030238425359129906,
          0.09322327375411987,
          0.0027833872009068727,
          0.03988664224743843,
          -0.096323661506176,
          -0.09936829656362534,
          -0.08464904129505157,
          0.021732447668910027,
          -0.0020386860705912113,
          8.485444413963705e-05,
          0.04278566315770149,
          -0.003866025945171714,
          -0.004647012799978256,
          0.07969298958778381,
          -0.02234703302383423,
          -0.029700512066483498,
          0.03725307434797287,
          0.0301873367279768,
          -0.01495771761983633,
          0.056606441736221313,
          0.018459193408489227,
          -0.0020853958558291197,
          0.06265944987535477,
          -0.014082110486924648,
          0.0432424321770668,
          -0.05201926454901695,
          -0.05654362589120865,
          -0.021346380934119225,
          0.018601831048727036,
          0.0616646446287632,
          0.015885312110185623,
          -0.04579900950193405,
          -0.009219875559210777,
          0.07116122543811798,
          0.03565487265586853,
          0.01790495216846466,
          0.05225639417767525,
          0.04513077810406685,
          -0.0015145360957831144,
          -0.03504165634512901,
          -0.05623067542910576,
          0.08791444450616837,
          -0.020992808043956757,
          -0.08301618695259094,
          -0.10954489558935165,
          0.06134793907403946,
          0.07422969490289688,
          -0.04202181100845337,
          0.08005902916193008,
          -0.07336906343698502,
          -0.056816551834344864,
          0.10464887320995331,
          0.004497992340475321,
          0.08290542662143707,
          0.01610127091407776,
          0.015512765385210514,
          -0.04090696945786476,
          -0.09954725950956345,
          0.09228745847940445,
          0.026792779564857483,
          0.00889160018414259,
          -0.052003055810928345,
          -0.014870073646306992,
          0.004339737817645073,
          0.006346407346427441,
          -0.05389280989766121,
          0.0495280921459198,
          -0.022981012240052223,
          -0.105709008872509,
          0.12231440842151642,
          -0.06455627828836441,
          -0.08010336756706238,
          -0.05300132930278778,
          0.005288018845021725,
          0.0757913812994957,
          0.06633732467889786,
          -0.026834378018975258,
          -0.06362538784742355,
          0.04380294308066368,
          -0.005307076033204794,
          -0.002878048224374652,
          0.006747323554009199,
          0.06383666396141052,
          0.044040247797966,
          0.037167489528656006,
          -0.021178247407078743,
          -0.02510150335729122,
          0.03593430295586586,
          -0.024299388751387596,
          -0.09762454032897949,
          0.05985649302601814,
          -0.0998983383178711,
          -0.017033830285072327,
          0.005094876512885094,
          -0.029599802568554878,
          -0.005895345471799374,
          0.07011064141988754,
          -0.0472555011510849,
          0.0771602913737297,
          -0.1663893759250641,
          -0.004703127779066563,
          -0.03664027526974678,
          -0.0766109898686409,
          0.021202342584729195,
          -0.0021294511388987303,
          -0.02171819843351841,
          -0.025872141122817993,
          0.03035631589591503,
          0.009314952418208122,
          -0.007023492828011513,
          -0.00014000492228660733,
          0.003273871261626482,
          -0.025921771302819252,
          -0.027845321223139763,
          -0.009540347382426262,
          0.007571902126073837,
          0.04643118754029274,
          -0.051527366042137146,
          0.00647831941023469,
          -0.1176660880446434,
          0.02990402653813362,
          -0.006651651114225388,
          0.004144005477428436,
          0.01103223580867052,
          -0.04339258745312691,
          0.019216978922486305,
          0.0459035225212574,
          -0.015285197645425797,
          -0.03305613622069359,
          -0.09477224946022034,
          -0.005316847003996372,
          -0.10697365552186966,
          0.026165828108787537,
          -0.011363101191818714,
          0.0055349743925035,
          -0.0941471979022026,
          -0.006941699888557196,
          0.03601336479187012,
          -0.047854747623205185,
          -0.0890960767865181,
          -0.005739226005971432,
          -0.09947764873504639,
          0.04132084921002388,
          0.034700557589530945,
          0.033775683492422104,
          -0.02032853476703167,
          -0.0250712763518095,
          0.04685506224632263,
          0.024078749120235443,
          0.0803675651550293,
          0.004724766127765179,
          -0.027036549523472786,
          -0.04856880381703377,
          -0.04769870638847351,
          0.12252078205347061,
          0.0784350335597992,
          -0.027866730466485023,
          0.057698749005794525,
          0.036070436239242554,
          -0.09704162925481796,
          -0.026990950107574463,
          -0.12156711518764496,
          0.025323286652565002,
          0.07785136252641678,
          0.10927963256835938,
          -0.06390251964330673,
          0.057542867958545685,
          0.04666776955127716,
          -0.019084302708506584,
          0.002065969631075859,
          -0.08213600516319275,
          0.05145358294248581,
          0.004254366736859083,
          0.059019483625888824,
          -0.11119008809328079,
          -0.02099042944610119,
          -0.04407559335231781,
          0.06650730222463608,
          -0.014136269688606262
        ],
        [
          -0.053627341985702515,
          -0.056988704949617386,
          0.06311652064323425,
          -0.1007944867014885,
          -0.03728451579809189,
          -0.014068941585719585,
          0.032704517245292664,
          -0.013689483515918255,
          0.016607822850346565,
          -0.11906126141548157,
          0.011820832267403603,
          -0.046548597514629364,
          0.038392193615436554,
          -0.07029449939727783,
          0.005290161818265915,
          -0.04236716404557228,
          0.00486194621771574,
          -0.006288259290158749,
          0.02986520156264305,
          -0.03454984351992607,
          0.03787114843726158,
          -0.07633940875530243,
          0.08266095072031021,
          -0.025166084989905357,
          0.005841598846018314,
          -0.04657909646630287,
          0.0913778766989708,
          -0.00204482558183372,
          -0.03443451225757599,
          0.01884639449417591,
          0.03843368962407112,
          -0.0589408241212368,
          0.04372713714838028,
          0.039616573601961136,
          0.0039826794527471066,
          -0.03452195227146149,
          0.07390031218528748,
          -0.06128552183508873,
          -0.007987016811966896,
          -0.012303316034376621,
          0.01788789965212345,
          -0.06473230570554733,
          0.008160443045198917,
          -0.09197594225406647,
          0.018637504428625107,
          -0.05978952348232269,
          0.01863076165318489,
          -0.00244242325425148,
          -0.033323876559734344,
          -0.027723191305994987,
          -0.12488196790218353,
          -0.010777722112834454,
          0.0696515217423439,
          -0.05144919455051422,
          0.13006947934627533,
          0.09284281730651855,
          0.045765072107315063,
          -0.049919575452804565,
          -0.005401243921369314,
          0.0024651915300637484,
          0.019905857741832733,
          -0.051977045834064484,
          0.08715614676475525,
          -0.09078774601221085,
          0.02318214252591133,
          0.016146628186106682,
          -0.06378737837076187,
          0.04175238683819771,
          -0.058301087468862534,
          0.05310671776533127,
          -0.052624788135290146,
          0.1367315798997879,
          -0.03387479856610298,
          -0.030465319752693176,
          -0.036811742931604385,
          0.057894084602594376,
          -0.00452885078266263,
          -0.08677405118942261,
          0.004780062939971685,
          -0.007091348525136709,
          0.07792815566062927,
          -0.03386282920837402,
          -0.047730378806591034,
          -0.08624718338251114,
          0.08048921823501587,
          0.04261824116110802,
          -0.016016146168112755,
          0.042095087468624115,
          -0.01798100210726261,
          0.019624970853328705,
          -0.05807514116168022,
          0.1110546663403511,
          0.05557231605052948,
          -0.0622950941324234,
          -0.012165176682174206,
          0.001419525477103889,
          -0.045349251478910446,
          -0.011602679267525673,
          0.0030289054848253727,
          0.03640742599964142,
          -0.00536708440631628,
          -0.03265780210494995,
          0.0637742355465889,
          0.0004515764594543725,
          0.05676517263054848,
          -0.05984713137149811,
          -0.013422674499452114,
          -0.0723118931055069,
          -0.04110522195696831,
          -0.01506264228373766,
          -0.07450203597545624,
          -0.023582331836223602,
          -0.10614589601755142,
          0.07132968306541443,
          -0.052053503692150116,
          0.0021743830293416977,
          -0.04463842883706093,
          -0.08160657435655594,
          -0.01881416141986847,
          -0.014160550199449062,
          0.009237516671419144,
          -0.08718642592430115,
          0.0182956550270319,
          0.04871554672718048,
          0.02709570713341236,
          0.0709274485707283,
          0.023320401087403297,
          -0.04660401493310928,
          0.055310849100351334,
          -0.0390300452709198,
          -0.032667532563209534,
          -0.03427059203386307,
          -0.06173429265618324,
          -0.043329980224370956,
          -0.05215846374630928,
          0.07032573968172073,
          0.06940405815839767,
          0.03984026983380318,
          -0.10576894879341125,
          0.026989920064806938,
          0.026462288573384285,
          -0.010385346598923206,
          0.0404389388859272,
          -0.03562869504094124,
          0.154656782746315,
          0.0005372921004891396,
          0.028296994045376778,
          0.02329936996102333,
          -0.030222348868846893,
          0.008055450394749641,
          -0.09393690526485443,
          0.025065941736102104,
          -0.03994360938668251,
          0.06434905529022217,
          0.06001445651054382,
          0.03441905602812767,
          0.0065177916549146175,
          -0.02468797378242016,
          0.06745121628046036,
          -0.005865159910172224,
          -0.05764608830213547,
          -0.09782987087965012,
          0.015091168694198132,
          -0.049731671810150146,
          0.036420054733753204,
          0.012123176828026772,
          0.09002267569303513,
          -0.09099229425191879,
          -0.017950715497136116,
          0.0019001548644155264,
          0.0366361066699028,
          -0.0670401081442833,
          -0.13040125370025635,
          0.07473747432231903,
          0.03714415058493614,
          -0.040157776325941086,
          -0.015295926481485367,
          0.019205087795853615,
          0.07002629339694977,
          -0.08537950366735458,
          -0.06690194457769394,
          0.055567704141139984,
          0.014322543516755104,
          0.04798698425292969,
          -0.004177400376647711,
          -0.04185643047094345,
          -0.019833175465464592,
          -0.008321859873831272,
          0.03321288526058197,
          0.1200839951634407,
          -0.04480936750769615,
          0.08072442561388016,
          -0.0067916857078671455,
          0.08276797086000443,
          0.043643880635499954,
          0.01802557148039341,
          -0.017576472833752632,
          0.07992909103631973,
          -0.0827750712633133,
          -0.062293682247400284,
          0.049059733748435974,
          0.007069539278745651,
          -0.014922783710062504,
          -0.03489106521010399,
          -0.007857825607061386,
          -0.09933024644851685,
          0.07582740485668182,
          0.06899824738502502,
          -0.0035406865645200014,
          0.02102389931678772,
          -0.02127724140882492,
          -0.0716504454612732,
          -0.003576112911105156,
          -0.07768187671899796,
          -0.0014113946817815304,
          -0.11511091142892838,
          -0.06507084518671036,
          -0.02591872029006481,
          0.03578299656510353,
          -0.0401175282895565,
          0.005459417123347521,
          -0.023148352280259132,
          0.07451166212558746,
          -0.06633714586496353,
          -0.05604047328233719,
          -0.02567717246711254,
          0.0729793980717659,
          -0.02973368391394615,
          -0.018089137971401215,
          -0.04550708085298538,
          0.04103874787688255,
          0.007411864586174488,
          -0.07485596835613251,
          0.009139535948634148,
          -0.042950376868247986,
          0.03767607733607292,
          0.004645833745598793,
          -0.08568878471851349,
          -0.033965762704610825,
          -0.009074578993022442,
          0.06578937917947769,
          0.010480070486664772,
          0.09851530939340591,
          -0.010108972899615765,
          -0.04678093641996384,
          0.09517820179462433,
          0.013266678899526596,
          -0.07932659983634949,
          -0.03244053199887276,
          0.03851976990699768,
          -0.11664769053459167,
          -0.001545446109957993,
          0.014124942012131214,
          -0.018994351848959923,
          -0.04841862991452217,
          0.02387743629515171,
          0.022782444953918457,
          -0.02870357595384121,
          -0.0010883399518206716,
          0.017693767324090004,
          0.052207544445991516,
          0.015960874035954475,
          -0.09287931025028229,
          0.05963582918047905,
          0.019134940579533577,
          -0.023537257686257362,
          0.045249227434396744,
          0.055912554264068604,
          -0.02580682747066021,
          0.0023886840790510178,
          -0.043882060796022415,
          -0.03957792744040489,
          -0.05616346374154091,
          0.002035517478361726,
          -0.005868433974683285,
          0.06194512918591499,
          -0.09352481365203857,
          -0.07346393913030624,
          -0.012381070293486118,
          -0.04914100840687752,
          -0.06190279498696327,
          -0.04511849209666252,
          0.05184154585003853,
          -0.005758398212492466,
          -0.048323895782232285,
          0.058498986065387726,
          -0.046628065407276154,
          -3.65417254215572e-05,
          -0.12935446202754974,
          0.030323611572384834,
          -0.035034313797950745,
          0.037860121577978134,
          -0.014275145716965199,
          0.05016041547060013,
          -0.02800135686993599,
          0.061950698494911194,
          -0.06238696724176407,
          -0.07655556499958038,
          -0.03205285593867302,
          -0.008959494531154633,
          -0.018675999715924263,
          -0.0005728533724322915,
          -0.0023124024737626314,
          -0.05653640255331993,
          -0.020181970670819283,
          -0.051188383251428604,
          -0.04703745245933533,
          -0.030665311962366104,
          0.10512528568506241,
          0.11173047125339508,
          0.0422833114862442,
          0.04861411824822426,
          -0.05994262173771858,
          -0.05539481341838837,
          -0.015988796949386597,
          -0.10194714367389679,
          0.008454147726297379,
          0.011371925473213196,
          -0.03294878453016281,
          -0.0008912392659112811,
          -0.04640298709273338,
          -0.03849511966109276,
          0.0013462529750540853,
          -0.048440512269735336,
          -0.01876864954829216,
          0.052684150636196136,
          0.07994406670331955,
          0.07366329431533813,
          -0.016072995960712433,
          0.016017355024814606,
          -0.08646268397569656,
          0.08998743444681168,
          -0.01004645973443985,
          -0.10022149235010147,
          0.01906794309616089,
          0.03642153739929199,
          -0.025621335953474045,
          -0.026925411075353622,
          -0.05577560514211655,
          -0.015612266957759857,
          0.050537243485450745,
          -0.11198531091213226,
          -0.009804805740714073,
          0.057289645075798035,
          -0.06705783307552338,
          0.048698969185352325,
          0.014288704842329025,
          -0.07453416287899017,
          0.04070040211081505,
          -0.08820860832929611,
          -0.01762923039495945,
          -0.062255240976810455,
          -0.03025970421731472,
          0.09286468476057053,
          0.0471300445497036,
          0.007172423880547285,
          -0.06388948112726212,
          -0.011361020617187023,
          0.08449141681194305,
          0.10387859493494034,
          -0.001967232907190919,
          -0.029821719974279404,
          0.0023655553814023733,
          -0.030704069882631302,
          -0.02199370041489601,
          0.058551106601953506,
          -0.07947340607643127,
          -0.14208880066871643,
          0.049477946013212204,
          -0.10858771204948425,
          0.020375482738018036,
          0.015233414247632027,
          0.01424354873597622,
          -0.01307471003383398,
          0.06796514242887497,
          0.000844735826831311,
          -0.05311983451247215,
          0.022633520886301994,
          -0.027192315086722374,
          0.019827956333756447,
          0.027596671134233475,
          -0.023447655141353607,
          -0.07591324299573898,
          0.04630368947982788,
          0.0029437877237796783,
          -0.04061795026063919,
          0.03720029816031456,
          0.0060435025952756405,
          -0.09579968452453613,
          -0.07134214788675308,
          0.04778537154197693,
          -0.03144655376672745,
          0.03388085961341858,
          -0.0803103819489479,
          -0.04371926188468933,
          0.024622749537229538,
          -0.027757970616221428,
          -0.05428629368543625,
          -0.03887959197163582,
          0.022735953330993652,
          -0.025772303342819214,
          -0.028939170762896538,
          -0.030608495697379112,
          0.011624309234321117,
          -0.0671711340546608,
          -0.02165871672332287,
          -0.04441427066922188,
          0.06674472987651825,
          0.12553133070468903,
          -0.010645649395883083,
          0.017097052186727524,
          0.05020527169108391,
          -0.031781308352947235,
          -0.01620473898947239,
          -0.017916806042194366,
          -0.03552917763590813,
          -0.09488461166620255,
          0.06854988634586334,
          0.010389400646090508,
          0.026353172957897186,
          0.03861332684755325,
          -0.03914378583431244,
          0.10435106605291367,
          -0.05042935162782669,
          0.043123479932546616,
          0.04189882054924965,
          -0.02765396237373352,
          0.07332921773195267,
          0.09763890504837036,
          0.030866479501128197,
          -0.03670588880777359,
          -0.05699818208813667,
          0.11536327004432678,
          -0.010760469362139702,
          0.033729031682014465,
          -0.006337827071547508,
          0.013680919073522091,
          0.034719496965408325,
          0.049702469259500504,
          0.05257005989551544,
          0.0827409103512764,
          -0.06292267143726349,
          0.0015806418377906084,
          0.02182188257575035,
          -0.1088532954454422,
          -0.01814289391040802,
          -0.0060433452017605305,
          -0.08152082562446594,
          0.0661144033074379,
          -0.026886798441410065,
          0.05106648802757263,
          0.03433874621987343,
          0.10233628749847412,
          0.08536426723003387,
          0.02179664932191372,
          0.06731347739696503,
          -0.007686859928071499,
          0.01847079023718834,
          -0.07884666323661804,
          -0.0001334751141257584,
          0.0015144192148000002,
          -0.0204839576035738,
          0.08375567942857742,
          0.0415806919336319,
          -0.1351119577884674,
          0.0591655895113945,
          0.005424728617072105,
          0.028300508856773376,
          0.033443477004766464,
          -0.004352692048996687,
          -0.061599090695381165,
          -0.013791744597256184,
          -0.05981450155377388,
          -0.0035050695296376944,
          0.0426788330078125,
          0.0701787993311882,
          0.00864252820611,
          -0.026443544775247574,
          0.09851298481225967,
          -0.021810639649629593,
          0.039655059576034546,
          -0.05941633880138397,
          0.031548842787742615,
          -0.02091449499130249,
          -0.05348207801580429,
          0.011754408478736877,
          0.007664901670068502,
          -0.06805974990129471,
          0.03275945410132408,
          -0.03634429723024368,
          -0.010024749673902988,
          0.04389094188809395,
          0.01240148302167654,
          -0.00938915740698576,
          -0.09229055792093277,
          -0.05209999904036522,
          0.003530160989612341,
          -0.0735999271273613,
          -0.004867193289101124,
          0.013579091057181358,
          -0.09564737230539322,
          -0.08014895766973495,
          0.016116667538881302,
          0.03565869480371475,
          0.01103347260504961,
          0.11160053312778473,
          -0.07564031332731247,
          -0.03897508978843689,
          -0.015719914808869362,
          0.04243772104382515,
          0.01594093255698681,
          0.059098102152347565,
          0.09316142648458481,
          -0.12637180089950562,
          0.02060607820749283,
          0.02629338577389717,
          -0.029286036267876625,
          -0.011960585601627827,
          -0.045714665204286575,
          -0.02433747425675392,
          0.06169412285089493,
          0.01644308492541313,
          0.04440607503056526,
          0.03597961366176605,
          -0.06986826658248901,
          -0.03689884766936302,
          -0.012088214047253132,
          0.07956480979919434,
          0.06869134306907654,
          0.004084361717104912,
          0.08555560559034348,
          0.010033448226749897,
          -0.01593739353120327,
          -0.0438988134264946,
          0.01013044361025095,
          -0.02606930583715439,
          -0.008518601767718792,
          -0.05512691289186478,
          0.06496964395046234,
          -0.017928412184119225,
          -0.007707810495048761,
          -0.019411860033869743,
          0.025585152208805084,
          0.003237967612221837,
          0.025678617879748344,
          -0.05249376595020294,
          -0.10188104212284088,
          -0.02987067960202694,
          -0.04288855940103531,
          0.013769327662885189,
          0.007928523235023022,
          -0.11929255723953247,
          0.02858860418200493,
          0.03933428227901459,
          -0.10823763906955719,
          -0.05221150442957878,
          -0.035080887377262115,
          -0.01295827142894268,
          -0.0018909305799752474,
          -0.05107945203781128,
          0.07419987767934799,
          0.028229163959622383,
          -0.03756523132324219,
          -0.029162343591451645,
          -0.03351559489965439,
          0.02886059135198593,
          0.0068429745733737946,
          0.04302273318171501,
          0.1440528929233551,
          -0.10253892838954926,
          -0.03533828258514404,
          -0.030164649710059166,
          0.022414468228816986,
          -0.034469060599803925,
          0.10166369378566742,
          0.09299743175506592,
          0.027912553399801254,
          0.05261175334453583,
          -0.07238273322582245,
          -0.04967929795384407,
          0.057279448956251144,
          -0.01633778028190136,
          0.04701569303870201,
          0.015661807730793953,
          0.01431356929242611,
          -0.03870651498436928,
          -0.10078258067369461,
          0.03671810403466225,
          -0.09060460329055786,
          -0.031056417152285576,
          -0.026051247492432594,
          0.023144658654928207,
          0.06648178398609161,
          -0.09422202408313751,
          -0.03354298695921898,
          -0.06313996762037277,
          -0.07150708138942719,
          0.020475851371884346,
          0.06740584969520569,
          0.046570099890232086,
          -0.0316406786441803,
          -0.017950721085071564,
          -0.034647565335035324,
          0.05090315267443657,
          0.009955625049769878,
          -0.03501129895448685,
          0.03042236715555191,
          -0.05173473060131073,
          0.039465922862291336,
          0.004684050567448139,
          -0.02427840232849121,
          -0.04737604409456253,
          -0.09341003745794296,
          -0.08749952167272568,
          -0.023448340594768524,
          0.03525765240192413,
          -0.03171105310320854,
          -0.0029738054145127535,
          0.05065777525305748,
          -0.10018103569746017,
          -0.01614859700202942,
          -0.08053743094205856,
          0.07086672633886337,
          -0.027689609676599503,
          0.009304635226726532,
          -0.03657722473144531,
          -0.10025743395090103,
          -0.02117830328643322,
          -0.02963702566921711,
          0.021458620205521584,
          -0.008341017179191113,
          -0.03919794410467148,
          0.039175376296043396,
          0.06937817484140396,
          0.040921732783317566,
          -0.050905510783195496,
          0.014256199821829796,
          -0.03521393984556198,
          -0.06552385538816452,
          0.04255804792046547,
          0.027834860607981682,
          -0.00013626755389850587,
          0.022473806515336037,
          -0.053972791880369186,
          -0.048221562057733536,
          0.04000546783208847,
          0.061903972178697586,
          -0.05975930392742157,
          0.004530159290879965,
          -0.005105629097670317,
          0.010175490751862526,
          -0.019017808139324188,
          0.011952903121709824,
          0.05177723988890648,
          -0.04349315166473389,
          0.0025809805374592543,
          0.03465300798416138,
          0.028596021234989166,
          -0.002302284352481365,
          -0.0038607711903750896,
          -0.01675514690577984,
          -0.038161441683769226,
          0.03270282596349716,
          -0.008489267900586128,
          0.03146819770336151,
          0.06141200289130211,
          0.03090418316423893,
          0.022678222507238388,
          -0.029490619897842407,
          0.04147854447364807,
          -0.029937896877527237,
          -0.04158351197838783,
          -0.09773577749729156,
          -0.12503668665885925,
          -0.0764199048280716,
          0.030941469594836235,
          0.022664187476038933,
          0.047199223190546036,
          0.03967071697115898,
          0.0008000492816790938,
          -0.099617600440979,
          0.04149750620126724,
          -0.002375944284722209,
          0.04325464367866516,
          -0.06035088747739792,
          -0.02161496691405773,
          -0.011196251027286053,
          -0.03616666793823242,
          0.02824343927204609,
          0.06165046989917755,
          0.0046669417060911655,
          -0.021370962262153625,
          -0.08551643043756485,
          0.07542282342910767,
          0.03556337207555771,
          -0.053446508944034576,
          0.025318007916212082,
          -0.01901988312602043,
          -0.04917258396744728,
          -0.012859294191002846,
          0.038687556982040405,
          -0.008659862913191319,
          -0.06688844412565231,
          -0.022661902010440826,
          -0.07556992769241333,
          0.05116575211286545,
          0.016848130151629448,
          -0.06341520696878433,
          0.02276410348713398,
          -0.050879769027233124,
          -0.06532131135463715,
          -0.04799489676952362,
          -0.04400162026286125,
          0.04873596504330635,
          -0.03997201472520828,
          -0.074739471077919,
          -0.049000341445207596,
          0.030212152749300003,
          -0.04288212209939957,
          0.08003126829862595,
          -0.00997715350240469,
          0.059781502932310104,
          -0.006399198900908232,
          0.06531189382076263,
          0.029053250327706337,
          -0.09153388440608978,
          0.03985968977212906,
          -0.026149608194828033,
          -0.07717986404895782,
          0.006420965306460857,
          0.05494750663638115,
          -0.05221986770629883,
          0.022770997136831284,
          0.022075418382883072,
          0.021890731528401375,
          0.019693516194820404,
          -0.058204036206007004,
          0.000561012071557343,
          -0.04176890850067139,
          -0.030051080510020256,
          -0.043428026139736176,
          0.08472989499568939,
          -0.045215293765068054,
          -0.0634402334690094,
          -0.1186022013425827,
          -0.08746109157800674,
          0.04668474569916725,
          -0.02580104023218155,
          -0.12113477289676666,
          0.04280231148004532,
          -0.01552931871265173,
          0.08124425262212753,
          0.02684945985674858,
          -0.07616033405065536,
          0.014745105057954788,
          0.001209645182825625,
          -0.017229218035936356,
          0.01091395691037178,
          0.04293522238731384,
          0.12769030034542084,
          0.023876899853348732,
          0.04667367786169052,
          0.023933667689561844,
          -0.01206751074641943,
          0.10815607756376266,
          0.03715433552861214,
          -0.024213433265686035,
          -0.01938791014254093,
          -0.06440214067697525,
          -0.07415888458490372,
          0.006748611107468605,
          -0.036680918186903,
          0.03836855664849281,
          0.05079427361488342,
          0.030499646440148354,
          0.056794293224811554,
          0.08662991225719452,
          0.11444395035505295,
          -0.06602470576763153,
          -0.04620042070746422,
          -0.09478139877319336,
          0.02255038544535637,
          0.006047852803021669,
          0.022929547354578972
        ],
        [
          0.011555674485862255,
          0.04469694569706917,
          0.016771061345934868,
          -0.1042490229010582,
          0.11092663556337357,
          0.022821081802248955,
          0.05599348992109299,
          0.10960663855075836,
          -0.02732844650745392,
          0.054525233805179596,
          0.03735246881842613,
          0.05306911841034889,
          0.005338577553629875,
          -0.03861376270651817,
          0.05184607580304146,
          -0.029635030776262283,
          0.01931307651102543,
          0.07195715606212616,
          -0.022910213097929955,
          -0.0034552474971860647,
          -0.037649430334568024,
          0.0664733499288559,
          0.01937272399663925,
          0.018456285819411278,
          -0.0347149595618248,
          -0.05464150384068489,
          0.018114082515239716,
          -0.04397212341427803,
          0.03510981798171997,
