{
  "input_shape": [
    28,
    28
  ],
  "preprocess": {
    "scale": 255.0
  },
  "layers": [
    {
      "type": "dense",
      "units": 128,
      "activation": "relu",
      "W": [
        [
          -0.014809803105890751,
          0.01278656255453825,
          -0.0028832536190748215,
          0.004272447898983955,
          -0.07264085859060287,
          0.050120119005441666,
          0.005396595690399408,
          -0.045995015650987625,
          -0.04265131056308746,
          -0.030317053198814392,
          0.009973547421395779,
          0.0009486560593359172,
          0.03985646739602089,
          -0.022432560101151466,
          0.07247229665517807,
          -0.0035553169436752796,
          -0.03208717331290245,
          0.04747067764401436,
          -0.04798270761966705,
          -0.009687128476798534,
          0.011651493608951569,
          0.03465815261006355,
          0.016914527863264084,
          0.013060644268989563,
          0.00023399497149512172,
          0.029355056583881378,
          0.056403111666440964,
          0.02948443964123726,
          -0.005120326764881611,
          -0.017139187082648277,
          -0.020281601697206497,
          0.024580005556344986,
          0.028786957263946533,
          0.037680674344301224,
          0.058717962354421616,
          0.17129908502101898,
          0.09934546053409576,
          0.06320489943027496,
          -0.060212716460227966,
          0.13969483971595764,
          -0.05376769229769707,
          -0.03173667564988136,
          -0.06039825454354286,
          -0.016327405348420143,
          -0.05440497770905495,
          -0.08371953666210175,
          0.03211522102355957,
          0.02746916003525257,
          0.036388788372278214,
          -0.018736766651272774,
          0.06392963975667953,
          0.1230139210820198,
          -0.036801453679800034,
          0.019129261374473572,
          0.05526717007160187,
          -0.03832566365599632,
          -0.0006829133490100503,
          0.03267074376344681,
          -0.038044627755880356,
          -0.06411895155906677,
          -0.0901237428188324,
          -0.0008870866731740534,
          -0.0020664085168391466,
          0.0627829059958458,
          0.026373038068413734,
          -0.1797240674495697,
          -0.2195306420326233,
          -0.13106174767017365,
          -0.29394418001174927,
          -0.44756579399108887,
          -0.30531203746795654,
          -0.2791219651699066,
          -0.16071978211402893,
          0.026180244982242584,
          -0.10156022012233734,
          -0.10047916322946548,
          -0.0953928604722023,
          -0.11186382174491882,
          0.047119297087192535,
          0.04517975449562073,
          -0.03958020731806755,
          -0.08391576260328293,
          -0.005963379517197609,
          -0.05167629197239876,
          0.07835966348648071,
          -0.0004679941339418292,
          -0.013209573924541473,
          -0.017604608088731766,
          0.048773981630802155,
          0.07291697710752487,
          0.10158959031105042,
          0.04814406856894493,
          0.24358931183815002,
          0.0010729116620495915,
          0.0492820106446743,
          -0.11575235426425934,
          0.07598020881414413,
          0.24419568479061127,
          -0.17568248510360718,
          -0.33283209800720215,
          -0.5139226317405701,
          -0.27852991223335266,
          -0.15159809589385986,
          -0.2070402354001999,
          -0.20340736210346222,
          -0.13143517076969147,
          -0.18148979544639587,
          -0.2770724594593048,
          -0.13086985051631927,
          -0.013388221152126789,
          0.10307424515485764,
          -0.030497832223773003,
          -0.04101858288049698,
          -0.09756780415773392,
          -0.05727643519639969,
          0.23914983868598938,
          0.1850758194923401,
          -0.19116275012493134,
          0.06428936123847961,
          0.18973354995250702,
          -0.12697307765483856,
          0.011588468216359615,
          4.825212272407953e-06,
          0.05014696344733238,
          0.07005538046360016,
          -0.11479050666093826,
          0.07358719408512115,
          0.022545218467712402,
          -0.012498985975980759,
          -0.10165335983037949,
          -0.043217044323682785,
          -0.2688712179660797,
          -0.2593372166156769,
          -0.23303161561489105,
          -0.03944596275687218,
          -0.059799131006002426,
          -0.08247561007738113,
          0.10986646264791489,
          0.09307354688644409,
          0.07917627692222595,
          -0.06344010680913925,
          -0.025980470702052116,
          0.0925067663192749,
          -0.018963810056447983,
          -0.3668908178806305,
          -0.5394589304924011,
          -0.22631528973579407,
          -0.03762045502662659,
          0.11633946001529694,
          0.10901202261447906,
          0.102519191801548,
          0.4467616677284241,
          0.16044645011425018,
          0.2574886679649353,
          0.1708836853504181,
          0.2912045121192932,
          0.15556856989860535,
          0.21965903043746948,
          0.10260263830423355,
          -0.16406415402889252,
          -0.22239482402801514,
          -0.13074208796024323,
          0.02720746397972107,
          -0.10205017030239105,
          -0.1711450070142746,
          0.09822230786085129,
          0.13295622169971466,
          -0.07501700520515442,
          0.020675934851169586,
          0.05768279358744621,
          0.18178275227546692,
          -0.25223055481910706,
          -0.26262950897216797,
          -0.37507325410842896,
          -0.2148911952972412,
          -0.03376677632331848,
          0.22847039997577667,
          0.21323931217193604,
          0.3502681851387024,
          0.29869410395622253,
          0.2679571509361267,
          0.4133913815021515,
          0.5501542687416077,
          0.6064950823783875,
          0.30181384086608887,
          0.11240030825138092,
          0.3674704134464264,
          -0.08688957989215851,
          -0.1991182118654251,
          -0.2908426523208618,
          -0.33803221583366394,
          -0.21071667969226837,
          -0.22739528119564056,
          0.014482565224170685,
          0.06475839018821716,
          0.16001814603805542,
          0.05342265963554382,
          -0.1106160581111908,
          0.045176055282354355,
          -0.2689254581928253,
          -0.4648357033729553,
          -0.23944762349128723,
          -0.09530942887067795,
          -0.08391708135604858,
          0.06396734714508057,
          0.11687567830085754,
          0.15308986604213715,
          0.12428808957338333,
          0.1598377674818039,
          0.3297538161277771,
          0.09290335327386856,
          0.13001076877117157,
          0.016985749825835228,
          -0.06752226501703262,
          0.05384316295385361,
          0.0341787189245224,
          -0.2258531004190445,
          -0.19888697564601898,
          -0.4252341091632843,
          -0.5164991021156311,
          -0.45356714725494385,
          -0.13128046691417694,
          0.1400568038225174,
          0.11070726066827774,
          0.02003159373998642,
          -0.1824551671743393,
          -0.3487388789653778,
          -0.5941202044487,
          -0.4005300998687744,
          -0.18974553048610687,
          0.11154527962207794,
          -0.13620327413082123,
          0.25795072317123413,
          0.20817124843597412,
          0.17972905933856964,
          0.16055625677108765,
          -0.06777302920818329,
          0.031594451516866684,
          0.09039413928985596,
          -0.13709412515163422,
          -0.057089775800704956,
          -0.0019010209944099188,
          0.144239142537117,
          0.10494637489318848,
          -0.12753048539161682,
          -0.11171405017375946,
          -0.2728971540927887,
          -0.38903510570526123,
          -0.37657737731933594,
          0.015898244455456734,
          0.12763088941574097,
          -0.03516320884227753,
          -0.03063594549894333,
          -0.2649187743663788,
          -0.33015939593315125,
          -0.5447415709495544,
          -0.09452349692583084,
          -0.07808047533035278,
          0.15592949092388153,
          0.14768460392951965,
          0.3205568194389343,
          0.23557595908641815,
          0.0872175395488739,
          -0.09153734147548676,
          -0.07666829228401184,
          -0.10236196219921112,
          -0.23705758154392242,
          -0.1630665510892868,
          -0.04169280454516411,
          0.1640229970216751,
          0.17792409658432007,
          -0.04004927724599838,
          -0.13679437339305878,
          -0.03613618016242981,
          -0.25689372420310974,
          -0.2886621952056885,
          -0.0690675675868988,
          0.27690133452415466,
          0.20589524507522583,
          0.19686028361320496,
          -0.14656642079353333,
          -0.16354601085186005,
          -0.11073562502861023,
          -0.4153017997741699,
          -0.32929521799087524,
          0.07929087430238724,
          0.39057502150535583,
          0.2178955078125,
          0.23311235010623932,
          0.07049240916967392,
          -0.1508924514055252,
          -0.1537165492773056,
          -0.10181363672018051,
          -0.16809196770191193,
          -0.10724435746669769,
          -0.14710476994514465,
          0.2293470948934555,
          0.12883861362934113,
          0.21272626519203186,
          -0.10978403687477112,
          -0.011171299032866955,
          0.17176415026187897,
          0.0428379587829113,
          -0.06570528447628021,
          -0.02651725523173809,
          0.17793820798397064,
          0.14124809205532074,
          -0.13291065394878387,
          -0.055721066892147064,
          -0.2120906114578247,
          -0.21740436553955078,
          -0.4263302683830261,
          -0.23729366064071655,
          0.006990770809352398,
          0.12346266210079193,
          0.17820696532726288,
          0.13349997997283936,
          0.049451377242803574,
          -0.12089113146066666,
          -0.012179845944046974,
          0.024270527064800262,
          0.1892780363559723,
          -0.23567825555801392,
          0.00815325602889061,
          0.1581098735332489,
          0.2754656672477722,
          0.08858821541070938,
          -0.05312943458557129,
          -0.10906355082988739,
          0.20648671686649323,
          0.10571513324975967,
          -0.044048309326171875,
          -0.02380400151014328,
          -0.029262151569128036,
          0.07292494922876358,
          -0.4218600392341614,
          -0.010594667866826057,
          -0.07482637465000153,
          -0.08552640676498413,
          -0.3411746919155121,
          -0.07398063689470291,
          -0.09517379105091095,
          0.08508430421352386,
          -0.03803591802716255,
          0.01263403706252575,
          -0.0005171471275389194,
          -0.03022618032991886,
          0.13626588881015778,
          -0.1346076875925064,
          -0.15396080911159515,
          -0.1629030555486679,
          0.016327140852808952,
          0.0763305276632309,
          0.07277488708496094,
          -0.00378312636166811,
          -0.052819762378931046,
          0.08295521885156631,
          0.10593429207801819,
          -0.03174060210585594,
          0.1596813201904297,
          -0.07937700301408768,
          -0.2120903581380844,
          -0.06596048921346664,
          -0.3303670585155487,
          -0.03535423427820206,
          -0.07217042148113251,
          -0.08811797201633453,
          -0.12426836788654327,
          -0.0925295427441597,
          0.033445775508880615,
          0.04159623757004738,
          0.01623256504535675,
          -0.10095608979463577,
          -0.03269609063863754,
          -0.018022233620285988,
          0.004086354747414589,
          -0.1272590160369873,
          -0.12037061899900436,
          -0.007014651782810688,
          -0.019785823300480843,
          -0.09661181271076202,
          -0.22309473156929016,
          -0.05401396378874779,
          0.020824339240789413,
          0.043794214725494385,
          0.1364908367395401,
          0.11826767772436142,
          0.11965461820363998,
          0.07345873862504959,
          -0.049913641065359116,
          -0.07230723649263382,
          -0.03183717653155327,
          -0.03969275951385498,
          -0.032180313020944595,
          -0.37368589639663696,
          0.0348140113055706,
          0.15059536695480347,
          -0.16953761875629425,
          -0.08423791080713272,
          0.05976299196481705,
          -0.04198327288031578,
          -0.11579865217208862,
          -0.19548754394054413,
          -0.0372932143509388,
          -0.16490872204303741,
          0.08845774084329605,
          0.018576884642243385,
          -0.0691847950220108,
          -0.2881847620010376,
          -0.21332095563411713,
          -0.044482260942459106,
          -0.11095741391181946,
          0.03257891535758972,
          0.14266104996204376,
          0.2906874716281891,
          0.164333313703537,
          -0.04594903066754341,
          -3.528966408339329e-05,
          0.060647930949926376,
          0.09443725645542145,
          -0.011018374934792519,
          0.07631591707468033,
          -0.33819660544395447,
          -0.10234466940164566,
          0.2885811924934387,
          -0.07829891890287399,
          -0.06152596324682236,
          0.028855228796601295,
          -0.13766564428806305,
          0.03535526245832443,
          -0.038721054792404175,
          -0.1291048526763916,
          -0.020241014659404755,
          0.054545704275369644,
          0.04304121062159538,
          0.05780049040913582,
          -0.06837967783212662,
          -0.028019757941365242,
          0.009584284387528896,
          0.0013449544785544276,
          0.051086634397506714,
          0.3130643367767334,
          0.3270868957042694,
          0.3640771806240082,
          0.3201451897621155,
          0.09833274036645889,
          -0.2202165722846985,
          -0.04196717590093613,
          -0.08634922653436661,
          0.08460047841072083,
          0.03628050163388252,
          0.05767853558063507,
          0.07002021372318268,
          -0.07109815627336502,
          -0.2652883529663086,
          -0.2881796658039093,
          -0.31669381260871887,
          -0.14059394598007202,
          -0.021525166928768158,
          -0.052103541791439056,
          0.12545520067214966,
          0.20816335082054138,
          0.0586605966091156,
          -0.027898889034986496,
          -0.11312554776668549,
          -0.08472701907157898,
          -0.05780913680791855,
          0.11351918429136276,
          0.18904843926429749,
          0.10664737969636917,
          0.35950005054473877,
          0.24720273911952972,
          0.06270956993103027,
          0.09488701075315475,
          0.12096281349658966,
          0.007660554256290197,
          -0.09919389337301254,
          0.026925833895802498,
          -0.00621399562805891,
          0.3242064416408539,
          -0.044533997774124146,
          -0.11049102991819382,
          -0.13070330023765564,
          -0.16967731714248657,
          -0.32034170627593994,
          -0.13207386434078217,
          0.08495286852121353,
          0.019202163442969322,
          0.06815415620803833,
          -0.0398850217461586,
          -0.21290814876556396,
          -0.1042025238275528,
          -0.17585468292236328,
          -0.15152598917484283,
          -0.2274838238954544,
          -0.0569072850048542,
          0.021283848211169243,
          0.08396078646183014,
          0.1293356865644455,
          0.00996004045009613,
          -0.025269752368330956,
          -0.06652344018220901,
          -0.42028358578681946,
          0.16112515330314636,
          -0.1042192131280899,
          -0.27473825216293335,
          -0.21622627973556519,
          0.109125517308712,
          0.012347963638603687,
          -0.054868392646312714,
          0.11335797607898712,
          -0.18204441666603088,
          -0.17082579433918,
          -0.15971365571022034,
          0.04712732136249542,
          0.11337397992610931,
          -0.09942692518234253,
          -0.3036206066608429,
          -0.4040845036506653,
          -0.1297566294670105,
          -0.05786467716097832,
          -0.11323098093271255,
          -0.10166709870100021,
          0.16964091360569,
          0.305840402841568,
          0.06115737557411194,
          0.09733133018016815,
          -0.0263317059725523,
          -0.01596108078956604,
          -0.06844054907560349,
          -0.22319278120994568,
          -0.06785933673381805,
          -0.15119673311710358,
          -0.11272323131561279,
          0.17031820118427277,
          0.1184353157877922,
          0.03265555202960968,
          -0.13510754704475403,
          -0.20508673787117004,
          -0.12071066349744797,
          0.0044898223131895065,
          -0.08688054233789444,
          -0.0659119114279747,
          -0.04745396599173546,
          -0.042811740189790726,
          -0.34483036398887634,
          -0.41984260082244873,
          -0.06183386966586113,
          -0.026169562712311745,
          0.09510286897420883,
          0.21590790152549744,
          0.16870175302028656,
          0.42471936345100403,
          0.19986531138420105,
          0.14152640104293823,
          -0.23346376419067383,
          -0.21663537621498108,
          -0.28031957149505615,
          0.04765542596578598,
          -0.058313507586717606,
          -0.034832507371902466,
          -0.039093807339668274,
          0.22624289989471436,
          0.18870581686496735,
          0.2232528179883957,
          0.14016897976398468,
          -0.09595498442649841,
          -0.033712007105350494,
          0.0694393664598465,
          -0.06385838985443115,
          -0.10717654973268509,
          -0.22110648453235626,
          -0.1877288818359375,
          -0.19584313035011292,
          -0.21502314507961273,
          -0.004830759949982166,
          0.10578922182321548,
          0.0383233018219471,
          0.07037196308374405,
          0.03629438206553459,
          0.1435548961162567,
          -0.1844126284122467,
          -0.15463440120220184,
          -0.21665295958518982,
          -0.16918303072452545,
          0.0441434346139431,
          0.052738115191459656,
          -0.03150099143385887,
          -0.06278540194034576,
          -0.060107987374067307,
          -0.26933303475379944,
          -0.11677532643079758,
          0.20649094879627228,
          -0.04883871600031853,
          0.05624448135495186,
          0.05219859257340431,
          0.06921246647834778,
          -0.11251770704984665,
          -0.05058072879910469,
          -0.10438954085111618,
          -0.29563048481941223,
          -0.06945661455392838,
          0.007615784183144569,
          0.034594062715768814,
          0.09542356431484222,
          0.060856860131025314,
          -0.050875432789325714,
          -0.03572031855583191,
          0.06548105925321579,
          -0.28747352957725525,
          -0.1252588927745819,
          -0.17677290737628937,
          0.08440432697534561,
          0.17000487446784973,
          0.33982574939727783,
          0.09638306498527527,
          0.04480075091123581,
          -0.022311318665742874,
          -0.19220305979251862,
          0.08751783519983292,
          0.07759598642587662,
          -0.08657583594322205,
          -0.21282079815864563,
          -0.1203811913728714,
          -0.008454203605651855,
          -0.06521613895893097,
          -0.0025839211884886026,
          0.030915837734937668,
          0.07314368337392807,
          0.04558998718857765,
          0.3806217908859253,
          0.2992376685142517,
          0.11419122666120529,
          0.006780980154871941,
          -0.041873712092638016,
          -0.11213914304971695,
          -0.04732894152402878,
          -0.35711079835891724,
          -0.034701380878686905,
          -0.11227954924106598,
          0.020624300464987755,
          -0.03130858391523361,
          0.12469571083784103,
          0.019832706078886986,
          0.017337923869490623,
          0.003598062554374337,
          0.07777000963687897,
          0.3481222093105316,
          0.12597912549972534,
          0.2563968896865845,
          -0.17156051099300385,
          -0.08618999272584915,
          0.22394415736198425,
          0.1383606642484665,
          0.2533738315105438,
          0.33922868967056274,
          0.26414600014686584,
          0.2812733054161072,
          0.30777618288993835,
          0.15836851298809052,
          0.17641626298427582,
          0.06430826336145401,
          0.06266413629055023,
          -0.03737134486436844,
          0.19817809760570526,
          0.01239870022982359,
          0.08470476418733597,
          0.08216045051813126,
          0.26907220482826233,
          0.2714369595050812,
          0.12784242630004883,
          0.010499122552573681,
          0.06026090309023857,
          -0.05758912116289139,
          -0.2601099908351898,
          0.12229228764772415,
          0.024194929748773575,
          0.26718568801879883,
          -0.03724817931652069,
          0.18904271721839905,
          0.11032003164291382,
          0.22374847531318665,
          0.288084477186203,
          0.28102150559425354,
          0.3712283670902252,
          0.28128841519355774,
          0.25493258237838745,
          0.2112138420343399,
          -0.03849659487605095,
          -0.18448413908481598,
          0.1156822070479393,
          0.15586788952350616,
          0.03801818937063217,
          -0.04913131892681122,
          0.06982772797346115,
          0.21477745473384857,
          0.42158424854278564,
          -0.008335994556546211,
          -0.2087562382221222,
          -0.07481830567121506,
          -0.014589725993573666,
          0.10163816064596176,
          0.28114694356918335,
          -0.029744239524006844,
          -0.16735327243804932,
          0.22180931270122528,
          0.11627361178398132,
          0.21983854472637177,
          -0.07807377725839615,
          0.09304812550544739,
          0.12855979800224304,
          -0.034438230097293854,
          -0.05300719290971756,
          0.012844545766711235,
          -0.15600527822971344,
          -0.007210102863609791,
          -0.015943553298711777,
          0.17058750987052917,
          0.001712251571007073,
          0.11378911137580872,
          0.25926730036735535,
          0.18543100357055664,
          0.0846148356795311,
          -0.01157434657216072,
          0.20642195641994476,
          0.10499651730060577,
          -0.10307945311069489,
          -0.11891390383243561,
          -0.11599176377058029,
          -0.08461577445268631,
          -0.05974903330206871,
          -0.048767510801553726,
          -0.050659626722335815,
          0.36801499128341675,
          0.21493755280971527,
          -0.0727534294128418,
          -0.15331263840198517,
          -0.0058929044753313065,
          -0.12735076248645782,
          -0.08870191127061844,
          -0.16729792952537537,
          -0.19311577081680298,
          -0.12778563797473907,
          -0.049974001944065094,
          0.14396849274635315,
          0.02595880813896656,
          -0.005775120109319687,
          -0.1042974442243576,
          0.22234715521335602,
          -0.15405578911304474,
          -0.07567678391933441,
          0.08185361325740814,
          0.05320149287581444,
          -0.05902429670095444,
          0.03413381800055504,
          -0.02207622118294239,
          0.007803917396813631,
          -0.006311735138297081,
          0.0355176143348217,
          -0.08108072727918625,
          0.02764521911740303,
          -0.01036799419671297,
          0.009528346359729767,
          -0.03418746963143349,
          -0.061622504144907,
          -0.27121248841285706,
          -0.18912087380886078,
          -0.22364413738250732,
          -0.16593490540981293,
          -0.22035309672355652,
          -0.3411692678928375,
          -0.32240957021713257,
          0.028723930940032005,
          -0.11085588485002518,
          0.10568463057279587,
          0.09320727735757828,
          -0.006020694505423307,
          -0.10585129261016846,
          -0.18833057582378387,
          -0.21709032356739044,
          -0.04822877421975136,
          0.013773648999631405,
          0.022027146071195602,
          -0.002317554783076048
        ],
        [
          0.0949055403470993,
          -0.11788272112607956,
          0.06314025074243546,
          0.06300193071365356,
          0.03811141103506088,
          0.04946259409189224,
          -0.02877788245677948,
          -0.009994884952902794,
          -0.05583915486931801,
          0.030765686184167862,
          -0.07798191905021667,
          -0.09821365773677826,
          -0.020878732204437256,
          -0.04311584308743477,
          -0.07846999913454056,
          0.04741581156849861,
          0.002956358017399907,
          0.0004934786702506244,
          -0.08656095713376999,
          0.015270217321813107,
          -0.04073571786284447,
          -0.06636162847280502,
          0.056864701211452484,
          -0.04192258045077324,
          0.015523158945143223,
          0.004859477747231722,
          0.09283191710710526,
          -0.008984611369669437,
          0.07962515205144882,
          0.013699658215045929,
          -0.056488849222660065,
          0.027128731831908226,
          -0.09426701068878174,
          0.05882573500275612,
          0.0690508633852005,
          0.14255332946777344,
          0.12836594879627228,
          0.053755052387714386,
          0.1926555335521698,
          0.2992672622203827,
          0.22931109368801117,
          0.14053964614868164,
          0.009908067993819714,
          0.08277817070484161,
          0.28758299350738525,
          0.27653107047080994,
          0.480236291885376,
          0.14788119494915009,
          0.18278177082538605,
          0.08951867371797562,
          0.051187265664339066,
          0.16087041795253754,
          -0.00805360171943903,
          0.1175728589296341,
          -0.02375616878271103,
          0.07151693850755692,
          -0.003245198167860508,
          0.010733055882155895,
          0.2608029544353485,
          0.1413029134273529,
          0.12987811863422394,
          0.08340776711702347,
          0.008218405768275261,
          0.1485176533460617,
          0.17111381888389587,
          0.17015568912029266,
          0.06357937306165695,
          -0.0381317064166069,
          0.025353016331791878,
          -0.04823293909430504,
          0.06566983461380005,
          0.07041312009096146,
          0.12802325189113617,
          0.23855161666870117,
          0.4067889153957367,
          -0.04490251466631889,
          0.04944153130054474,
          0.24559371173381805,
          0.36917534470558167,
          0.36064478754997253,
          0.30043619871139526,
          0.07515573501586914,
          -0.024125585332512856,
          -0.016261523589491844,
          -0.09352125972509384,
          -0.02881552092730999,
          0.039787326008081436,
          0.18618904054164886,
          0.02864716202020645,
          -0.017524616792798042,
          0.17752130329608917,
          0.11185695230960846,
          0.18530894815921783,
          0.19982020556926727,
          0.25952959060668945,
          0.1781408190727234,
          -0.045803364366292953,
          0.1619473546743393,
          -0.1382254958152771,
          -0.2510260343551636,
          0.1343928724527359,
          -0.02196374349296093,
          -0.27155089378356934,
          -0.3584917187690735,
          -0.3245566487312317,
          -0.056084197014570236,
          0.0393778420984745,
          0.2601296603679657,
          0.20847946405410767,
          -0.07025384902954102,
          0.05202865228056908,
          -0.013172205537557602,
          0.03390515595674515,
          0.021426482126116753,
          0.08394977450370789,
          -0.1434592306613922,
          -0.11893661320209503,
          -0.049370504915714264,
          0.1988871693611145,
          -0.001271450542844832,
          -0.04976896569132805,
          0.02098933607339859,
          0.05641932040452957,
          -0.028642015531659126,
          0.14235946536064148,
          0.11439689248800278,
          -0.032627079635858536,
          -0.14166277647018433,
          -0.17186643183231354,
          -0.04816848039627075,
          -0.055349498987197876,
          -0.2194608747959137,
          -0.20950987935066223,
          -0.1795903891324997,
          -0.1928607076406479,
          0.016706638038158417,
          0.06393536180257797,
          0.07629286497831345,
          0.17918024957180023,
          0.16120100021362305,
          0.08783982694149017,
          -0.05863284319639206,
          0.0012034967076033354,
          -0.019031135365366936,
          -0.3176015019416809,
          -0.2870384454727173,
          0.010521400719881058,
          0.06189537048339844,
          0.22959844768047333,
          0.1038125678896904,
          0.18550290167331696,
          0.3281337320804596,
          0.2472042739391327,
          0.16825535893440247,
          0.0016423097113147378,
          0.03701714798808098,
          -0.17621953785419464,
          0.05197158083319664,
          0.055109310895204544,
          -0.15621373057365417,
          -0.05982501432299614,
          -0.09056121110916138,
          -0.2353423684835434,
          -0.17347416281700134,
          0.043008334934711456,
          0.31511786580085754,
          0.17528894543647766,
          0.19167670607566833,
          0.04444851726293564,
          -0.13342620432376862,
          0.05262911319732666,
          -0.18104039132595062,
          -0.1141616553068161,
          -0.2395552545785904,
          -0.28711846470832825,
          -0.011481297202408314,
          0.12296165525913239,
          0.22580046951770782,
          0.2048201709985733,
          0.22377599775791168,
          0.12032458186149597,
          0.05603412166237831,
          -0.16440078616142273,
          -0.028801634907722473,
          0.06895371526479721,
          0.13196507096290588,
          0.09500090777873993,
          0.018923085182905197,
          -0.0173050444573164,
          -0.039465077221393585,
          -0.18223388493061066,
          -0.11333310604095459,
          -0.1961536556482315,
          0.09491702914237976,
          0.17760412395000458,
          0.31991130113601685,
          0.11045091599225998,
          -0.15818917751312256,
          0.1254040151834488,
          -0.15588928759098053,
          0.026714298874139786,
          -0.0642704963684082,
          -0.12371435016393661,
          -0.28592628240585327,
          -0.04511353000998497,
          0.11454053223133087,
          -0.06826821714639664,
          -0.08179622143507004,
          -0.06647852063179016,
          -0.020028814673423767,
          -0.21607625484466553,
          0.14104332029819489,
          0.22760625183582306,
          0.33199015259742737,
          0.24853895604610443,
          -0.05368295684456825,
          -0.006971880793571472,
          0.07328726351261139,
          0.023142829537391663,
          -0.1672937273979187,
          0.01971421204507351,
          0.23002542555332184,
          0.08636210858821869,
          0.14205491542816162,
          -0.3724610507488251,
          -0.024320147931575775,
          -0.04151291027665138,
          -0.04679979383945465,
          0.03242272511124611,
          -0.1198037639260292,
          0.08180301636457443,
          -0.08805962651968002,
          0.04814895987510681,
          0.07486183941364288,
          0.08586041629314423,
          -0.09747178107500076,
          -0.10758884996175766,
          -0.12632553279399872,
          -0.02533038891851902,
          0.07809196412563324,
          0.06085658073425293,
          0.052800197154283524,
          0.07423010468482971,
          -0.015721851959824562,
          -0.02326882816851139,
          0.04259169101715088,
          -0.3562351167201996,
          -0.03900691866874695,
          0.2927824556827545,
          0.09441405534744263,
          -0.17328836023807526,
          0.04694916680455208,
          -0.13478827476501465,
          -0.0003721228858921677,
          -0.18208029866218567,
          0.0037388834170997143,
          0.004804220050573349,
          -0.026368893682956696,
          0.1207410991191864,
          -0.09198109060525894,
          0.003428497351706028,
          0.2638266980648041,
          0.11238352209329605,
          -0.1785615235567093,
          -0.35743361711502075,
          -0.15039540827274323,
          -0.00776845496147871,
          0.20132936537265778,
          -0.293721079826355,
          -0.03768738731741905,
          0.08848855644464493,
          0.10042081028223038,
          0.17084921896457672,
          -0.06136428564786911,
          -0.3086928725242615,
          -0.2414579838514328,
          0.044208645820617676,
          0.07759210467338562,
          -0.17587164044380188,
          -0.2836294174194336,
          -0.09329365193843842,
          0.03680139034986496,
          -0.12706026434898376,
          0.07862816005945206,
          0.1220763698220253,
          0.18151389062404633,
          0.17082127928733826,
          0.14041876792907715,
          0.12057856470346451,
          0.3512665927410126,
          0.24564623832702637,
          -0.1311664879322052,
          -0.37523579597473145,
          -0.2855921983718872,
          0.19614996016025543,
          -0.0073747411370277405,
          -0.19567085802555084,
          -0.052732400596141815,
          -0.030056990683078766,
          0.03991762548685074,
          0.10195998102426529,
          -0.024135984480381012,
          -0.14024260640144348,
          -0.08740875124931335,
          0.3050549328327179,
          0.021314935758709908,
          -0.025587502866983414,
          -0.1418757140636444,
          -0.02155717834830284,
          -0.4189072847366333,
          0.01795462891459465,
          0.21801957488059998,
          -0.05402110889554024,
          0.08780477195978165,
          0.05763490870594978,
          0.18435022234916687,
          0.2836874723434448,
          0.31350383162498474,
          0.3211279511451721,
          -0.011147317476570606,
          -0.3248106837272644,
          -0.06281046569347382,
          0.12082409113645554,
          -0.05387495085597038,
          -0.12721551954746246,
          -0.04880930855870247,
          -0.13277849555015564,
          0.20082920789718628,
          0.08822795003652573,
          0.11663710325956345,
          0.13404396176338196,
          0.18157607316970825,
          0.26840656995773315,
          0.30091556906700134,
          0.3555590808391571,
          -0.2735724151134491,
          0.005166212562471628,
          0.02860863134264946,
          0.15098226070404053,
          0.22956258058547974,
          0.20585215091705322,
          -0.010532570071518421,
          0.036789245903491974,
          0.09356864541769028,
          0.2442266047000885,
          0.26402735710144043,
          0.101132832467556,
          0.05572289973497391,
          -0.3775164783000946,
          -0.2159179151058197,
          -0.035448554903268814,
          -0.040598008781671524,
          -0.031401101499795914,
          0.06090391054749489,
          -0.18328502774238586,
          -0.030122211202979088,
          0.07063742727041245,
          0.24914661049842834,
          0.18718011677265167,
          0.32549190521240234,
          0.3863147795200348,
          0.03032616339623928,
          0.059339143335819244,
          -0.31458982825279236,
          -0.06483332812786102,
          0.05338096246123314,
          -0.05668376013636589,
          0.012668757699429989,
          0.20993395149707794,
          0.2947819232940674,
          -0.06599936634302139,
          -0.008285850286483765,
          0.05383644998073578,
          0.12496530264616013,
          0.32310110330581665,
          0.011711190454661846,
          -0.1404947191476822,
          -0.010499619878828526,
          -0.13214951753616333,
          0.011561914347112179,
          0.10896752029657364,
          -0.11165562272071838,
          -0.048725675791502,
          0.0888805016875267,
          0.09767978638410568,
          0.08039432764053345,
          0.35730233788490295,
          0.36627066135406494,
          0.13795584440231323,
          0.0016281018033623695,
          0.36767223477363586,
          0.21452654898166656,
          -0.060311559587717056,
          -0.09665217250585556,
          -0.4180704653263092,
          -0.03707904741168022,
          0.15332815051078796,
          0.17033028602600098,
          0.08497495949268341,
          0.16589222848415375,
          0.007365049794316292,
          0.019690928980708122,
          0.11713281273841858,
          0.028444964438676834,
          0.031837284564971924,
          0.040473658591508865,
          -0.15856045484542847,
          0.0932750254869461,
          0.06428229808807373,
          0.027875222265720367,
          0.3361048698425293,
          0.1584969311952591,
          0.0656871423125267,
          0.16641774773597717,
          0.24254973232746124,
          0.05733505263924599,
          0.011859945021569729,
          0.26491081714630127,
          0.29252615571022034,
          0.01309971883893013,
          -0.0691603347659111,
          0.06414338201284409,
          -0.38559579849243164,
          0.16362683475017548,
          -0.03965752199292183,
          0.015382390469312668,
          0.12172017991542816,
          0.06129898130893707,
          0.10211245715618134,
          0.03516769781708717,
          0.08893932402133942,
          0.224483922123909,
          0.09221336990594864,
          0.01932631991803646,
          -0.05806545168161392,
          0.04632392153143883,
          0.04988556355237961,
          0.0910029485821724,
          0.18434776365756989,
          0.1542169600725174,
          0.01273307390511036,
          0.19369091093540192,
          0.04172511026263237,
          -0.1863769292831421,
          -0.1745673567056656,
          0.27582406997680664,
          0.01226034015417099,
          0.23041954636573792,
          -0.0060121770948171616,
          -0.07479020208120346,
          -0.2521342635154724,
          0.058330174535512924,
          -0.13287781178951263,
          -0.0689309686422348,
          0.09447608888149261,
          -0.06846737861633301,
          0.16803283989429474,
          0.11123331636190414,
          0.31982922554016113,
          0.2959430515766144,
          0.05539916083216667,
          0.032923683524131775,
          -0.05468607693910599,
          0.10081230849027634,
          0.1558920443058014,
          0.2484535276889801,
          0.027119742706418037,
          -0.05468429625034332,
          0.07606561481952667,
          -0.20591357350349426,
          -0.10535212606191635,
          -0.09559328854084015,
          -0.36300960183143616,
          0.49366244673728943,
          0.34472715854644775,
          0.09178759157657623,
          0.04756510630249977,
          0.03956685960292816,
          0.04083734005689621,
          -0.050216469913721085,
          -0.06145686283707619,
          -0.046250879764556885,
          0.18031001091003418,
          0.030191464349627495,
          0.205586776137352,
          0.13444167375564575,
          0.07639765739440918,
          0.07003232091665268,
          0.033355485647916794,
          0.0056964317336678505,
          -0.0014091490302234888,
          0.15138545632362366,
          0.0998535007238388,
          0.19029362499713898,
          -0.060517407953739166,
          -0.15044936537742615,
          -0.13456562161445618,
          -0.3235485851764679,
          -0.08849595487117767,
          -0.2665315568447113,
          -0.2205258458852768,
          0.29058170318603516,
          0.26995375752449036,
          0.23129093647003174,
          -0.07404403388500214,
          -0.22680728137493134,
          -0.06314769387245178,
          -0.043212857097387314,
          0.2103106677532196,
          0.20451447367668152,
          0.1942480206489563,
          0.19811831414699554,
          0.18695802986621857,
          -0.030147328972816467,
          -0.08348289877176285,
          -0.17195942997932434,
          0.09614046663045883,
          0.1282714456319809,
          0.16842903196811676,
          0.033244043588638306,
          -0.03352642431855202,
          -0.0152900954708457,
          -0.13474445044994354,
          -0.2159879207611084,
          -0.15662166476249695,
          -0.3286665081977844,
          -0.23883795738220215,
          -0.07965986430644989,
          -0.015255340375006199,
          -0.06869383156299591,
          0.25373387336730957,
          0.02765999175608158,
          -0.2568945288658142,
          -0.06330352276563644,
          -0.09213767200708389,
          -0.01886606402695179,
          0.2653055787086487,
          0.13533379137516022,
          0.023829646408557892,
          0.05128307640552521,
          0.03057650476694107,
          -0.020057620480656624,
          -0.010406821966171265,
          0.10781579464673996,
          -0.02039845660328865,
          0.08203084021806717,
          0.1661747246980667,
          0.13980907201766968,
          -0.04984721913933754,
          -0.19990994036197662,
          -0.11102639138698578,
          -0.03666171059012413,
          -0.1692817658185959,
          -0.21665994822978973,
          -0.08541087061166763,
          -0.050028249621391296,
          -0.17889021337032318,
          -0.21643944084644318,
          0.13015449047088623,
          -0.03046841360628605,
          0.08119513839483261,
          -0.06177076697349548,
          0.2333185374736786,
          -0.00465038139373064,
          0.03938264399766922,
          0.25060102343559265,
          0.05955216661095619,
          -0.034011270850896835,
          0.02437366358935833,
          -0.06081293523311615,
          0.06746269762516022,
          0.10060548037290573,
          -0.03045167773962021,
          0.04139776527881622,
          0.08005138486623764,
          0.06391996890306473,
          -0.04421951249241829,
          -0.12146105617284775,
          -0.1799929141998291,
          -0.08784344792366028,
          -0.1900085061788559,
          -0.2600385844707489,
          -0.24760791659355164,
          -0.16624680161476135,
          -0.05912758782505989,
          0.06332490593194962,
          0.13141034543514252,
          -0.0032865870743989944,
          -0.25420594215393066,
          0.16424939036369324,
          0.228053018450737,
          0.042409878224134445,
          0.034253135323524475,
          0.2240128070116043,
          0.07543548941612244,
          0.03457777574658394,
          -0.0145554905757308,
          0.046472735702991486,
          0.0747336819767952,
          0.01032132375985384,
          -0.012076827697455883,
          -0.16398821771144867,
          -0.06707090139389038,
          -0.001966868992894888,
          -0.0683918446302414,
          -0.06353401392698288,
          -0.3078506290912628,
          -0.197114035487175,
          -0.10813188552856445,
          -0.08896384388208389,
          -0.06449472159147263,
          0.12974213063716888,
          0.10355708748102188,
          -0.052907105535268784,
          -0.2796421945095062,
          -0.05410686880350113,
          -0.12107023596763611,
          -0.12471748888492584,
          0.2789037823677063,
          0.25744298100471497,
          0.14331583678722382,
          -0.11356036365032196,
          0.007785199675709009,
          0.0740630254149437,
          0.11202036589384079,
          0.03962428495287895,
          0.10846973955631256,
          0.050320543348789215,
          -0.01431257650256157,
          -0.2572675943374634,
          -0.14768590033054352,
          0.015791282057762146,
          0.15006619691848755,
          0.10802743583917618,
          0.06112998351454735,
          -0.02218015305697918,
          0.17048770189285278,
          0.01534219365566969,
          0.09359969198703766,
          0.14806020259857178,
          0.3602622151374817,
          0.022403929382562637,
          -0.34524762630462646,
          -0.05234947428107262,
          0.01754528470337391,
          -0.05649619549512863,
          -0.27083611488342285,
          -0.003293881192803383,
          0.11631320416927338,
          -0.03119015507400036,
          0.05667758733034134,
          -0.10153275728225708,
          -0.052584391087293625,
          0.043017927557229996,
          -0.1967768520116806,
          -0.24246980249881744,
          0.048963192850351334,
          0.004199427552521229,
          0.11185004562139511,
          0.11395124346017838,
          0.029110601171851158,
          0.12276166677474976,
          0.14155010879039764,
          0.13872435688972473,
          0.263421893119812,
          0.09522975236177444,
          0.09954414516687393,
          0.09082065522670746,
          0.20039956271648407,
          -0.04488413408398628,
          -0.18449635803699493,
          0.14734110236167908,
          0.014618025161325932,
          0.008412836119532585,
          0.1482802778482437,
          -0.42209285497665405,
          -0.3449511229991913,
          -0.4001362919807434,
          -0.01383568812161684,
          0.01467415876686573,
          -0.07025990635156631,
          -0.09534633159637451,
          0.07463669031858444,
          0.09035801887512207,
          -0.20028918981552124,
          -0.049128320068120956,
          0.12395083904266357,
          0.21466685831546783,
          0.08727321028709412,
          0.08132665604352951,
          0.14610859751701355,
          0.31582868099212646,
          0.1556083709001541,
          -0.14965605735778809,
          0.01881679706275463,
          0.11453762650489807,
          0.030973585322499275,
          0.2576393783092499,
          -0.07817572355270386,
          -0.022075997665524483,
          -0.027534285560250282,
          -0.06315797567367554,
          0.27921587228775024,
          0.09994659572839737,
          -0.1318856030702591,
          -0.14636103808879852,
          0.09871143847703934,
          0.02599388360977173,
          -0.2582336366176605,
          -0.1127825379371643,
          -0.08375962823629379,
          -0.12222148478031158,
          -0.434533953666687,
          -0.18400993943214417,
          0.11053119599819183,
          0.005281501915305853,
          0.1282678246498108,
          0.10261877626180649,
          -0.045546963810920715,
          0.03568263351917267,
          0.04630766436457634,
          0.3108212351799011,
          0.03209124132990837,
          -0.0821186974644661,
          -0.22475826740264893,
          0.1128554418683052,
          0.047374177724123,
          -0.05290704220533371,
          -0.05051053687930107,
          0.0032589370384812355,
          -0.05699959769845009,
          0.049212098121643066,
          0.1415170580148697,
          0.31373831629753113,
          0.0938856303691864,
          -0.026984460651874542,
          -0.052050795406103134,
          0.042930684983730316,
          -0.05279485508799553,
          -0.18948091566562653,
          -0.15700405836105347,
          0.0567450113594532,
          0.3616504967212677,
          0.10096652060747147,
          -0.015629876405000687,
          0.06996394693851471,
          0.15260599553585052,
          -0.037180591374635696,
          0.13086137175559998,
          0.23254606127738953,
          0.27711406350135803,
          0.25431734323501587,
          0.1291591227054596,
          -0.08212157338857651,
          0.019743461161851883,
          0.07935726642608643,
          -0.03365274891257286,
          -0.061338428407907486,
          0.018135780468583107,
          0.07601089030504227,
          -0.20763623714447021,
          -0.0981983169913292,
          0.1454746425151825,
          0.18610157072544098,
          0.21519233286380768,
          0.17710229754447937,
          0.11893317103385925,
          0.139853835105896,
          0.02036617510020733,
          -0.15069596469402313,
          -0.1962338238954544,
          0.1310015171766281,
          0.18038155138492584,
          -0.14706864953041077,
          0.05728985369205475,
          0.35193538665771484,
          0.07842230796813965,
          -0.07008286565542221,
          0.10876735299825668,
          -0.2732357680797577,
          -0.06517444550991058,
          0.0805974006652832,
          -0.06978312879800797,
          -0.013037326745688915
        ],
        [
          0.008336488157510757,
          -0.02864588238298893,
          0.050456393510103226,
          0.01876315474510193,
          0.05330120027065277,
          -0.02356240525841713,
          -0.03721784055233002,
          -0.04580254107713699,
          0.06477219611406326,
          0.0680960863828659,
          -0.07142956554889679,
          0.09166688472032547,
          0.007921906188130379,
          -0.0452868677675724,
          0.035389676690101624,
          -0.006442691665142775,
          0.014620952308177948,
          -0.06495867669582367,
          -0.023186171427369118,
          0.08490202575922012,
          -0.07389752566814423,
          -0.05323517695069313,
          -0.08437469601631165,
          0.02720346301794052,
          -0.005778536666184664,
          0.016145318746566772,
          0.027464019134640694,
          -0.01669103279709816,
          -0.03607901930809021,
          -0.05303295701742172,
          0.02266268990933895,
          -0.1154240071773529,
          0.044712137430906296,
          0.047382403165102005,
          0.014468961395323277,
          -0.027332618832588196,
          -0.03446441516280174,
          0.05434165894985199,
          -0.07884491980075836,
          -0.11964701116085052,
          -0.11658798903226852,
          0.05942339822649956,
          -0.023399407044053078,
          -0.10429231822490692,
          -0.03381853550672531,
          0.059510257095098495,
          0.020910674706101418,
          0.01575024425983429,
          -0.012628041207790375,
          0.06816849857568741,
          -0.06188356131315231,
          -0.015759292989969254,
          -0.04212254285812378,
          0.012446647509932518,
          0.06818599998950958,
          0.11441755294799805,
          0.11938183754682541,
          0.09941565245389938,
          0.05377650633454323,
          -0.07266393303871155,
          -0.027273327112197876,
          -0.009556624107062817,
          0.11324001848697662,
          -0.013226696290075779,
          0.12461372464895248,
          0.16828155517578125,
          0.06966029107570648,
          0.15526840090751648,
          0.2686271369457245,
          -0.02924048900604248,
          0.2083740532398224,
          -0.21098311245441437,
          -0.28809911012649536,
          -0.08554276078939438,
          -0.03664383292198181,
          -0.19770723581314087,
          -0.12558488547801971,
          0.11282530426979065,
          0.0035127734299749136,
          0.012731757014989853,
          0.03973492980003357,
          0.05462221801280975,
          0.03539551794528961,
          0.0484030582010746,
          0.07112889736890793,
          0.008075970225036144,
          -0.31377267837524414,
          -0.2224605232477188,
          -0.03646877408027649,
          0.11733956634998322,
          -0.015570877119898796,
          -0.20022092759609222,
          0.043721966445446014,
          0.31768444180488586,
          0.2750561237335205,
          0.020398560911417007,
          0.31244003772735596,
          0.3677454888820648,
          0.056541282683610916,
          0.1158013865351677,
          0.033103905618190765,
          0.27927660942077637,
          0.35615816712379456,
          0.015766525641083717,
          -0.057401612401008606,
          0.3218447268009186,
          0.2580958604812622,
          0.23709817230701447,
          0.12971779704093933,
          0.06520726531744003,
          -0.10885749757289886,
          0.01442152913659811,
          -0.07200708240270615,
          -0.07274448871612549,
          -0.36727574467658997,
          -0.2221267968416214,
          -0.2016042023897171,
          -0.03339601308107376,
          0.1623995155096054,
          0.26136812567710876,
          0.28144925832748413,
          0.42613843083381653,
          0.32834959030151367,
          0.48755359649658203,
          0.420768678188324,
          0.18621784448623657,
          0.23508967459201813,
          0.3392508924007416,
          0.25767627358436584,
          0.3318394422531128,
          0.32551196217536926,
          0.24286147952079773,
          0.3115597367286682,
          -0.07051051408052444,
          0.1403319388628006,
          0.16377276182174683,
          0.049664802849292755,
          -0.1120142713189125,
          0.14002984762191772,
          0.0012273930478841066,
          -0.016582651063799858,
          -0.022871751338243484,
          -0.08979205042123795,
          0.2915330231189728,
          0.03926334157586098,
          -0.1595192700624466,
          0.17048349976539612,
          0.3127533197402954,
          -0.1474183350801468,
          -0.10711882263422012,
          0.21970099210739136,
          0.3556446433067322,
          0.09053851664066315,
          -0.02314036712050438,
          -0.06078852340579033,
          0.24179866909980774,
          0.17106568813323975,
          0.28411608934402466,
          0.11845894902944565,
          0.22971905767917633,
          0.7550233602523804,
          0.4105243682861328,
          0.1754608005285263,
          -0.04541003704071045,
          0.16670957207679749,
          0.20392288267612457,
          0.37010955810546875,
          0.0495997853577137,
          0.036042872816324234,
          0.10207617282867432,
          -0.055140621960163116,
          0.12495747953653336,
          -0.13474853336811066,
          -0.27567270398139954,
          0.00038412195863202214,
          0.17254118621349335,
          0.10850687325000763,
          -0.06067921966314316,
          0.21002116799354553,
          0.18202216923236847,
          0.02061527408659458,
          -0.009892798028886318,
          0.19987307488918304,
          0.1368619203567505,
          0.15002457797527313,
          0.11521811783313751,
          0.19334179162979126,
          0.0338565893471241,
          0.13644398748874664,
          -0.06636763364076614,
          -0.0423816479742527,
          0.10958170145750046,
          0.17972111701965332,
          0.14275766909122467,
          0.16795065999031067,
          0.06134864687919617,
          -0.01179984025657177,
          0.12310845404863358,
          -0.07553885132074356,
          -0.14242549240589142,
          -0.20440644025802612,
          0.05689871683716774,
          -0.009658293798565865,
          0.05504177510738373,
          0.1246955618262291,
          -0.03518199920654297,
          0.00419293437153101,
          0.07696764171123505,
          0.03467989340424538,
          0.13242369890213013,
          0.314351886510849,
          0.19812913239002228,
          0.13498231768608093,
          -0.1472713053226471,
          -0.047459203749895096,
          -0.04618425667285919,
          -0.020270418375730515,
          -0.01489301398396492,
          0.1447615623474121,
          0.14422790706157684,
          -0.0765882283449173,
          -0.2841295897960663,
          0.13672083616256714,
          0.023031555116176605,
          0.02311951294541359,
          -0.04765772819519043,
          -0.1306329369544983,
          0.057348012924194336,
          0.12492749840021133,
          0.06211816892027855,
          0.10912206023931503,
          0.04482163116335869,
          0.1857178509235382,
          0.013227558694779873,
          -0.02970617450773716,
          -0.0823831558227539,
          -0.015390628017485142,
          0.1836869865655899,
          -0.04515354335308075,
          -0.08581502735614777,
          -0.04580259323120117,
          -0.05241810530424118,
          -0.04439059644937515,
          -0.06657768040895462,
          0.0020247516222298145,
          0.1548345386981964,
          0.09573984146118164,
          0.37543606758117676,
          0.16059501469135284,
          -0.18688949942588806,
          0.16654610633850098,
          0.3502051532268524,
          -0.07104229182004929,
          -0.18785256147384644,
          0.17235082387924194,
          0.15949700772762299,
          -0.06360560655593872,
          -0.0861981138586998,
          0.11177269369363785,
          0.09176710247993469,
          0.10583224147558212,
          0.030601095408201218,
          0.0740562155842781,
          0.11021222174167633,
          -0.13283570110797882,
          0.0018540475284680724,
          -0.4099273681640625,
          -0.22301320731639862,
          -0.056265123188495636,
          -0.09279929846525192,
          -0.227089986205101,
          -0.030800189822912216,
          -0.014227384701371193,
          0.023115867748856544,
          0.024641843512654305,
          0.4073353707790375,
          0.18296578526496887,
          0.3110506534576416,
          0.1857236921787262,
          -0.214871346950531,
          -0.084670290350914,
          -0.11702895909547806,
          0.2692200243473053,
          0.07806127518415451,
          -0.1091761589050293,
          -0.013181868940591812,
          -0.018162542954087257,
          0.06277301907539368,
          0.11944487690925598,
          -0.06583533436059952,
          0.17899253964424133,
          0.13314342498779297,
          -0.05321638286113739,
          -0.011854083277285099,
          -0.01017078198492527,
          -0.15651577711105347,
          0.014498135074973106,
          -0.031183108687400818,
          0.027676420286297798,
          -0.0883360505104065,
          -0.07242295145988464,
          0.08171458542346954,
          0.12135955691337585,
          0.2190580517053604,
          0.08390107750892639,
          0.19222845137119293,
          0.07838123291730881,
          -0.18546932935714722,
          -0.04911089316010475,
          -0.01927737332880497,
          -0.2978783845901489,
          -0.21415430307388306,
          -0.12266310304403305,
          -0.11863834410905838,
          -0.023395342752337456,
          -0.06683671474456787,
          -0.1446741372346878,
          -0.21389567852020264,
          -0.3560680150985718,
          -0.17455443739891052,
          -0.026336781680583954,
          0.23402893543243408,
          0.16192765533924103,
          0.05058798938989639,
          0.04761461913585663,
          0.043093979358673096,
          -0.012153686955571175,
          0.0010019093751907349,
          -0.11368544399738312,
          0.010281641967594624,
          -0.03625069558620453,
          -0.07178609073162079,
          0.007990587502717972,
          0.2933308482170105,
          -0.011852367781102657,
          -0.22234781086444855,
          -0.19320465624332428,
          -0.048451852053403854,
          -0.11388609558343887,
          0.12016061693429947,
          -0.20549333095550537,
          -0.3104860782623291,
          -0.16168776154518127,
          -0.006992754992097616,
          -0.05540436878800392,
          0.0019372862298041582,
          -0.11638214439153671,
          -0.09837562590837479,
          0.07824617624282837,
          0.2403465062379837,
          0.2891350984573364,
          -0.08520124107599258,
          -0.17115041613578796,
          -0.03242827579379082,
          -0.1571870744228363,
          -0.10803573578596115,
          -0.16748811304569244,
          -0.13885098695755005,
          -0.4139948785305023,
          -0.2847302556037903,
          -0.06532914936542511,
          0.1810975968837738,
          0.11198759078979492,
          0.05378742516040802,
          0.22168764472007751,
          -0.09108330309391022,
          -0.1059272289276123,
          0.20616410672664642,
          -0.25571948289871216,
          -0.45549899339675903,
          -0.18126699328422546,
          -0.05756159871816635,
          0.12901973724365234,
          0.19600099325180054,
          -0.06696680933237076,
          0.06015259400010109,
          0.21116980910301208,
          0.12038616091012955,
          0.040827881544828415,
          -0.1070241779088974,
          -0.13093186914920807,
          -0.1512080579996109,
          -0.18772678077220917,
          -0.20605742931365967,
          -0.07668804377317429,
          -0.13273866474628448,
          -0.14105670154094696,
          0.024681121110916138,
          -0.0547577366232872,
          0.26426011323928833,
          0.02263920195400715,
          0.07686746120452881,
          0.14706462621688843,
          -0.04903410002589226,
          -0.2607415020465851,
          0.14565642178058624,
          -0.24261288344860077,
          -0.4570139944553375,
          -0.1901702880859375,
          -0.0011505646398290992,
          -0.02445831336081028,
          -0.014689194038510323,
          -0.14713773131370544,
          0.02649806998670101,
          -0.05116854980587959,
          -0.01330546010285616,
          -0.06872885674238205,
          -0.07922683656215668,
          -0.04901917651295662,
          -0.298514187335968,
          -0.2645805776119232,
          -0.37582772970199585,
          0.10093050450086594,
          -0.09795617312192917,
          -0.14336355030536652,
          -0.16510064899921417,
          -0.12710040807724,
          -0.10645223408937454,
          0.18694864213466644,
          0.04238654673099518,
          0.048949774354696274,
          -0.014960761182010174,
          -0.14736749231815338,
          -0.0846426859498024,
          -0.33383774757385254,
          -0.27567458152770996,
          -0.035536039620637894,
          0.052015747874975204,
          -0.03268866240978241,
          0.07087606936693192,
          0.08918687701225281,
          0.1754053831100464,
          0.068379245698452,
          -0.11046671122312546,
          -0.0313902422785759,
          -0.05079103261232376,
          0.03160923719406128,
          -0.16881202161312103,
          -0.2372785210609436,
          -0.2773710787296295,
          0.011605567298829556,
          0.07785405963659286,
          -0.19548296928405762,
          -0.06920720636844635,
          0.11717025190591812,
          -0.016021450981497765,
          -0.011231450363993645,
          0.1273718625307083,
          -0.11753572523593903,
          0.06537153571844101,
          0.007663189433515072,
          -0.037447117269039154,
          -0.12999987602233887,
          -0.16019022464752197,
          -0.21681921184062958,
          0.022750437259674072,
          -0.31614401936531067,
          -0.1878548562526703,
          -0.0643889382481575,
          0.10090634971857071,
          0.11055651307106018,
          -0.006141745485365391,
          -0.05774550884962082,
          -0.17728449404239655,
          -0.14096705615520477,
          -0.24255117774009705,
          -0.03790263086557388,
          -0.015241600573062897,
          0.08506041765213013,
          0.08351438492536545,
          0.03965846821665764,
          0.07059753686189651,
          -0.18085944652557373,
          0.07001374661922455,
          0.11154697835445404,
          0.1362539827823639,
          0.00034551197313703597,
          -0.03981173038482666,
          -0.12409012019634247,
          0.047861114144325256,
          -0.06652480363845825,
          -0.06878053396940231,
          -0.037868011742830276,
          0.1769939512014389,
          -0.01603294163942337,
          -0.2922532856464386,
          -0.18238748610019684,
          -0.22917969524860382,
          -0.06181396543979645,
          -0.03273012489080429,
          -0.006074158009141684,
          -0.15787124633789062,
          -0.1257038712501526,
          -0.24251388013362885,
          -0.15599946677684784,
          -0.04834889620542526,
          -0.24913056194782257,
          -0.07689720392227173,
          -0.029607310891151428,
          -0.10639315843582153,
          -0.3152349889278412,
          -0.13342534005641937,
          -0.2152147740125656,
          0.0819622129201889,
          0.1857137233018875,
          0.10575371980667114,
          -0.1853542923927307,
          0.06582991033792496,
          0.006838748697191477,
          -0.0546744167804718,
          -0.077581025660038,
          0.08218411356210709,
          0.015191386453807354,
          -0.06401163339614868,
          -0.13963855803012848,
          -0.19383031129837036,
          -0.17281755805015564,
          -0.1267777383327484,
          -0.2518174350261688,
          -0.027287805452942848,
          -0.04286838322877884,
          -0.09923718124628067,
          -0.19745118916034698,
          -0.10248403251171112,
          -0.22293567657470703,
          -0.059865351766347885,
          -0.0683155506849289,
          -0.13993120193481445,
          -0.18118298053741455,
          0.0993792712688446,
          -0.2832900583744049,
          0.014995183795690536,
          0.09539799392223358,
          -0.11196974664926529,
          0.021467890590429306,
          -0.19685658812522888,
          0.1227775365114212,
          0.04518072307109833,
          -0.1095043495297432,
          0.05135195702314377,
          0.028136949986219406,
          -0.02890644781291485,
          -0.13220547139644623,
          -0.30417755246162415,
          -0.11538351327180862,
          0.033255599439144135,
          -0.23236845433712006,
          -0.14104202389717102,
          0.06960254162549973,
          0.02109231986105442,
          0.0330156609416008,
          0.11517380177974701,
          -0.0741099938750267,
          0.04309159889817238,
          0.17998124659061432,
          0.2222459614276886,
          -0.3195852041244507,
          0.07316195219755173,
          0.17815402150154114,
          0.05385870113968849,
          0.08594102412462234,
          -0.3350178003311157,
          0.253190279006958,
          0.3138791024684906,
          0.3818777799606323,
          0.14533095061779022,
          0.12349361926317215,
          -0.09973808377981186,
          -0.02179144322872162,
          0.047207530587911606,
          -0.13908588886260986,
          -0.11955190449953079,
          -0.15989671647548676,
          0.11578178405761719,
          -0.19645270705223083,
          -0.019887568429112434,
          0.16118907928466797,
          0.22140182554721832,
          0.17649728059768677,
          0.1701703518629074,
          0.06090233474969864,
          0.20255735516548157,
          0.2947479486465454,
          0.29248636960983276,
          -0.3032107651233673,
          0.2366224229335785,
          0.00294756842777133,
          -0.1223444864153862,
          0.028118165209889412,
          0.1551944464445114,
          0.24735885858535767,
          0.2733174264431,
          0.1601525992155075,
          -0.20996397733688354,
          0.13055568933486938,
          0.21752342581748962,
          0.25826817750930786,
          0.24099446833133698,
          0.0767381563782692,
          0.15957680344581604,
          0.06425072997808456,
          0.25954490900039673,
          0.22614136338233948,
          0.22862747311592102,
          0.12733402848243713,
          0.23332099616527557,
          0.3128507733345032,
          0.3616727292537689,
          0.40769049525260925,
          0.03354009613394737,
          0.3915786147117615,
          0.468308687210083,
          -0.05966323986649513,
          0.13978661596775055,
          0.4073917865753174,
          0.08596095442771912,
          0.04543192684650421,
          0.03263639286160469,
          0.41302672028541565,
          0.5741914510726929,
          0.16942016780376434,
          0.16951468586921692,
          0.27613702416419983,
          0.3988373279571533,
          0.3895564079284668,
          0.3377252221107483,
          0.24193458259105682,
          0.3220667243003845,
          0.33421266078948975,
          0.4189840257167816,
          0.2275344431400299,
          0.25765520334243774,
          0.24278594553470612,
          0.22587339580059052,
          0.3496352434158325,
          0.2616869807243347,
          0.30797433853149414,
          0.1366065889596939,
          0.4940478205680847,
          0.6890197396278381,
          0.1687944531440735,
          0.12221846729516983,
          -0.07361642271280289,
          0.04489465430378914,
          -0.02949952520430088,
          -0.05637762323021889,
          0.4197933077812195,
          0.6159733533859253,
          0.14752629399299622,
          0.2585954964160919,
          0.2065790444612503,
          0.3607288599014282,
          0.4327864646911621,
          0.4342092275619507,
          0.24114158749580383,
          0.2604837715625763,
          0.4248183071613312,
          0.24411065876483917,
          0.3536336421966553,
          0.39309951663017273,
          0.39840519428253174,
          0.3458802402019501,
          0.1905270218849182,
          0.19240206480026245,
          0.40673351287841797,
          0.19078141450881958,
          0.47776076197624207,
          0.5044978260993958,
          0.032438211143016815,
          0.1540750414133072,
          -0.20690438151359558,
          0.05563521385192871,
          -0.017439106479287148,
          -0.11209626495838165,
          -0.1018424853682518,
          0.14572998881340027,
          0.0864206850528717,
          -0.04138277471065521,
          0.09226604551076889,
          0.20440268516540527,
          0.2542300820350647,
          0.30510401725769043,
          0.07161469757556915,
          0.17911116778850555,
          0.30709218978881836,
          0.15004873275756836,
          0.25428420305252075,
          0.3802451491355896,
          0.30959782004356384,
          0.297666072845459,
          0.24335654079914093,
          -0.027418196201324463,
          0.038695044815540314,
          0.07855606079101562,
          -0.08360867947340012,
          0.38891446590423584,
          0.25811058282852173,
          0.02061728946864605,
          0.009229201823472977,
          -0.02249095030128956,
          -0.00047764627379365265,
          0.06411494314670563,
          0.15616080164909363,
          -0.14947836101055145,
          -0.4886668622493744,
          -0.19108977913856506,
          0.16732122004032135,
          0.03233584016561508,
          -0.02515557035803795,
          0.0025908935349434614,
          0.012731178663671017,
          -0.17617779970169067,
          0.022690361365675926,
          0.26097407937049866,
          0.18039925396442413,
          0.08266639709472656,
          0.05282999575138092,
          0.1359688639640808,
          -0.06096549704670906,
          -0.003653937252238393,
          0.013653434813022614,
          -0.2068880796432495,
          -0.287264347076416,
          -0.24645313620567322,
          -0.18013931810855865,
          0.10328322649002075,
          0.05929024890065193,
          0.011292872950434685,
          0.01103223580867052,
          -0.04188694804906845,
          0.011273310519754887,
          0.04481027275323868,
          -0.14915382862091064,
          0.12808606028556824,
          -0.162000373005867,
          -0.3326081335544586,
          -0.36686187982559204,
          0.003365159034729004,
          -0.17176425457000732,
          -0.020279740914702415,
          -0.019187701866030693,
          0.11187867820262909,
          0.07997474074363708,
          -0.07776075601577759,
          -0.2095928192138672,
          -0.1324034482240677,
          -0.2107025384902954,
          -0.4567011594772339,
          -0.40790483355522156,
          -0.1854553073644638,
          0.07443702220916748,
          0.02520265243947506,
          0.052223190665245056,
          0.01604357361793518,
          0.07723302394151688,
          0.004724766127765179,
          -0.027036549523472786,
          -0.04258829727768898,
          -0.053702015429735184,
          0.11651895940303802,
          0.07806244492530823,
          -0.028197582811117172,
          0.05838581547141075,
          0.03401836380362511,
          -0.13310334086418152,
          -0.20460999011993408,
          -0.23529314994812012,
          -0.07282374054193497,
          -0.14178578555583954,
          -0.08156327903270721,
          0.0005053735221736133,
          0.2033749520778656,
          0.17059917747974396,
          -0.40340903401374817,
          -0.1258530467748642,
          -0.26866045594215393,
          -0.15515868365764618,
          -0.16732756793498993,
          -0.032919008284807205,
          -0.17095869779586792,
          -0.01466536894440651,
          -0.042645253241062164,
          0.07243859767913818,
          -0.014136269688606262
        ],
        [
          -0.053627341985702515,
          -0.056988704949617386,
          0.068575918674469,
          -0.09937619417905807,
          -0.03597824648022652,
          -0.008122960105538368,
          0.03187242150306702,
          -0.008025426417589188,
          0.02335081808269024,
          -0.11070165038108826,
          0.020126117393374443,
          -0.04497936740517616,
          0.02503345161676407,
          -0.08105622977018356,
          0.009139204397797585,
          -0.04004305601119995,
          0.006428571417927742,
          -0.0009208112605847418,
          0.036971960216760635,
          -0.0275840163230896,
          0.043604083359241486,
          -0.07680663466453552,
          0.07978406548500061,
          -0.024908648803830147,
          0.002844406757503748,
          -0.052498236298561096,
          0.0913778766989708,
          -0.00204482558183372,
          -0.03443451225757599,
          0.01884639449417591,
          0.03985196724534035,
          -0.05598451569676399,
          0.015273532830178738,
          0.029717758297920227,
          -0.07727350294589996,
          -0.11390433460474014,
          0.025694018229842186,
          -0.08355441689491272,
          -0.05257267877459526,
          -0.1349700391292572,
          -0.14331285655498505,
          -0.23255571722984314,
          -0.05219094827771187,
          -0.15907299518585205,
          -0.019482620060443878,
          -0.17148055136203766,
          -0.13897207379341125,
          -0.1002466082572937,
          -0.1078561395406723,
          -0.08768222481012344,
          -0.16585750877857208,
          -0.06333532929420471,
          0.07558945566415787,
          -0.05144919455051422,
          0.13006947934627533,
          0.09284281730651855,
          0.045765072107315063,
          -0.049919575452804565,
          -0.11376949399709702,
          -0.01141450647264719,
          -0.051800236105918884,
          -0.1095835268497467,
          0.029504917562007904,
          -0.18975113332271576,
          -0.09136290103197098,
          -0.1672544628381729,
          -0.41896864771842957,
          -0.43241143226623535,
          -0.38228654861450195,
          -0.2640347480773926,
          -0.29195114970207214,
          -0.06394291669130325,
          -0.20065948367118835,
          -0.286575049161911,
          -0.24511907994747162,
          -0.15460053086280823,
          -0.07890777289867401,
          -0.0664529949426651,
          -0.05970938503742218,
          -0.10016925632953644,
          0.008379542268812656,
          -0.1316021978855133,
          -0.04219123348593712,
          -0.08624718338251114,
          0.08048921823501587,
          0.04854263737797737,
          -0.034714728593826294,
          0.016847144812345505,
          -0.059487584978342056,
          0.0861123651266098,
          -0.2288237065076828,
          -0.08392983675003052,
          0.0035876764450222254,
          -0.37038540840148926,
          -0.3508839011192322,
          -0.28246602416038513,
          -0.16801515221595764,
          -0.13523432612419128,
          -0.21696555614471436,
          -0.06365881115198135,
          -0.14567618072032928,
          -0.28350576758384705,
          -0.20132805407047272,
          -0.23280854523181915,
          0.014640039764344692,
          -0.1457536220550537,
          0.12232804298400879,
          -0.001529485103674233,
          0.16783051192760468,
          -0.07274442166090012,
          -0.0901530310511589,
          -0.023582331836223602,
          -0.11137448996305466,
          0.12427730858325958,
          0.03633379563689232,
          0.07896114885807037,
          -0.15421147644519806,
          -0.2521395981311798,
          -0.17425759136676788,
          -0.07668176293373108,
          -0.2494238018989563,
          -0.39123600721359253,
          -0.13143499195575714,
          -0.08081458508968353,
          -0.042416445910930634,
          -0.06500636041164398,
          -0.17321442067623138,
          -0.3288864195346832,
          -0.09368907660245895,
          0.08301129192113876,
          0.07666261494159698,
          -0.20922091603279114,
          -0.05706359073519707,
          -0.045744478702545166,
          0.1268969029188156,
          0.21998551487922668,
          0.4038087725639343,
          0.22491498291492462,
          0.08726724982261658,
          0.02630634233355522,
          0.032379768788814545,
          -0.00442426698282361,
          0.047743674367666245,
          0.147891566157341,
          0.14596162736415863,
          -0.1840818077325821,
          -0.10941158980131149,
          -0.2016955316066742,
          -0.1681583821773529,
          -0.008695431984961033,
          -0.03635265678167343,
          0.2895324230194092,
          0.22322995960712433,
          0.22501680254936218,
          0.15242215991020203,
          -0.0699131190776825,
          0.04595993831753731,
          0.1213817372918129,
          0.19888611137866974,
          -0.05186421796679497,
          -0.02663719467818737,
          -0.1107582226395607,
          -0.10024652630090714,
          -0.270547479391098,
          0.1963631808757782,
          0.08947063982486725,
          0.25143229961395264,
          -0.08221045136451721,
          -0.022907869890332222,
          0.19805341958999634,
          -0.03367960825562477,
          0.22237400710582733,
          0.059221215546131134,
          0.19854514300823212,
          0.06581192463636398,
          -0.1673642247915268,
          0.05031787231564522,
          0.3024066090583801,
          0.2952091097831726,
          0.10570584237575531,
          0.14489246904850006,
          0.2677147090435028,
          0.15448161959648132,
          0.33443471789360046,
          0.29749271273612976,
          0.28894275426864624,
          0.1952873319387436,
          -0.008612318895757198,
          0.05728082358837128,
          0.2841387987136841,
          0.054139554500579834,
          0.34251147508621216,
          0.2430689036846161,
          0.2647531032562256,
          0.23963525891304016,
          0.09580113738775253,
          -0.03620503097772598,
          0.33409756422042847,
          -0.11751002818346024,
          0.2912684679031372,
          0.2929799258708954,
          0.26924484968185425,
          0.16922850906848907,
          -0.0728224664926529,
          0.20632369816303253,
          -0.001806215150281787,
          0.1379745900630951,
          0.14669473469257355,
          0.16117897629737854,
          0.24433615803718567,
          0.015259906649589539,
          0.17171691358089447,
          0.18823011219501495,
          0.1058298796415329,
          0.0992245301604271,
          -0.0573279894888401,
          0.006178887095302343,
          -0.07013038545846939,
          0.1528523713350296,
          0.15571840107440948,
          0.2872874140739441,
          0.21418160200119019,
          0.28259047865867615,
          0.025681782513856888,
          -0.26281818747520447,
          -0.021655336022377014,
          0.07479748874902725,
          0.19369590282440186,
          0.16867713630199432,
          0.18959364295005798,
          0.11659778654575348,
          0.004450721200555563,
          0.09693725407123566,
          0.07919391244649887,
          0.054492536932229996,
          0.14012594521045685,
          0.08563117682933807,
          -0.060810431838035583,
          0.02432240918278694,
          0.11038683354854584,
          0.16881638765335083,
          0.10688257962465286,
          0.3006393015384674,
          -0.01837659813463688,
          0.03361089900135994,
          -0.08971276134252548,
          0.15447130799293518,
          0.03594357147812843,
          0.10450075566768646,
          0.4015846848487854,
          0.13983015716075897,
          0.2911257743835449,
          -0.058524735271930695,
          0.015872597694396973,
          0.14695626497268677,
          0.18201418220996857,
          -0.019895879551768303,
          0.26419323682785034,
          0.07292477786540985,
          -0.08306445926427841,
          0.12229815125465393,
          -0.054004967212677,
          -0.17116159200668335,
          -0.0029827801045030355,
          0.020984070375561714,
          -0.10874252766370773,
          0.006795224267989397,
          0.04856083542108536,
          0.052361685782670975,
          0.23152364790439606,
          0.06158040463924408,
          -0.12275619804859161,
          0.017339136451482773,
          -0.04313291981816292,
          0.14391972124576569,
          0.25007393956184387,
          -0.087752565741539,
          0.4258706569671631,
          0.5438463091850281,
          0.01484663039445877,
          -0.1307900995016098,
          -0.05223937705159187,
          0.0856098085641861,
          0.14821764826774597,
          -0.07088030129671097,
          0.19488084316253662,
          0.046710602939128876,
          -0.059477854520082474,
          -0.024176059290766716,
          -0.024181054905056953,
          -0.07401809841394424,
          -0.1445746123790741,
          -0.21750013530254364,
          -0.15147380530834198,
          -0.0408497080206871,
          -0.10675851255655289,
          -0.010904964990913868,
          -0.03726518154144287,
          -0.00453828414902091,
          -0.20415107905864716,
          -0.06017983704805374,
          0.07711004465818405,
          0.20874632894992828,
          0.1402561068534851,
          0.016578655689954758,
          0.052076879888772964,
          0.11069540679454803,
          -0.058080609887838364,
          0.07874519377946854,
          -0.05179951339960098,
          -0.08041857182979584,
          0.0984533280134201,
          -0.027343392372131348,
          -0.10960503667593002,
          -0.004846761468797922,
          0.02650618553161621,
          0.2151937335729599,
          0.0039144293405115604,
          -0.021113522350788116,
          0.006567494943737984,
          -0.09726676344871521,
          -0.11724177747964859,
          -0.10148340463638306,
          -0.21038104593753815,
          -0.08155804127454758,
          0.1128523200750351,
          0.12613016366958618,
          0.06596609205007553,
          0.16072045266628265,
          0.13735513389110565,
          -0.11286858469247818,
          -0.025594405829906464,
          0.018089886754751205,
          0.03917749971151352,
          0.14708879590034485,
          -0.10200409591197968,
          -0.03187274932861328,
          -0.08884700387716293,
          0.04586353152990341,
          0.05464734137058258,
          0.09781377017498016,
          -0.06577925384044647,
          -0.0389103963971138,
          0.03234501928091049,
          -0.013409760780632496,
          -0.0100273247808218,
          0.1526767760515213,
          -0.01925334520637989,
          0.04349582642316818,
          0.02032940275967121,
          -0.027935734018683434,
          -0.16226106882095337,
          -0.07919894903898239,
          0.12088051438331604,
          0.1712636649608612,
          0.31240445375442505,
          0.2917741537094116,
          0.1731749027967453,
          -0.07179369032382965,
          -0.12353828549385071,
          -0.15280789136886597,
          -0.013049806468188763,
          0.08433493226766586,
          -0.18768753111362457,
          -0.11849360913038254,
          0.03593868762254715,
          -0.13663917779922485,
          -0.11116321384906769,
          0.018168775364756584,
          -0.19968098402023315,
          -0.19515179097652435,
          -0.0017635127296671271,
          0.01480037346482277,
          -0.014616815373301506,
          0.1631575971841812,
          0.12178594619035721,
          0.12997151911258698,
          0.3594566285610199,
          0.002532663755118847,
          -0.09643317759037018,
          -0.1432425081729889,
          0.053339987993240356,
          0.2754226326942444,
          0.25179964303970337,
          0.2361442893743515,
          0.09157641977071762,
          0.029488414525985718,
          -0.21963447332382202,
          -0.21686534583568573,
          -0.05129062384366989,
          0.2739585041999817,
          0.13982127606868744,
          -0.10304290056228638,
          0.03497575595974922,
          -0.2935737073421478,
          -0.013095607049763203,
          -0.2989201545715332,
          -0.4866151511669159,
          -0.1357697993516922,
          0.11417587846517563,
          0.0599287785589695,
          -0.0031981051433831453,
          -0.03770360350608826,
          0.02059578336775303,
          0.10653040558099747,
          0.2946610152721405,
          0.030666548758745193,
          -0.014768184162676334,
          -0.11167377233505249,
          -0.023640548810362816,
          0.14652158319950104,
          0.15546561777591705,
          -0.07927105575799942,
          -0.09258431941270828,
          -0.08661559224128723,
          -0.05945942923426628,
          -0.21627120673656464,
          0.1311168074607849,
          0.1793636530637741,
          0.05075494945049286,
          -0.1073778048157692,
          0.09777311235666275,
          0.008894196711480618,
          -0.05552660673856735,
          -0.17034494876861572,
          -0.4615791141986847,
          -0.09628994017839432,
          0.01492537185549736,
          0.086704783141613,
          0.04495997726917267,
          -0.1626376062631607,
          -0.3191773593425751,
          0.008907334879040718,
          0.09356571733951569,
          0.0881652683019638,
          0.07614436000585556,
          -0.16163745522499084,
          -0.03889470547437668,
          0.06420091539621353,
          0.035141777247190475,
          0.009939240291714668,
          -0.2323564887046814,
          0.04954925924539566,
          0.04415155574679375,
          -0.14866960048675537,
          0.05747099220752716,
          0.15317726135253906,
          0.06142120435833931,
          0.11148955672979355,
          0.10658831149339676,
          0.046921804547309875,
          0.08865244686603546,
          -0.04137561842799187,
          -0.2988005578517914,
          -0.09743829071521759,
          0.03076416254043579,
          -0.10699507594108582,
          -0.014825629070401192,
          -0.21572397649288177,
          -0.3150106370449066,
          -0.03507464379072189,
          0.08059875667095184,
          0.04990902170538902,
          0.037437811493873596,
          -0.3275282382965088,
          0.08173073083162308,
          0.06725731492042542,
          0.011136899702250957,
          -0.05301130563020706,
          -0.05412469804286957,
          0.005171989090740681,
          -0.11523058265447617,
          -0.2764796316623688,
          0.03294247016310692,
          0.1253969669342041,
          0.34624728560447693,
          0.015524827875196934,
          -0.009994843043386936,
          0.11211436986923218,
          0.02538781426846981,
          0.009884975850582123,
          -0.277730792760849,
          0.008095232769846916,
          -0.08784427493810654,
          -0.08657877147197723,
          -0.010666128247976303,
          -0.15296973288059235,
          -0.211579829454422,
          -0.010678818449378014,
          -0.06163634732365608,
          -0.2065444439649582,
          -0.07387363165616989,
          -0.09642799198627472,
          0.03331168740987778,
          -0.12433282285928726,
          -0.1594226360321045,
          -0.15083235502243042,
          -0.15386326611042023,
          -0.06181947514414787,
          -0.09075061976909637,
          -0.5006763339042664,
          -0.20623943209648132,
          -0.138540118932724,
          0.28999093174934387,
          0.17497125267982483,
          0.17547711730003357,
          0.056006766855716705,
          0.048789966851472855,
          -0.09672627598047256,
          0.011593438684940338,
          0.14782866835594177,
          0.049186062067747116,
          0.10917752236127853,
          -0.336537629365921,
          -0.04316447302699089,
          0.2146586924791336,
          0.021779978647828102,
          -0.17204967141151428,
          -0.2236296534538269,
          -0.05410822480916977,
          0.0924287736415863,
          0.023125329986214638,
          0.0418090783059597,
          0.10304535925388336,
          -0.07404624670743942,
          -0.011842384934425354,
          -0.03715310990810394,
          0.08075302839279175,
          -0.15214410424232483,
          -0.1612926423549652,
          0.260319322347641,
          -0.06909721344709396,
          -0.19882681965827942,
          0.04258459061384201,
          0.05305233225226402,
          0.09485337883234024,
          -0.13247978687286377,
          -0.03474349156022072,
          -0.02703125774860382,
          -0.07134484499692917,
          -0.09399129450321198,
          -0.20910996198654175,
          0.026315825060009956,
          0.12902429699897766,
          0.08325403928756714,
          -0.03304149955511093,
          -0.15935471653938293,
          -0.053755130618810654,
          0.03757885843515396,
          0.18664592504501343,
          0.20515930652618408,
          0.10982519388198853,
          0.21006163954734802,
          0.017841121181845665,
          -0.2625301480293274,
          -0.08061035722494125,
          -0.18505237996578217,
          -0.2493431121110916,
          0.25766056776046753,
          -0.2498987764120102,
          0.08146318793296814,
          0.2364715337753296,
          -0.07698230445384979,
          0.12624415755271912,
          -0.19459404051303864,
          0.0162111334502697,
          0.07396982610225677,
          0.04648831486701965,
          0.12149146944284439,
          -0.35089144110679626,
          -0.12149195373058319,
          -0.10951358079910278,
          -0.1410539150238037,
          -0.06007017195224762,
          0.07533546537160873,
          0.015859683975577354,
          0.07805182784795761,
          0.15265046060085297,
          0.06337463110685349,
          0.15905755758285522,
          0.27162691950798035,
          -0.0036667727399617434,
          -0.029312139376997948,
          0.06311299651861191,
          -0.1021893098950386,
          -0.19594019651412964,
          0.14394401013851166,
          -0.023963864892721176,
          -0.24849320948123932,
          0.003935882821679115,
          -0.05353035405278206,
          0.0321841761469841,
          0.09549032896757126,
          -0.05880356207489967,
          0.2662665545940399,
          0.18920834362506866,
          -0.00690427515655756,
          -0.26817676424980164,
          -0.14458037912845612,
          -0.143608957529068,
          -0.347691148519516,
          -0.16734878718852997,
          -0.10438905656337738,
          0.08355702459812164,
          0.08061401546001434,
          0.12289419770240784,
          0.06796588748693466,
          -0.00739083718508482,
          -0.039253994822502136,
          0.01655326597392559,
          -0.011492462828755379,
          0.03426402807235718,
          -0.08485633879899979,
          -0.04741643741726875,
          -0.0862431675195694,
          0.044075656682252884,
          -0.19186054170131683,
          -0.11104132980108261,
          0.16412058472633362,
          -0.006287695840001106,
          0.09743904322385788,
          -0.22327584028244019,
          0.2046024650335312,
          0.13502295315265656,
          0.1375700980424881,
          -0.15651042759418488,
          -0.199595108628273,
          -0.16138814389705658,
          -0.19785620272159576,
          0.0487682931125164,
          0.1980838179588318,
          0.06780467182397842,
          0.012598073109984398,
          0.029636112973093987,
          -0.07452390342950821,
          -0.16371262073516846,
          -0.13607625663280487,
          -0.15702827274799347,
          0.14122019708156586,
          0.1059129610657692,
          0.23263029754161835,
          0.0015921499580144882,
          -0.061522677540779114,
          -0.04257548600435257,
          -0.04161396622657776,
          0.04699420928955078,
          0.3277725577354431,
          0.13014347851276398,
          0.050764959305524826,
          0.029362432658672333,
          -0.08384179323911667,
          0.1332659125328064,
          0.23790962994098663,
          0.1382797509431839,
          0.11664441972970963,
          0.2490091323852539,
          0.10802559554576874,
          0.16444966197013855,
          0.13297952711582184,
          0.06075086444616318,
          0.0005826393608003855,
          -0.23143991827964783,
          -0.10651728510856628,
          -0.3619838356971741,
          -0.16259266436100006,
          0.25014427304267883,
          0.2695857584476471,
          0.35776957869529724,
          0.24779359996318817,
          0.24887476861476898,
          -0.0330897755920887,
          -0.04158351197838783,
          -0.09218518435955048,
          -0.11924675107002258,
          -0.2340758740901947,
          0.41529592871665955,
          0.3458315134048462,
          0.2082691490650177,
          0.21762830018997192,
          0.17531581223011017,
          -0.040385980159044266,
          -0.030068015679717064,
          0.08606144785881042,
          0.16610541939735413,
          0.09246381372213364,
          0.3094135522842407,
          0.21890956163406372,
          -0.013946060091257095,
          -0.025331243872642517,
          -0.11351005733013153,
          -0.02417222410440445,
          0.1391007900238037,
          -0.0010522451484575868,
          0.2093224823474884,
          0.4637185335159302,
          0.39269015192985535,
          0.07185021787881851,
          -0.022593997418880463,
          -0.25965186953544617,
          -0.012859294191002846,
          0.038687556982040405,
          -0.008659862913191319,
          0.14991530776023865,
          -0.2623950242996216,
          -0.06687330454587936,
          0.226018026471138,
          0.3358214199542999,
          0.24737483263015747,
          0.17579583823680878,
          0.05801926180720329,
          0.4708375334739685,
          0.29042693972587585,
          -0.023940766230225563,
          0.14701230823993683,
          -0.0464179627597332,
          0.22863228619098663,
          0.4308703541755676,
          0.3500564694404602,
          0.19531115889549255,
          0.42773187160491943,
          0.1765304058790207,
          0.10760181397199631,
          -0.23562809824943542,
          -0.10891186445951462,
          -0.04719039797782898,
          -0.1048324853181839,
          -0.03769492730498314,
          -0.026149608194828033,
          -0.07717986404895782,
          0.006420965306460857,
          0.060505419969558716,
          0.0216610636562109,
          -0.03449195623397827,
          0.3345334231853485,
          0.26200857758522034,
          0.22768130898475647,
          -0.00040268857264891267,
          0.009220839478075504,
          0.2747454047203064,
          0.25404831767082214,
          0.1488671451807022,
          0.35235026478767395,
          0.257771760225296,
          -0.06244460120797157,
          -0.0981600433588028,
          0.08932312577962875,
          0.24496494233608246,
          -0.09968450665473938,
          -0.11881779879331589,
          0.1150817945599556,
          0.21523183584213257,
          0.18404275178909302,
          0.1421487033367157,
          -0.07060201466083527,
          0.0203007273375988,
          0.001209645182825625,
          -0.017229218035936356,
          0.01091395691037178,
          0.03701608255505562,
          0.11995209753513336,
          -0.16082614660263062,
          -0.15201690793037415,
          0.09515942633152008,
          0.12264080345630646,
          0.2579825818538666,
          0.05812700092792511,
          -0.16760298609733582,
          0.02381695993244648,
          -0.052824586629867554,
          -0.1558845192193985,
          0.15600451827049255,
          0.09533499926328659,
          0.1595430225133896,
          -0.029139768332242966,
          0.011401147581636906,
          0.13126718997955322,
          0.041856762021780014,
          -0.015298518352210522,
          0.012674348428845406,
          -0.2522202730178833,
          -0.08979648351669312,
          0.02255038544535637,
          0.006047852803021669,
          0.022929547354578972
        ],
        [
          0.011555674485862255,
          0.04469694569706917,
          0.011376219801604748,
          -0.11205356568098068,
          0.10337646305561066,
          0.031502317637205124,
          0.04685915261507034,
          0.10592007637023926,
          -0.030905134975910187,
          0.054182350635528564,
          0.03990592062473297,
          0.06249207630753517,
          0.01791132614016533,
          -0.02639295533299446,
          0.0636153370141983,
          -0.017270084470510483,
          0.031559597700834274,
          0.07805787771940231,
          -0.026441026479005814,
          -0.0078915199264884,
          -0.041846610605716705,
          0.05854962393641472,
          0.012221135199069977,
          0.017539208754897118,
          -0.040002260357141495,
          -0.05464150384068489,
          0.018114082515239716,
          -0.04397212341427803,
          0.03510981798171997,
          -0.03387186676263809,
          0.002362932311370969,
          -0.0007435233565047383,
          0.008818755857646465,
